tree
version=v4
num_class=1
num_tree_per_iteration=1
label_index=0
max_feature_idx=0
objective=regression
feature_names=Column_0
feature_infos=[442368:5415912]
tree_sizes=2627 2662 2667 2656 2659 2661 2664 2667 2663 2668 2668 2675 2663 2665 2679 2667 2678 2677 2598 2602 2601 2680 2692 2692 2616 2689 2694 2699 2697 2697 2626 2623 2704 2707 2718 2710 2703 2713 2712 2712 2714 2719 2629 2716 2707 2715 2641 2716 2722 2724 2724 2729 2641 2724 2639 2732 2737 2656 2723 2656 2724 2651 2737 2572 2656 2738 2661 2746 2666 2576 2743 2661 2667 2504 2667 2675 2501 2672 2672 2766 2511 2683 2503 2594 2500 2606 2686 2504 2426 2425 2177 2344 2425 1930 2508 1923 1834 2180 1923 2260

Tree=0
num_leaves=31
num_cat=0
split_feature=0 0 0 0 0 0 0 0 0 0 0 0 0 0 0 0 0 0 0 0 0 0 0 0 0 0 0 0 0 0
split_gain=8.78883e+06 1.24217e+06 913654 173022 140696 98214.8 87301.8 25154.8 21728.5 18637.5 14807.4 13435.9 11244.3 10500.8 10063.3 4499.26 3211.32 3143.46 2349.68 2262.7 1788.94 1753.49 1632.43 1433.34 1337.95 1004.29 849.697 800.013 756.442 521.719
threshold=2690109.0000000005 3900113.5000000005 1467313.0000000002 4728027.0000000009 2075873.0000000002 925594.00000000012 3329005.0000000005 5152199.0000000009 2482116.0000000005 4369214.0000000009 1718093.5000000002 2963439.5000000005 3585573.5000000005 1173885.5000000002 667626.50000000012 2227063.0000000005 4898748.0000000009 4129307.5000000005 1955025.0000000002 4565307.0000000009 5279793.0000000009 3764705.0000000005 3193289.0000000005 1041978.5000000001 1398057.5000000002 789285.00000000012 564359.50000000012 1614224.5000000002 2850049.5000000005 2563457.0000000005
decision_type=2 2 2 2 2 2 2 2 2 2 2 2 2 2 2 2 2 2 2 2 2 2 2 2 2 2 2 2 2 2
left_child=2 6 5 9 10 14 11 16 15 17 27 28 -8 23 26 -6 -5 -3 -12 -11 -9 -14 -13 -7 -15 -16 -1 -4 -2 -10
right_child=1 3 4 7 8 13 12 20 29 19 18 22 21 24 25 -17 -18 -19 -20 -21 -22 -23 -24 -25 -26 -27 -28 -29 -30 -31
leaf_value=255.30215697170436 259.61516735361664 262.35562026454875 257.15830795154875 263.77921741510744 258.29813929974392 256.16624445191638 260.83680001504081 264.69982183167173 259.1860857174056 263.03587950013758 257.69858572920486 260.19180001316749 261.3070040908346 256.67799049123124 255.69001413590567 258.70092088625262 264.17524916253655 262.71157397657493 258.01465715789794 263.39212949952622 265.09328344642722 261.63465714154921 260.47060953856646 256.40473652297732 256.95305001504079 255.87504665558058 255.46894268417356 257.3575143007551 259.83037143999337 259.38310952930647
leaf_weight=168 98 132 126 91 112 126 140 52 56 104 196 140 98 210 140 182 117 117 84 78 65 70 84 126 56 154 140 84 70 84
leaf_count=168 98 132 126 91 112 126 140 52 56 104 196 140 98 210 140 182 117 117 84 78 65 70 84 126 56 154 140 84 70 84
internal_value=259.087 262.056 256.972 263.461 258.136 256.012 260.538 264.332 258.792 262.804 257.555 260.043 261.168 256.517 255.578 258.547 264.002 262.523 257.793 263.189 264.918 261.444 260.296 256.285 256.736 255.787 255.378 257.238 259.705 259.304
internal_weight=0 1456 2044 756 924 1120 700 325 434 431 490 392 308 518 602 294 208 249 280 182 117 168 224 252 266 294 308 210 168 140
internal_count=3500 1456 2044 756 924 1120 700 325 434 431 490 392 308 518 602 294 208 249 280 182 117 168 224 252 266 294 308 210 168 140
is_linear=0
shrinkage=1


Tree=1
num_leaves=31
num_cat=0
split_feature=0 0 0 0 0 0 0 0 0 0 0 0 0 0 0 0 0 0 0 0 0 0 0 0 0 0 0 0 0 0
split_gain=7.93192e+06 1.12106e+06 824706 156152 109200 105265 78789.9 22750.9 16868.8 15852 13805.2 12381 12125.9 10237.9 9082.08 3612.9 3507.19 3106.57 2402.13 2310.99 1907.35 1888.23 1784.39 1568.6 1486.07 906.369 851.909 766.852 682.689 470.852
threshold=2690109.0000000005 3900113.5000000005 1524251.5000000002 4728027.0000000009 2183604.5000000005 925594.00000000012 3329005.0000000005 5179409.5000000009 4276564.0000000009 1887270.0000000002 1240007.0000000002 2482116.0000000005 2963439.5000000005 3552276.5000000005 667626.50000000012 1718093.5000000002 4898748.0000000009 4565307.0000000009 1041978.5000000001 2032500.5000000002 1398057.5000000002 3764705.0000000005 2360009.0000000005 4129307.5000000005 3215911.0000000005 789285.00000000012 5313469.5000000009 564359.50000000012 2850049.5000000005 2563457.0000000005
decision_type=2 2 2 2 2 2 2 2 2 2 2 2 2 2 2 2 2 2 2 2 2 2 2 2 2 2 2 2 2 2
left_child=2 6 5 8 9 14 12 16 23 15 18 22 28 -8 27 -4 -5 -10 -7 -11 -12 -15 -6 -3 -14 -16 -9 -1 -2 -13
right_child=1 3 4 7 11 10 13 26 17 19 20 29 24 21 25 -17 -18 -19 -20 -21 -22 -23 -24 -25 -26 -27 -28 -29 -30 -31
leaf_value=-3.5954648775713789 0.50189469123677333 3.1053249937115295 -1.7094521349126641 4.4577422676505618 -0.51945958523050195 -2.7745820666116381 1.6303822411431206 5.4495136994581959 3.6977332455294949 -1.1446167954376765 -2.2331852122715543 0.094267138373106726 1.0621946596092993 2.0893743191446581 -3.2270008141653879 -1.3585007041692734 4.8624609228280882 4.090008985079252 -2.4947591781616212 -0.82341702505946168 -1.9563553009714401 2.4204099205562049 -0.22195081075742129 3.3881393359257626 1.3400409766605923 -3.0512198212858923 5.7357204437255866 -3.4370184871128631 0.70633855457816808 0.28143976715703806
leaf_weight=168 98 132 154 91 126 126 126 52 143 112 140 56 154 112 140 140 130 78 196 112 112 70 84 78 70 154 52 140 70 84
leaf_count=168 98 132 154 91 126 126 126 52 143 112 140 56 154 112 140 140 130 78 196 112 112 70 84 78 70 154 52 140 70 84
internal_value=0 2.82023 -2.00893 4.15527 -0.839909 -2.87178 1.3784 4.98279 3.53126 -1.3009 -2.38733 -0.157645 0.908189 1.97684 -3.3337 -1.54233 4.69581 3.83618 -2.60426 -0.984017 -2.11015 2.2167 -0.400456 3.21037 1.14902 -3.13493 5.59262 -3.52344 0.58708 0.206571
internal_weight=0 1456 2044 756 868 1176 700 325 431 518 574 350 392 308 602 294 221 221 322 224 252 182 210 210 224 294 104 308 168 140
internal_count=3500 1456 2044 756 868 1176 700 325 431 518 574 350 392 308 602 294 221 221 322 224 252 182 210 210 224 294 104 308 168 140
is_linear=0
shrinkage=0.05


Tree=2
num_leaves=31
num_cat=0
split_feature=0 0 0 0 0 0 0 0 0 0 0 0 0 0 0 0 0 0 0 0 0 0 0 0 0 0 0 0 0 0
split_gain=7.15856e+06 1.01176e+06 744522 140928 118701 76194.6 71107.9 20599.2 17764.8 15315.2 12919.5 10943.6 9239.71 8196.59 7731.86 4024.03 2632.56 2522.37 1941.04 1812.25 1704.13 1456.31 1347.29 1338.09 1138.76 817.997 772.286 735.138 692.086 616.127
threshold=2690109.0000000005 3900113.5000000005 1451644.5000000002 4728027.0000000009 2075873.0000000002 925594.00000000012 3329005.0000000005 5152199.0000000009 2360009.0000000005 4369214.0000000009 1718093.5000000002 2963439.5000000005 3552276.5000000005 667626.50000000012 1173885.5000000002 2522094.5000000005 4873754.0000000009 4129307.5000000005 1955025.0000000002 4565307.0000000009 3764705.0000000005 5279793.0000000009 3193289.0000000005 2183604.5000000005 1041978.5000000001 789285.00000000012 1614224.5000000002 1315939.5000000002 564359.50000000012 2850049.5000000005
decision_type=2 2 2 2 2 2 2 2 2 2 2 2 2 2 2 2 2 2 2 2 2 2 2 2 2 2 2 2 2 2
left_child=2 6 5 9 10 13 11 16 23 17 26 29 -8 28 24 -10 -5 -3 -12 -11 -14 -9 -13 -6 -7 -15 -4 -16 -1 -2
right_child=1 3 4 7 8 14 12 21 15 19 18 22 20 25 27 -17 -18 -19 -20 -21 -22 -23 -24 -25 -26 -27 -28 -29 -30 -31
leaf_value=-3.4156918957119902 0.47679996848562545 2.9500588041363343 -1.7491725328990393 4.2054596240703876 -0.75111704972528281 -2.6358529711526537 1.5488631142510307 5.0671789462749777 -0.16834079470219357 3.5666847815880409 -1.2539882696404749 0.99658600045101986 1.98490560735975 -3.0656506347656252 -2.2142723410470144 0.25550356769402111 4.5728873825073242 3.2689142406496234 -0.96671250348999394 3.8855084052452677 2.2993895830426898 5.4221811030461247 1.2498781202804476 -0.4934866039998948 -2.423276625739204 -2.8986588292307669 -1.5574031250817437 -2.0424096482140679 -3.2651675524030419 0.67102163623486255
leaf_weight=168 98 132 140 78 84 126 126 52 112 104 196 140 112 140 140 112 130 117 84 78 70 65 84 126 126 154 84 112 140 70
leaf_count=168 98 132 140 78 84 126 126 52 112 104 196 140 112 140 140 112 130 117 84 78 70 65 84 126 126 154 84 112 140 70
internal_value=0 2.67922 -1.90849 3.9475 -0.872284 -2.78729 1.30948 4.73365 -0.266154 3.3547 -1.39423 0.86278 1.878 -3.16702 -2.33373 0.0435814 4.4351 3.09988 -1.16781 3.70332 2.10586 5.2644 1.09157 -0.596539 -2.52956 -2.97818 -1.67726 -2.13789 -3.34727 0.557726
internal_weight=0 1456 2044 756 938 1106 700 325 434 431 504 392 308 602 504 224 208 249 280 182 182 117 224 210 252 294 224 252 308 168
internal_count=3500 1456 2044 756 938 1106 700 325 434 431 504 392 308 602 504 224 208 249 280 182 182 117 224 210 252 294 224 252 308 168
is_linear=0
shrinkage=0.05


Tree=3
num_leaves=31
num_cat=0
split_feature=0 0 0 0 0 0 0 0 0 0 0 0 0 0 0 0 0 0 0 0 0 0 0 0 0 0 0 0 0 0
split_gain=6.4606e+06 913143 671967 121291 103435 72114.3 70139.6 17165.5 16044.4 13809.6 10812.7 9928.83 9876.63 7781.79 7397.42 3343.46 2216.21 2052.44 2005.37 1751.79 1687.43 1226.73 1027.73 965.929 738.242 695.403 634.907 611.564 556.055 375.807
threshold=2690109.0000000005 3929063.5000000005 1467313.0000000002 4748295.5000000009 2075873.0000000002 925594.00000000012 3329005.0000000005 5179409.5000000009 2482116.0000000005 4369214.0000000009 1718093.5000000002 3585573.5000000005 2963439.5000000005 1173885.5000000002 667626.50000000012 2227063.0000000005 4898748.0000000009 4565307.0000000009 3764705.0000000005 1955025.0000000002 4129307.5000000005 3215911.0000000005 1041978.5000000001 1398057.5000000002 789285.00000000012 5313469.5000000009 627226.50000000012 1614224.5000000002 2850049.5000000005 2563457.0000000005
decision_type=2 2 2 2 2 2 2 2 2 2 2 2 2 2 2 2 2 2 2 2 2 2 2 2 2 2 2 2 2 2
left_child=2 6 5 9 10 14 12 16 15 20 27 -8 28 22 26 -6 -5 -11 -13 -12 -3 -14 -7 -15 -16 -9 -1 -4 -2 -10
right_child=1 3 4 7 8 13 11 25 29 17 19 18 21 23 24 -17 -18 -19 -20 -21 -22 -23 -24 -25 -26 -27 -28 -29 -30 -31
leaf_value=-3.213749129431589 0.45295996246289233 2.8375006918179788 -1.6537038235437302 4.0510991365481646 -0.67757512413497478 -2.5040603304666185 1.4990083057539805 4.919241531078633 0.087374721307839673 3.3883504317356987 -1.191288861204699 1.9054256254312945 0.95810429291291666 -2.0645553161984398 -2.9123680877685549 -0.33036109539014952 4.3882220312265252 3.713501207121126 2.2383535339718774 -0.9183768641381036 3.1054684696034491 1.2105450248718261 -2.3021128760443794 -1.8308439697538104 -2.7537258866545447 5.1778254729050861 -3.0276235852922717 -1.4795329389118015 0.63747057401708196 0.25459259736928203
leaf_weight=252 98 118 126 78 112 126 140 52 56 104 196 98 154 210 140 182 130 91 84 84 117 70 126 56 154 52 56 84 70 84
leaf_count=252 98 118 126 78 112 126 140 52 56 104 196 98 154 210 140 182 130 91 84 84 117 70 126 56 154 52 56 84 70 84
internal_value=0 2.54526 -1.81306 3.77356 -0.814956 -2.6365 1.26879 4.52405 -0.252846 3.22903 -1.31282 1.81557 0.819641 -2.20398 -3.00867 -0.462633 4.2618 3.54009 2.05908 -1.10942 2.97091 1.03699 -2.40309 -2.01535 -2.82927 5.04853 -3.17991 -1.58404 0.529839 0.187705
internal_weight=0 1456 2044 742 924 1120 714 312 434 430 490 322 392 518 602 294 208 195 182 280 235 224 252 266 294 104 308 210 168 140
internal_count=3500 1456 2044 742 924 1120 714 312 434 430 490 322 392 518 602 294 208 195 182 280 235 224 252 266 294 104 308 210 168 140
is_linear=0
shrinkage=0.05


Tree=4
num_leaves=31
num_cat=0
split_feature=0 0 0 0 0 0 0 0 0 0 0 0 0 0 0 0 0 0 0 0 0 0 0 0 0 0 0 0 0 0
split_gain=5.83069e+06 824443 606627 114792 80301.7 77286.1 57840.3 16850.6 12504.4 11871.2 10279.9 9146.67 8966.67 7564.69 6676.17 2676.22 2232.54 2137.38 1725.08 1570.03 1389.34 1385.14 1356 1346.78 1185.29 1096.53 690.68 592.509 339.166 108.543
threshold=2690109.0000000005 3900113.5000000005 1524251.5000000002 4728027.0000000009 2183604.5000000005 925594.00000000012 3329005.0000000005 5152199.0000000009 4276564.0000000009 1812641.5000000002 1240007.0000000002 2482116.0000000005 2914411.0000000005 3552276.5000000005 667626.50000000012 2032500.5000000002 4565307.0000000009 4873754.0000000009 1041978.5000000001 3127078.0000000005 2360009.0000000005 1718093.5000000002 1398057.5000000002 3764705.0000000005 5279793.0000000009 3996588.5000000005 860550.50000000012 564359.50000000012 2563457.0000000005 3443436.5000000005
decision_type=2 2 2 2 2 2 2 2 2 2 2 2 2 2 2 2 2 2 2 2 2 2 2 2 2 2 2 2 2 2
left_child=2 6 5 8 9 14 12 17 25 21 18 20 -2 29 27 -11 -10 -5 -7 -14 -6 -4 -12 -15 -9 -3 -16 -1 -13 -8
right_child=1 3 4 7 11 10 13 24 16 15 22 28 19 23 26 -17 -18 -19 -20 -21 -22 -23 -24 -25 -26 -27 -28 -29 -30 -31
leaf_value=-3.0842196338233494 0.45782606029616935 2.5573785322683831 -1.4638159343174526 3.79544520011315 -0.44843628920969514 -2.3788573885720874 1.3549616398130144 4.574495726365309 3.1730128588376347 -1.0206408501026176 -1.9118811770847868 0.083005981200507714 0.83209651119652261 1.7929291554859708 -2.7306473902293615 -0.70510657900678264 3.5055580726036659 4.1265177095853369 -2.1417261532374794 1.0817020035925367 -0.18591817519073153 -1.2114070585795813 -1.6784670727593558 2.0725022969927109 4.8947667224590603 2.8187939766125805 -2.5507150541033066 -2.9449443381173275 0.24186296269652391 1.4483545005321503
leaf_weight=168 140 54 154 78 126 126 70 52 143 168 140 56 126 112 224 112 78 130 196 126 84 84 112 70 65 156 70 140 84 56
leaf_count=168 140 54 154 78 126 126 70 52 143 168 140 56 126 112 224 112 78 130 196 126 84 84 112 70 65 156 70 140 84 56
internal_value=0 2.418 -1.72241 3.56287 -0.719793 -2.46243 1.18153 4.27239 3.02785 -1.11511 -2.04733 -0.134729 0.778659 1.69428 -2.85823 -0.894427 3.29038 4.00237 -2.23452 0.956899 -0.343429 -1.37473 -1.80814 1.90046 4.75242 2.75157 -2.68781 -3.02091 0.17832 1.39647
internal_weight=0 1456 2044 756 868 1176 700 325 431 518 574 350 392 308 602 280 221 208 322 252 210 238 252 182 117 210 294 308 140 126
internal_count=3500 1456 2044 756 868 1176 700 325 431 518 574 350 392 308 602 280 221 208 322 252 210 238 252 182 117 210 294 308 140 126
is_linear=0
shrinkage=0.05


Tree=5
num_leaves=31
num_cat=0
split_feature=0 0 0 0 0 0 0 0 0 0 0 0 0 0 0 0 0 0 0 0 0 0 0 0 0 0 0 0 0 0
split_gain=5.2622e+06 744060 547634 103679 87245.4 56012.5 52200.9 14028.3 13259.4 12669.9 9430.01 8096.51 6827.13 6279.7 5539.63 2978.92 1877.41 1804.86 1634.86 1469.06 1215.47 1035.01 999.11 961.714 859.208 587.216 567.733 541.473 459.893 169.652
threshold=2690109.0000000005 3900113.5000000005 1451644.5000000002 4748295.5000000009 2075873.0000000002 912522.50000000012 3329005.0000000005 5179409.5000000009 2360009.0000000005 4369214.0000000009 1718093.5000000002 2963439.5000000005 3552276.5000000005 1131400.0000000002 627226.50000000012 2522094.5000000005 4129307.5000000005 4898748.0000000009 4565307.0000000009 1955025.0000000002 3764705.0000000005 3215911.0000000005 1240007.0000000002 2183604.5000000005 739572.00000000012 1614224.5000000002 5313469.5000000009 996987.00000000012 2850049.5000000005 540386.50000000012
decision_type=2 2 2 2 2 2 2 2 2 2 2 2 2 2 2 2 2 2 2 2 2 2 2 2 2 2 2 2 2 2
left_child=2 6 5 9 10 14 11 17 23 16 25 28 -8 27 29 -10 -3 -5 -11 -12 -14 -13 -15 -6 -16 -4 -9 -7 -2 -1
right_child=1 3 4 7 8 13 12 26 15 18 19 21 20 22 24 -17 -18 -19 -20 -21 -22 -23 -24 -25 -26 -27 -28 -29 -30 -31
leaf_value=-2.93786581750427 0.40742065499023516 2.5282655672593553 -1.4995858941759383 3.6560130388308796 -0.64442711827300847 -2.2984760128721899 1.3266460570078049 4.4405513690068172 -0.14269303073441345 3.0602823202426617 -1.076604558770754 0.864055962088917 1.7032826253346034 -1.9764230115073069 -2.6856571088518417 0.22198154072144202 2.8033517967941415 3.9602451559213492 3.350477491106306 -0.8266848708902087 1.9688771956307549 1.0959326498849051 -1.7866189259749192 -0.42601447810551951 -2.5234773285534917 -1.3323655083065942 4.6741958031287565 -2.1417705566164051 0.57522032084209573 -2.8553045204707557
leaf_weight=140 98 132 140 78 84 98 126 52 112 104 196 154 112 112 140 112 117 130 91 84 70 70 182 126 196 84 52 126 70 112
leaf_count=140 98 132 140 78 84 98 126 52 112 104 196 154 112 112 140 112 117 130 91 84 70 70 182 126 196 84 52 126 70 112
internal_value=0 2.2971 -1.63629 3.38473 -0.747597 -2.38999 1.12246 4.08323 -0.227948 2.89389 -1.19507 0.739726 1.60957 -2.01088 -2.72396 0.0396443 2.65752 3.84616 3.19571 -1.00163 1.80543 0.936517 -1.85893 -0.51338 -2.59105 -1.43688 4.55737 -2.21033 0.477337 -2.90117
internal_weight=0 1456 2044 756 938 1106 700 312 434 444 504 392 308 518 588 224 249 208 195 280 182 224 294 210 336 224 104 224 168 252
internal_count=3500 1456 2044 756 938 1106 700 312 434 444 504 392 308 518 588 224 249 208 195 280 182 224 294 210 336 224 104 224 168 252
is_linear=0
shrinkage=0.05


Tree=6
num_leaves=31
num_cat=0
split_feature=0 0 0 0 0 0 0 0 0 0 0 0 0 0 0 0 0 0 0 0 0 0 0 0 0 0 0 0 0 0
split_gain=4.74913e+06 671741 494297 89125.9 67973.7 60479.2 51450.6 12660.5 10171.1 9817.85 8297.98 7503.8 7362.29 7313.52 5469.99 1628.89 1523.42 1516.08 1475.46 1422.42 1421.69 1346.33 1248.33 1153.43 1115.48 645.193 599.267 526.331 512.38 277.619
threshold=2690109.0000000005 3929063.5000000005 1564753.0000000002 4748295.5000000009 925594.00000000012 2183604.5000000005 3329005.0000000005 5179409.5000000009 4369214.0000000009 1240007.0000000002 1887270.0000000002 2482116.0000000005 3003648.5000000005 3585573.5000000005 679088.00000000012 4898748.0000000009 1451644.5000000002 1718093.5000000002 4565307.0000000009 1041978.5000000001 3764705.0000000005 2032500.5000000002 4129307.5000000005 2891746.5000000005 2360009.0000000005 3215911.0000000005 627226.50000000012 860550.50000000012 5313469.5000000009 2582661.0000000005
decision_type=2 2 2 2 2 2 2 2 2 2 2 2 2 2 2 2 2 2 2 2 2 2 2 2 2 2 2 2 2 2
left_child=2 6 4 8 14 10 12 15 22 19 17 24 23 -8 26 -5 -11 -4 -10 -6 -15 -12 -3 -2 -7 -14 -1 -16 -9 -13
right_child=1 3 5 7 9 11 13 28 18 16 21 29 25 20 27 -17 -18 -19 -20 -21 -22 -23 -24 -25 -26 -27 -28 -29 -30 -31
leaf_value=-2.7561132963214603 0.39564535906390541 2.4327033600564731 -1.2967950873904759 3.4732123643924027 -2.1476024287087578 -0.40471374976729591 1.284036592245102 4.2185237811161924 2.9072682013878457 -1.6972879231631102 -0.8805124906556947 0.091542442568710872 0.85181077397058891 1.6353437530751131 -2.4575694402058921 3.7622329667898331 -1.4527705153640438 -1.057726553465639 3.1829536333188906 -1.9322755385418331 1.9156647091820127 -0.63535167231623624 2.6631841855171401 0.64878467255405026 -0.16948761372339161 1.0411360337053026 -2.5907424763270788 -2.2992552839006697 4.4404860863318811 0.2323612143312182
leaf_weight=252 126 118 126 78 126 126 140 52 104 182 112 70 126 98 210 130 98 140 91 196 84 112 117 70 84 70 70 70 52 70
leaf_count=252 126 118 126 78 126 126 140 52 104 182 112 70 126 98 210 130 98 140 91 196 84 112 117 70 84 70 70 70 52 70
internal_value=0 2.18224 -1.55447 3.23575 -2.20393 -0.623586 1.08742 3.87907 2.76897 -1.82824 -0.982152 -0.121593 0.70274 1.55573 -2.57962 3.65385 -1.61171 -1.17097 3.03592 -2.01653 1.76472 -0.757932 2.54745 0.486052 -0.310623 0.919427 -2.72016 -2.41799 4.3295 0.161952
internal_weight=0 1456 2044 742 1204 840 714 312 430 602 490 350 392 322 602 208 280 266 195 322 182 224 235 196 210 196 322 280 104 140
internal_count=3500 1456 2044 742 1204 840 714 312 430 602 490 350 392 322 602 208 280 266 195 322 182 224 235 196 210 196 322 280 104 140
is_linear=0
shrinkage=0.05


Tree=7
num_leaves=31
num_cat=0
split_feature=0 0 0 0 0 0 0 0 0 0 0 0 0 0 0 0 0 0 0 0 0 0 0 0 0 0 0 0 0 0
split_gain=4.28614e+06 621042 433722 84455.8 67248.6 45644.8 44551.2 12498.1 9739.32 9258.81 7668.33 7377.22 5590.06 5186.57 4522.35 2132.24 1591.72 1560.16 1194.36 1088.1 960.524 869.606 841.477 788.015 784.727 654.579 508.409 435.951 374.725 121.976
threshold=2667792.0000000005 3900113.5000000005 1451644.5000000002 4728027.0000000009 2075873.0000000002 912522.50000000012 3329005.0000000005 5152199.0000000009 2360009.0000000005 4276564.0000000009 1735573.5000000002 2914411.0000000005 3552276.5000000005 1131400.0000000002 657341.00000000012 2522094.5000000005 4565307.0000000009 4873754.0000000009 3127078.0000000005 1955025.0000000002 3764705.0000000005 5279793.0000000009 3996588.5000000005 1240007.0000000002 2227063.0000000005 1614224.5000000002 789285.00000000012 996987.00000000012 564359.50000000012 2781968.0000000005
decision_type=2 2 2 2 2 2 2 2 2 2 2 2 2 2 2 2 2 2 2 2 2 2 2 2 2 2 2 2 2 2
left_child=2 6 5 9 10 14 11 17 24 22 25 29 -8 27 28 -10 -11 -5 -13 -12 -14 -9 -3 -15 -6 -4 -16 -7 -1 -2
right_child=1 3 4 7 8 13 12 21 15 16 19 18 20 23 26 -17 -18 -19 -20 -21 -22 -23 -24 -25 -26 -27 -28 -29 -30 -31
leaf_value=-2.6459978146212446 0.33326863453856537 2.188163471221924 -1.3543076910291401 3.2541764675042568 -0.55327358920060632 -2.0750889729480355 1.1961119394453745 3.9245248024280261 -0.13034687360216465 2.7228166580200197 -0.96296648532152185 0.71241931995702179 1.5385470041206906 -1.7809880648340499 -2.382475211403587 0.18900946856153256 3.0036085006518243 3.5370340405977689 0.93012350040768821 -0.7454110203754335 1.7746501432146347 4.1988501358032222 2.4171666622161867 -1.6124235682435089 -0.35953470489048228 -1.185822247972294 -2.2508237021309987 -1.934479462154328 -2.5319307266719759 0.42263601894179986
leaf_weight=168 70 54 140 78 112 98 126 52 112 143 182 126 112 112 154 98 78 130 126 84 70 65 156 182 98 98 140 126 126 84
leaf_count=168 70 54 140 78 112 98 126 52 112 143 182 126 112 112 154 98 78 130 126 84 70 65 156 182 98 98 140 126 126 84
internal_value=0 2.05617 -1.48895 3.05493 -0.689356 -2.15696 0.99866 3.66351 -0.222088 2.59602 -1.07875 0.654657 1.45212 -1.81474 -2.45845 0.0186861 2.82192 3.43096 0.821271 -0.894265 1.62936 4.07693 2.35828 -1.67664 -0.462862 -1.28493 -2.31978 -1.996 -2.59711 0.382014
internal_weight=0 1470 2030 756 924 1106 714 325 420 431 504 406 308 518 588 210 221 208 252 266 182 117 210 294 210 238 294 224 294 154
internal_count=3500 1470 2030 756 924 1106 714 325 420 431 504 406 308 518 588 210 221 208 252 266 182 117 210 294 210 238 294 224 294 154
is_linear=0
shrinkage=0.05


Tree=8
num_leaves=31
num_cat=0
split_feature=0 0 0 0 0 0 0 0 0 0 0 0 0 0 0 0 0 0 0 0 0 0 0 0 0 0 0 0 0 0
split_gain=3.86828e+06 547269 402757 72616.9 53261.5 51230.9 41894.4 10361.9 8326.54 8026 6834.97 6681.53 6134.39 5233.56 4471.52 1746.82 1199.44 1175.5 1159.32 1069.37 1036.15 926.746 926.413 887.81 841.302 784.822 706.986 495.09 439.647 222.081
threshold=2690109.0000000005 3929063.5000000005 1524251.5000000002 4748295.5000000009 2183604.5000000005 925594.00000000012 3350275.5000000005 5152199.0000000009 4369214.0000000009 1812641.5000000002 1212755.0000000002 3003648.5000000005 2482116.0000000005 3585573.5000000005 679088.00000000012 2032500.5000000002 1398057.5000000002 4565307.0000000009 3817801.5000000005 4898748.0000000009 4129307.5000000005 2891746.5000000005 1041978.5000000001 2360009.0000000005 1718093.5000000002 5279793.0000000009 3215911.0000000005 627226.50000000012 860550.50000000012 2582661.0000000005
decision_type=2 2 2 2 2 2 2 2 2 2 2 2 2 2 2 2 2 2 2 2 2 2 2 2 2 2 2 2 2 2
left_child=2 6 5 8 9 14 11 19 20 24 22 21 23 -8 27 -11 -12 -10 -15 -5 -3 -2 -7 -6 -4 -9 -13 -1 -16 -14
right_child=1 3 4 7 12 10 13 25 17 15 16 26 29 18 28 -17 -18 -19 -20 -21 -22 -23 -24 -25 -26 -27 -28 -29 -30 -31
leaf_value=-2.4879088606153217 0.3567172278014441 2.1940912804361115 -1.1908283698094355 3.1344857802757851 -0.36434866407560929 -1.9388112703959148 1.17331862279347 3.7282984330103952 2.6257639811589168 -0.82844229725499963 -1.5756432309037163 0.76876140974816831 0.083901975857360034 1.5083913576035273 -2.2182002003987633 -0.57351868620940616 -1.3644043224198479 2.8718358092255647 1.7818099907466345 3.3734925653180508 2.4040724314176121 0.5836223076709679 -1.7594592906179884 -0.15449589065143043 -0.99411470251423983 3.9889078815166772 0.95602793072660774 -2.3375979450770785 -2.0735088239397323 0.20985009681965627
leaf_weight=252 126 118 154 78 126 126 126 52 104 168 168 126 70 126 210 112 112 91 56 117 117 70 168 84 84 65 84 70 70 70
leaf_count=252 126 118 154 78 126 126 126 52 104 168 168 126 70 126 210 112 112 91 56 117 117 70 168 84 84 65 84 70 70 70
internal_value=0 1.96949 -1.40293 2.9204 -0.585978 -2.00591 0.981298 3.50109 2.49906 -0.907926 -1.66795 0.64771 -0.109494 1.42103 -2.32816 -0.726473 -1.49115 2.7406 1.59252 3.27789 2.29864 0.437755 -1.83632 -0.280408 -1.1214 3.87308 0.843668 -2.45523 -2.18203 0.146876
internal_weight=0 1456 2044 742 868 1176 714 312 430 518 574 406 350 308 602 280 280 195 182 195 235 196 294 210 238 117 210 322 280 140
internal_count=3500 1456 2044 742 868 1176 714 312 430 518 574 406 350 308 602 280 280 195 182 195 235 196 294 210 238 117 210 322 280 140
is_linear=0
shrinkage=0.05


Tree=9
num_leaves=31
num_cat=0
split_feature=0 0 0 0 0 0 0 0 0 0 0 0 0 0 0 0 0 0 0 0 0 0 0 0 0 0 0 0 0 0
split_gain=3.49121e+06 505968 353395 68878.5 54772.3 37160.2 36267.5 10969.3 7909.62 6746.62 6228.46 6011.29 4570.67 4255.92 3693.43 1768.57 1584.18 1013.03 982.987 975.004 789.109 708.3 687.27 649.137 630.722 614.764 415.352 353.623 136.866 101.544
threshold=2667792.0000000005 3900113.5000000005 1451644.5000000002 4696264.0000000009 2075873.0000000002 912522.50000000012 3329005.0000000005 5152199.0000000009 2360009.0000000005 4276564.0000000009 1718093.5000000002 2914411.0000000005 3552276.5000000005 1131400.0000000002 627226.50000000012 2522094.5000000005 4873754.0000000009 1955025.0000000002 3127078.0000000005 4434800.5000000009 3764705.0000000005 5279793.0000000009 3996588.5000000005 2227063.0000000005 1240007.0000000002 789285.00000000012 1614224.5000000002 996987.00000000012 540386.50000000012 2781968.0000000005
decision_type=2 2 2 2 2 2 2 2 2 2 2 2 2 2 2 2 2 2 2 2 2 2 2 2 2 2 2 2 2 2
left_child=2 6 5 9 10 14 11 16 23 22 26 29 -8 27 28 -10 -5 -12 -13 -11 -14 -9 -3 -6 -15 -16 -4 -7 -1 -2
right_child=1 3 4 7 8 13 12 21 15 19 17 18 20 24 25 -17 -18 -19 -20 -21 -22 -23 -24 -25 -26 -27 -28 -29 -30 -31
leaf_value=-2.3964715794154574 0.30023802359472029 1.9743952097716155 -1.2227115113394602 2.9206986542586444 -0.49954862075724771 -1.8734318110407615 1.0788475807697055 3.5418835603273835 -0.1190847157234592 2.3901353224729882 -0.8785031493696176 0.64247448475114888 1.3882942949022565 -1.6062634306294576 -2.1674498577507175 0.17176538742318448 3.1927028509286739 -0.67096709069751559 0.83997742777305939 2.6137425584059497 1.6022954933983939 3.7894622656015251 2.1813541754698145 -0.32334052819986736 -1.4554576106123873 -2.0302663734980992 -1.0820749282836915 -1.7467933162810312 -2.3223158768245153 0.38177748378366233
leaf_weight=140 70 54 140 91 112 98 126 52 112 78 196 126 112 112 196 98 130 84 126 130 70 65 156 98 182 140 84 126 112 84
leaf_count=140 70 54 140 91 112 98 126 52 112 78 196 126 112 112 196 98 130 84 126 130 70 65 156 98 182 140 84 126 112 84
internal_value=0 1.85572 -1.3438 2.75721 -0.622038 -1.94679 0.901204 3.28795 -0.200336 2.32805 -0.973456 0.590825 1.31034 -1.63801 -2.21881 0.0166453 3.0807 -0.816242 0.741226 2.52989 1.4706 3.67943 2.12814 -0.417318 -1.51291 -2.11029 -1.16997 -1.8022 -2.36351 0.344714
internal_weight=0 1470 2030 756 924 1106 714 338 420 418 504 406 308 518 588 210 221 280 252 208 182 117 210 210 294 336 224 224 252 154
internal_count=3500 1470 2030 756 924 1106 714 338 420 418 504 406 308 518 588 210 221 280 252 208 182 117 210 210 294 336 224 224 252 154
is_linear=0
shrinkage=0.05


Tree=10
num_leaves=31
num_cat=0
split_feature=0 0 0 0 0 0 0 0 0 0 0 0 0 0 0 0 0 0 0 0 0 0 0 0 0 0 0 0 0 0
split_gain=3.15082e+06 456636 318939 62162.9 49432 33537.1 32731.4 9899.77 7138.43 6088.82 5634.81 5431.51 4125.03 3840.96 3355.01 1596.14 1429.72 885.997 826.968 820.044 712.171 643.803 639.241 590.29 579.009 490.384 454.841 404.737 319.144 269.155
threshold=2667792.0000000005 3900113.5000000005 1451644.5000000002 4696264.0000000009 2075873.0000000002 912522.50000000012 3329005.0000000005 5152199.0000000009 2360009.0000000005 4276564.0000000009 1735573.5000000002 3003648.5000000005 3552276.5000000005 1131400.0000000002 679088.00000000012 2522094.5000000005 4873754.0000000009 4565307.0000000009 2891746.5000000005 1955025.0000000002 3764705.0000000005 4129307.5000000005 5279793.0000000009 2183604.5000000005 1315939.5000000002 1614224.5000000002 3215911.0000000005 564359.50000000012 996987.00000000012 789285.00000000012
decision_type=2 2 2 2 2 2 2 2 2 2 2 2 2 2 2 2 2 2 2 2 2 2 2 2 2 2 2 2 2 2
left_child=2 6 5 9 10 14 11 16 23 21 25 18 -8 28 27 -10 -5 -11 -2 -12 -14 -3 -9 -6 -15 -4 -13 -1 -7 -16
right_child=1 3 4 7 8 13 12 22 15 17 19 26 20 24 29 -17 -18 -19 -20 -21 -22 -23 -24 -25 -26 -27 -28 -29 -30 -31
leaf_value=-2.2700967851139251 0.31444442670260159 1.9544321103529498 -1.1615759331839426 2.774663740723998 -0.4991211480328015 -1.7797602108546666 1.0249051773358906 3.3647893942319431 -0.11313048297140216 2.3338219782689236 -0.82628487577805165 0.6938106415261116 1.3188795813492367 -1.4923063728835557 -2.0294839344327413 0.16317711673220811 3.0330676665672893 2.5564568343529337 0.52492443949516332 -0.63741873558887863 1.5221807009833199 2.1356169553903435 3.599989201472356 -0.32800634208741408 -1.3478151019130435 -1.0157450963039787 0.8527727790283306 -2.1578769529020634 -1.6594537031082881 -1.9287530102048605
leaf_weight=168 140 132 140 91 84 98 126 52 112 143 182 126 112 182 126 98 130 65 70 84 70 78 65 126 112 98 70 154 126 140
leaf_count=168 140 132 140 91 84 98 126 52 112 143 182 126 112 182 126 98 130 65 70 84 70 78 65 126 112 98 70 154 126 140
internal_value=0 1.76294 -1.27661 2.61935 -0.590936 -1.84945 0.856143 3.12355 -0.19032 2.21165 -0.924783 0.561284 1.24482 -1.55611 -2.10787 0.0158131 2.92667 2.4034 0.384604 -0.766643 1.39707 2.02173 3.49546 -0.396452 -1.43726 -1.10153 0.750583 -2.21643 -1.71209 -1.97647
internal_weight=0 1470 2030 756 924 1106 714 338 420 418 504 406 308 518 588 210 221 208 210 266 182 210 117 210 294 238 196 322 224 266
internal_count=3500 1470 2030 756 924 1106 714 338 420 418 504 406 308 518 588 210 221 208 210 266 182 210 117 210 294 238 196 322 224 266
is_linear=0
shrinkage=0.05


Tree=11
num_leaves=31
num_cat=0
split_feature=0 0 0 0 0 0 0 0 0 0 0 0 0 0 0 0 0 0 0 0 0 0 0 0 0 0 0 0 0 0
split_gain=2.8437e+06 402550 296347 53470.5 40692.7 36185.1 30786.5 7678.03 6121.23 5078.24 4933.57 4792.61 4552.37 4273.85 3831.88 970.739 930.858 863.822 845.26 837.163 774.852 762.503 709.68 669.065 627.643 597.452 527.421 366.079 310.183 155.854
threshold=2690109.0000000005 3929063.5000000005 1564753.0000000002 4748295.5000000009 961774.00000000012 2183604.5000000005 3350275.5000000005 5179409.5000000009 4369214.0000000009 1887270.0000000002 3003648.5000000005 1240007.0000000002 2482116.0000000005 679088.00000000012 3585573.5000000005 4932664.5000000009 1398057.5000000002 4565307.0000000009 3817801.5000000005 1718093.5000000002 2032500.5000000002 4129307.5000000005 860550.50000000012 2891746.5000000005 2360009.0000000005 1098394.5000000002 3243402.0000000005 627226.50000000012 5313469.5000000009 2582661.0000000005
decision_type=2 2 2 2 2 2 2 2 2 2 2 2 2 2 2 2 2 2 2 2 2 2 2 2 2 2 2 2 2 2
left_child=2 6 4 8 13 9 10 15 21 19 23 25 24 27 -8 -5 -13 -10 -16 -4 -11 -3 -15 -2 -7 -6 -12 -1 -9 -14
right_child=1 3 5 7 11 12 14 28 17 20 26 16 29 22 18 -17 -18 -19 -20 -21 -22 -23 -24 -25 -26 -27 -28 -29 -30 -31
leaf_value=-2.1337032620868985 0.30588226440761773 1.8811052419371526 -1.0006492402818468 2.704604934860062 -1.6133281237738473 -0.31160601763025164 1.0061127062739126 3.2669013023376468 2.2512902544094966 -0.67702599018812182 0.66750723718532501 -1.3389125003133502 0.074302907240177907 -1.9022018296378 1.2929764350255333 2.9223454157511397 -1.1565805694035123 2.4622317754305327 1.5264412931033544 -0.82299865324582377 -0.49103781486462267 2.0612371819651023 -1.746350464650563 0.49867821540151325 -0.13516033442602271 -1.4672542592457365 0.83559853442013265 -2.0044516590663366 3.4396011682657099 0.17981306152684351
leaf_weight=252 126 118 126 91 140 126 126 52 104 112 140 140 70 210 126 117 140 91 56 140 112 117 112 70 84 140 70 70 52 70
leaf_count=252 126 118 126 91 140 126 126 52 104 112 140 140 70 210 126 117 140 91 56 140 112 117 112 70 84 140 70 70 52 70
internal_value=0 1.68864 -1.20287 2.50418 -1.70574 -0.482086 0.841117 3.00247 2.14263 -0.759438 0.555152 -1.39402 -0.0937935 -1.9768 1.21807 2.82708 -1.24775 2.34973 1.36481 -0.907149 -0.584032 1.97079 -1.84799 0.374738 -0.241028 -1.54029 0.723538 -2.10561 3.35325 0.127058
internal_weight=0 1456 2044 742 1204 840 714 312 430 490 406 560 350 644 308 208 280 195 182 266 224 235 322 196 210 280 210 322 104 140
internal_count=3500 1456 2044 742 1204 840 714 312 430 490 406 560 350 644 308 208 280 195 182 266 224 235 322 196 210 280 210 322 104 140
is_linear=0
shrinkage=0.05


Tree=12
num_leaves=31
num_cat=0
split_feature=0 0 0 0 0 0 0 0 0 0 0 0 0 0 0 0 0 0 0 0 0 0 0 0 0 0 0 0 0 0
split_gain=2.56644e+06 372044 259894 53194.4 38841.9 28623 24331.5 8084.7 5798.09 5625.73 4500.31 4240.06 3490.44 3061.29 2733.17 1323.69 1165.54 920.059 755.517 674.361 520.456 497.448 470.359 461.602 461.311 400.772 351.66 329.986 243.092 109.205
threshold=2667792.0000000005 3873233.0000000005 1467313.0000000002 4696264.0000000009 2075873.0000000002 912522.50000000012 3243402.0000000005 5152199.0000000009 2360009.0000000005 4276564.0000000009 3522254.5000000005 1735573.5000000002 1173885.5000000002 2914411.0000000005 627226.50000000012 2522094.5000000005 4873754.0000000009 3974016.0000000005 4434800.5000000009 1955025.0000000002 5279793.0000000009 2227063.0000000005 739572.00000000012 3680014.0000000005 1041978.5000000001 1398057.5000000002 1614224.5000000002 3003648.5000000005 3350275.5000000005 540386.50000000012
decision_type=2 2 2 2 2 2 2 2 2 2 2 2 2 2 2 2 2 2 2 2 2 2 2 2 2 2 2 2 2 2
left_child=2 6 5 9 11 14 13 16 21 17 28 26 24 -2 29 -10 -5 -3 -11 -13 -9 -6 -16 -12 -7 -14 -4 -15 -8 -1
right_child=1 3 4 7 8 12 10 20 15 18 23 19 25 27 22 -17 -18 -19 -20 -21 -22 -23 -24 -25 -26 -27 -28 -29 -30 -31
leaf_value=-2.0564580719811576 0.29520202193941392 1.630401793393222 -1.0424809145548988 2.5041628261188884 -0.42944506348243783 -1.586916231427874 0.79381861418485644 3.0375117925497204 -0.10333423315647193 2.0461242956992911 1.1378428203719002 -0.74606643378693649 -1.2999985022771927 0.49052091453756602 -1.8791829626900811 0.14828853624663793 2.7374744767409105 1.8658401641619982 2.2429603884770319 -0.57479630061425269 3.2497367448073171 -0.27519289169992722 -1.759188240401599 1.2975729030005787 -1.4550424068693131 -1.149457184757505 -0.91619433967434638 0.63413187608655008 0.91581535515736567 -1.9902183464595251
leaf_weight=140 154 55 126 91 112 140 70 52 112 78 84 182 210 56 140 98 130 169 130 84 65 98 196 98 126 56 98 140 98 112
leaf_count=140 154 55 126 91 112 140 70 52 112 78 84 182 210 56 140 98 130 169 130 84 65 98 196 98 126 56 98 140 98 112
internal_value=0 1.59108 -1.15216 2.3495 -0.524521 -1.66211 0.75681 2.81933 -0.171685 1.9819 1.05159 -0.826952 -1.39638 0.462025 -1.90254 0.0140897 2.6414 1.80803 2.16915 -0.691981 3.15541 -0.357461 -1.80919 1.22385 -1.52445 -1.26831 -0.987231 0.5931 0.864983 -2.02702
internal_weight=0 1470 2030 770 910 1120 700 338 420 432 350 490 532 350 588 210 221 224 208 266 117 210 336 182 266 266 224 196 168 252
internal_count=3500 1470 2030 770 910 1120 700 338 420 432 350 490 532 350 588 210 221 224 208 266 117 210 336 182 266 266 224 196 168 252
is_linear=0
shrinkage=0.05


Tree=13
num_leaves=31
num_cat=0
split_feature=0 0 0 0 0 0 0 0 0 0 0 0 0 0 0 0 0 0 0 0 0 0 0 0 0 0 0 0 0 0
split_gain=2.31631e+06 327954 241435 43594.8 33178.3 29481.1 25042.1 6270.97 4971.63 4156.88 4012.05 3775.16 3719.11 3629.1 3127.15 793.438 739.184 722.92 698.434 670.675 646.026 624.387 595.035 553.416 498.93 437.931 433.937 418.706 253.44 123.002
threshold=2690109.0000000005 3929063.5000000005 1564753.0000000002 4748295.5000000009 973223.00000000012 2183604.5000000005 3350275.5000000005 5179409.5000000009 4369214.0000000009 1887270.0000000002 3003648.5000000005 702581.50000000012 2482116.0000000005 1240007.0000000002 3585573.5000000005 4932664.5000000009 1398057.5000000002 4565307.0000000009 3764705.0000000005 1718093.5000000002 4172670.0000000005 2032500.5000000002 888538.50000000012 2891746.5000000005 2360009.0000000005 3215911.0000000005 627226.50000000012 1131400.0000000002 5313469.5000000009 2582661.0000000005
decision_type=2 2 2 2 2 2 2 2 2 2 2 2 2 2 2 2 2 2 2 2 2 2 2 2 2 2 2 2 2 2
left_child=2 6 4 8 11 9 10 15 20 19 23 26 24 27 -8 -5 -15 -10 -16 -4 -3 -11 -13 -2 -7 -12 -1 -6 -9 -14
right_child=1 3 5 7 13 12 14 28 17 21 25 22 29 16 18 -17 -18 -19 -20 -21 -22 -23 -24 -25 -26 -27 -28 -29 -30 -31
leaf_value=-1.9256671809960926 0.27582805010061417 1.7129107455412549 -0.90270228064249436 2.4408334134699228 -1.4371214609641534 -0.28055216254341225 0.90754934483030381 2.9490278904254623 2.0302683509313146 -0.6101531231509788 0.59403816227106343 -1.6984075310116724 0.0682057929464749 -1.2069669434002468 1.1409071747137576 2.6376875380165559 -1.0444879422869 2.2232406909649192 1.3373859655289424 -0.74369475854294642 1.883098047906226 -0.44319678458268758 -1.549198882433833 0.4511714443364846 -0.12323560485882419 0.74142462153519906 -1.801672191035991 -1.3100652290242059 3.1051342560694768 0.16193884979401318
leaf_weight=252 126 144 126 91 154 126 126 52 104 112 126 210 70 140 98 117 140 91 84 140 91 112 98 70 84 84 98 112 52 70
leaf_count=252 126 144 126 91 154 126 126 52 104 112 126 210 70 140 98 117 140 91 84 140 91 112 98 70 84 84 98 112 52 70
internal_value=0 1.52403 -1.08561 2.26014 -1.53951 -0.435029 0.759055 2.71007 1.93368 -0.685373 0.501145 -1.7786 -0.0845464 -1.25137 1.09903 2.55156 -1.12573 2.12032 1.23159 -0.819014 1.77881 -0.526675 -1.65093 0.338451 -0.217626 0.652993 -1.89095 -1.38362 3.02708 0.115072
internal_weight=0 1456 2044 742 1204 840 714 312 430 490 406 658 350 546 308 208 280 195 182 266 235 224 308 196 210 210 350 266 104 140
internal_count=3500 1456 2044 742 1204 840 714 312 430 490 406 658 350 546 308 208 280 195 182 266 235 224 308 196 210 210 350 266 104 140
is_linear=0
shrinkage=0.05


Tree=14
num_leaves=31
num_cat=0
split_feature=0 0 0 0 0 0 0 0 0 0 0 0 0 0 0 0 0 0 0 0 0 0 0 0 0 0 0 0 0 0
split_gain=2.09047e+06 295978 217919 39380.3 28790.7 27694.1 22600.5 5207.32 5083.24 3992.28 3792.51 3722.71 3620.88 2826.14 2438.81 931.583 736.917 711.166 691.128 645.806 627.114 518.983 510.793 499.457 425.833 395.233 293.545 256.793 111.01 51.1133
threshold=2690109.0000000005 3929063.5000000005 1524251.5000000002 4777326.0000000009 2145442.5000000005 925594.00000000012 3350275.5000000005 5204415.0000000009 4434800.5000000009 2482116.0000000005 1812641.5000000002 1212755.0000000002 3003648.5000000005 3552276.5000000005 679088.00000000012 4172670.0000000005 3764705.0000000005 5078490.0000000009 1997098.0000000002 2302127.5000000005 1398057.5000000002 4651688.5000000009 1041978.5000000001 2891746.5000000005 1682535.5000000002 3215911.0000000005 564359.50000000012 860550.50000000012 2582661.0000000005 3443436.5000000005
decision_type=2 2 2 2 2 2 2 2 2 2 2 2 2 2 2 2 2 2 2 2 2 2 2 2 2 2 2 2 2 2
left_child=2 6 5 8 10 14 12 17 15 19 24 22 23 29 26 -3 -15 -5 -12 -6 -13 -10 -7 -2 -4 -14 -1 -16 -11 -8
right_child=1 3 4 7 9 11 13 -9 21 28 18 20 25 16 27 -17 -18 -19 -20 -21 -22 -23 -24 -25 -26 -27 -28 -29 -30 -31
leaf_value=-1.8513525111778151 0.2620366476830982 1.6272652116086748 -0.88951782196287132 2.3901641592279179 -0.31453193486002939 -1.4267509225815063 0.80993918989385882 2.90597887982379 1.9942710133699273 0.064795498460797338 -0.62220498057348395 -1.1570038785537085 0.56433625632808326 1.0746057257056236 -1.6315235909961521 1.8118956331106333 1.2705166862124491 2.5896271778987003 -0.45556599913418599 -0.14952002730634478 -1.0042618611029217 2.1743721404442424 -1.2935749070984979 0.4286128695947784 -0.75552432859050378 0.7043533934368974 -1.7557827782321287 -1.5209422860826765 0.15384189683943988 0.87749423118574288
leaf_weight=168 126 144 126 143 112 126 56 91 104 70 140 168 126 112 210 130 84 65 112 126 112 65 168 70 112 84 154 70 70 56
leaf_count=168 126 144 126 143 112 126 56 91 104 70 140 168 126 112 210 130 84 65 112 126 112 65 168 70 112 84 154 70 70 56
internal_value=0 1.44783 -1.03133 2.14714 -0.430406 -1.47487 0.721102 2.59051 1.84788 -0.102546 -0.683327 -1.22639 0.476088 1.04408 -1.7118 1.71486 1.15857 2.4525 -0.548143 -0.227173 -1.09591 2.06354 -1.35065 0.321528 -0.826462 0.620343 -1.80565 -1.60388 0.109319 0.843717
internal_weight=0 1456 2044 742 868 1176 714 299 443 378 490 574 406 308 602 274 196 208 252 238 280 169 294 196 238 210 322 280 140 112
internal_count=3500 1456 2044 742 868 1176 714 299 443 378 490 574 406 308 602 274 196 208 252 238 280 169 294 196 238 210 322 280 140 112
is_linear=0
shrinkage=0.05


Tree=15
num_leaves=31
num_cat=0
split_feature=0 0 0 0 0 0 0 0 0 0 0 0 0 0 0 0 0 0 0 0 0 0 0 0 0 0 0 0 0 0
split_gain=1.8867e+06 273895 191226 39074.5 29592.4 20062.5 17825 5980.63 4294.81 4120.23 3340.46 3317.71 2317.06 2251.48 2024.72 882.77 783.97 661.064 547.561 499.298 487.91 424.238 389.394 340.1 295.534 256.172 234.503 230.486 188.802 104.803
threshold=2667792.0000000005 3873233.0000000005 1451644.5000000002 4696264.0000000009 2075873.0000000002 912522.50000000012 3243402.0000000005 5152199.0000000009 2442457.0000000005 4276564.0000000009 1735573.5000000002 3492982.0000000005 1173885.5000000002 2914411.0000000005 657341.00000000012 4873754.0000000009 2244467.5000000005 3974016.0000000005 4434800.5000000009 1975537.5000000002 2541673.5000000005 3680014.0000000005 5279793.0000000009 1041978.5000000001 1632019.0000000002 789285.00000000012 3003648.5000000005 1315939.5000000002 564359.50000000012 3350275.5000000005
decision_type=2 2 2 2 2 2 2 2 2 2 2 2 2 2 2 2 2 2 2 2 2 2 2 2 2 2 2 2 2 2
left_child=2 6 5 9 10 14 13 15 16 17 24 29 23 -2 28 -5 -6 -3 -11 -12 -10 -13 -9 -7 -4 -16 -15 -14 -1 -8
right_child=1 3 4 7 8 12 11 22 20 18 19 21 27 26 25 -17 -18 -19 -20 -21 -22 -23 -24 -25 -26 -27 -28 -29 -30 -31
leaf_value=-1.758784881340606 0.25300397517812717 1.4005125756697223 -0.89247453026957335 2.1451373163160388 -0.35910647088987013 -1.3611039127622333 0.68183877555387362 2.6046864362863396 -0.034326055465000019 1.7553891255305363 -0.63441827175948695 0.96358580017576423 -1.1386639448574611 0.42200565407318735 -1.5830212952254656 2.348184716151311 -0.18719247792448318 1.6000806441673867 1.9229601346529446 -0.47885262508477483 0.14440976062878258 1.1107074759444413 2.788255345271184 -1.247873084128849 -0.77588424143337065 -1.4895701108660018 0.54306953934420432 -1.0424319901636669 -1.6778181651281934 0.76467645198461565
leaf_weight=168 154 55 154 91 126 140 70 52 70 78 196 98 140 56 154 130 140 169 130 70 84 98 65 126 84 140 140 112 126 84
leaf_count=168 154 55 154 91 126 140 70 52 70 78 196 98 140 56 154 130 140 169 130 70 84 98 65 126 84 140 140 112 126 84
internal_value=0 1.36419 -0.987865 2.01493 -0.456935 -1.43143 0.648381 2.41761 -0.146968 1.69988 -0.71524 0.900692 -1.20454 0.39607 -1.6313 2.26458 -0.268625 1.55108 1.86012 -0.59348 0.0631662 1.03715 2.70667 -1.30747 -0.851325 -1.53852 0.50848 -1.09589 -1.72408 0.727023
internal_weight=0 1470 2030 770 924 1106 700 338 420 432 504 350 518 350 588 221 266 224 208 266 154 196 117 266 238 294 196 252 294 154
internal_count=3500 1470 2030 770 924 1106 700 338 420 432 504 350 518 350 588 221 266 224 208 266 154 196 117 266 238 294 196 252 294 154
is_linear=0
shrinkage=0.05


Tree=16
num_leaves=31
num_cat=0
split_feature=0 0 0 0 0 0 0 0 0 0 0 0 0 0 0 0 0 0 0 0 0 0 0 0 0 0 0 0 0 0
split_gain=1.70277e+06 241251 177601 35264.8 24408.6 21711.1 15236.7 5397.52 3718.5 3076.19 2789.49 2723.01 2664.99 2664.52 1886.11 796.699 656.536 596.61 532.585 505.674 434.462 413.072 386.923 351.428 325.721 313.741 294.78 281.82 261.508 85.4953
threshold=2690109.0000000005 3873233.0000000005 1564753.0000000002 4696264.0000000009 973223.00000000012 2183604.5000000005 3329005.0000000005 5152199.0000000009 4276564.0000000009 1830595.0000000002 702581.50000000012 2482116.0000000005 1240007.0000000002 3003648.5000000005 3522254.5000000005 4873754.0000000009 2032500.5000000002 3974016.0000000005 1398057.5000000002 4565307.0000000009 888538.50000000012 2891746.5000000005 2360009.0000000005 5279793.0000000009 627226.50000000012 1131400.0000000002 3680014.0000000005 1700267.5000000002 3193289.0000000005 2582661.0000000005
decision_type=2 2 2 2 2 2 2 2 2 2 2 2 2 2 2 2 2 2 2 2 2 2 2 2 2 2 2 2 2 2
left_child=2 6 4 8 10 9 13 15 17 27 24 22 25 21 -8 -5 -11 -3 -14 -10 -12 -2 -7 -9 -1 -6 -16 -4 -15 -13
right_child=1 3 5 7 12 11 14 23 19 16 20 29 18 28 26 -17 -18 -19 -20 -21 -22 -23 -24 -25 -26 -27 -28 -29 -30 -31
leaf_value=-1.6518192286056186 0.23628461445415661 1.3304869426380506 -0.78024698879037591 2.0378805045243147 -1.2325928366029419 -0.24132330362936336 0.73547465423388148 2.4744520810934212 1.7145540951015232 -0.53966962141650066 -1.455989123753139 0.059697313023997202 -1.0342410249369485 0.50108561521129946 0.92752763238691149 2.2307754296522875 -0.38056943289536455 1.5200766334872275 -0.89632477624075768 1.8827488194979154 -1.3284925932786904 0.38777196092264998 -0.1027859667936961 2.6488425328181342 -1.5443921118366477 -1.1226094931364059 1.0551720993859428 -0.66808071881532671 0.6177913662046195 0.13784337750502995
leaf_weight=252 126 55 112 91 154 126 112 52 143 154 210 70 140 112 84 130 112 169 140 65 98 70 84 65 98 112 98 112 84 70
leaf_count=252 126 55 112 91 154 126 112 52 143 154 210 70 140 112 84 130 112 169 140 65 98 70 84 65 98 112 98 112 84 70
internal_value=0 1.3067 -0.930797 1.91419 -1.32009 -0.372808 0.624817 2.29673 1.61488 -0.587644 -1.52517 -0.0720369 -1.07295 0.420745 0.896913 2.15135 -0.47268 1.47353 -0.965283 1.76711 -1.41542 0.290387 -0.185908 2.57134 -1.62174 -1.18628 0.996259 -0.724164 0.551102 0.0987703
internal_weight=0 1456 2044 770 1204 840 686 338 432 490 658 350 546 392 294 221 266 224 280 208 308 196 210 117 350 266 182 224 196 140
internal_count=3500 1456 2044 770 1204 840 686 338 432 490 658 350 546 392 294 221 266 224 280 208 308 196 210 117 350 266 182 224 196 140
is_linear=0
shrinkage=0.05


Tree=17
num_leaves=31
num_cat=0
split_feature=0 0 0 0 0 0 0 0 0 0 0 0 0 0 0 0 0 0 0 0 0 0 0 0 0 0 0 0 0 0
split_gain=1.53678e+06 223073 155829 31842.8 24095.7 16333.6 14534.7 4544.12 3733.01 3502.98 2713.32 2711.64 1832.6 1797.3 1731.11 826.227 700.46 596.412 538.441 421.026 341.57 305.028 242.089 241.6 223.758 195.759 187.24 186.764 178.265 83.6074
threshold=2667792.0000000005 3873233.0000000005 1451644.5000000002 4728027.0000000009 2075873.0000000002 925594.00000000012 3243402.0000000005 5179409.5000000009 4276564.0000000009 2360009.0000000005 1735573.5000000002 3492982.0000000005 2914411.0000000005 679088.00000000012 1173885.5000000002 2522094.5000000005 4898748.0000000009 4565307.0000000009 3974016.0000000005 1887270.0000000002 3680014.0000000005 2227063.0000000005 1614224.5000000002 1041978.5000000001 564359.50000000012 860550.50000000012 3003648.5000000005 1315939.5000000002 5313469.5000000009 3350275.5000000005
decision_type=2 2 2 2 2 2 2 2 2 2 2 2 2 2 2 2 2 2 2 2 2 2 2 2 2 2 2 2 2 2
left_child=2 6 5 8 10 13 12 16 18 21 22 29 -2 24 23 -11 -5 -10 -3 -12 -13 -6 -4 -7 -1 -15 -14 -16 -9 -8
right_child=1 3 4 7 9 14 11 28 17 15 19 20 26 25 27 -17 -18 -19 -20 -21 -22 -23 -24 -25 -26 -27 -28 -29 -30 -31
leaf_value=-1.5882547341641926 0.22829842891592486 1.2639626260237262 -0.81020724841526581 1.9600718005672917 -0.33335036357332554 -1.2235974712977333 0.61568044475146699 2.4018005279394297 1.6288264097867313 -0.080955479792984467 -0.60193979401318798 0.87040194133866811 0.38151677472383849 -1.399276580810547 -1.0278095078468323 0.11784036348060685 2.1409413726513207 1.800705860822629 1.4440727942088651 -0.47595554611512592 1.0024134971657579 -0.21256125991669844 -0.7077436993316728 -1.1256828005351718 -1.5048150576554338 -1.3027267565046039 0.48969472341771642 -0.94118430327091895 2.5327237202570991 0.68966890611197984
leaf_weight=168 154 55 140 91 112 126 70 52 143 112 126 98 56 210 140 98 130 78 169 140 98 98 98 126 154 70 140 112 52 84
leaf_count=168 154 55 140 91 112 126 70 52 143 112 126 98 56 210 140 98 130 78 169 140 98 98 98 126 154 70 140 112 52 84
internal_value=0 1.23121 -0.891563 1.81848 -0.412285 -1.29197 0.585208 2.19472 1.54369 -0.132583 -0.645369 0.813045 0.357372 -1.46779 -1.08197 0.0118159 2.06647 1.68949 1.39985 -0.535632 0.936408 -0.276982 -0.768016 -1.17464 -1.54835 -1.37514 0.458787 -0.989309 2.46726 0.656038
internal_weight=0 1470 2030 770 924 1106 700 325 445 420 504 350 350 602 504 210 221 221 224 266 196 210 238 252 322 280 196 252 104 154
internal_count=3500 1470 2030 770 924 1106 700 325 445 420 504 350 350 602 504 210 221 221 224 266 196 210 238 252 322 280 196 252 104 154
is_linear=0
shrinkage=0.05


Tree=18
num_leaves=30
num_cat=0
split_feature=0 0 0 0 0 0 0 0 0 0 0 0 0 0 0 0 0 0 0 0 0 0 0 0 0 0 0 0 0
split_gain=1.38706e+06 177399 161908 26245 22196 19898.8 12356.8 3511.62 3393.69 3358.94 2620.52 2615.82 2508.28 1831.6 685.206 648.339 543.972 490.004 476.869 467.388 464.286 357.52 340.88 294.571 269.774 244.439 227.104 78.2025 71.841
threshold=2781968.0000000005 3929063.5000000005 1564753.0000000002 4777326.0000000009 2183604.5000000005 996987.00000000012 3492982.0000000005 5204415.0000000009 4434800.5000000009 2522094.5000000005 702581.50000000012 3127078.0000000005 1830595.0000000002 1315939.5000000002 3734439.5000000005 4172670.0000000005 1997098.0000000002 5078490.0000000009 2914411.0000000005 2360009.0000000005 888538.50000000012 1131400.0000000002 4651688.5000000009 3243402.0000000005 627226.50000000012 1451644.5000000002 1682535.5000000002 2667792.0000000005 3633591.0000000005
decision_type=2 2 2 2 2 2 2 2 2 2 2 2 2 2 2 2 2 2 2 2 2 2 2 2 2 2 2 2 2
left_child=2 6 5 8 12 10 11 17 15 19 24 18 26 21 28 -3 -14 -5 -2 -6 -12 -7 -10 -13 -1 -15 -4 -11 -8
right_child=1 3 4 7 9 13 14 -9 22 27 20 23 16 25 -16 -17 -18 -19 -20 -21 -22 -23 -24 -25 -26 -27 -28 -29 -30
leaf_value=-1.4912061937271603 0.24666722934870494 1.3230273753404618 -0.71067783735236345 1.9459704552497064 -0.21728697443706177 -1.0999066682088943 0.81209623017481403 2.3701081013941505 1.6248640523507047 0.11194834592086929 -1.3138694953918457 0.49953313355999329 -0.50187494442576452 -0.89412505796977459 1.0221464282699995 1.4770531951464141 -0.35867266570217909 2.1115385642418496 0.40046643242239954 -0.07690770484306475 -1.1924642082244632 -0.99034095596481164 1.7708262780996471 0.62323589381798139 -1.3934394787768929 -0.78599586535473265 -0.60919138916901183 0.18114303831543244 0.88807606931243621
leaf_weight=252 84 144 98 143 126 126 70 91 104 98 210 70 126 112 98 130 140 65 126 112 126 182 65 154 98 98 126 70 56
leaf_count=252 84 144 98 143 126 126 70 91 104 98 210 70 126 112 98 130 140 65 126 112 126 182 65 154 98 98 126 70 56
internal_value=0 1.21907 -0.812714 1.74909 -0.30379 -1.19145 0.621389 2.11105 1.50479 -0.0303962 -1.36808 0.465725 -0.530316 -0.957529 0.922988 1.39611 -0.426505 1.99771 0.338947 -0.151226 -1.26834 -1.03516 1.681 0.584579 -1.46383 -0.843665 -0.653592 0.140779 0.845865
internal_weight=0 1400 2100 742 896 1204 658 299 443 406 686 434 490 518 224 274 266 208 210 238 336 308 169 224 350 210 224 168 126
internal_count=3500 1400 2100 742 896 1204 658 299 443 406 686 434 490 518 224 274 266 208 210 238 336 308 169 224 350 210 224 168 126
is_linear=0
shrinkage=0.05


Tree=19
num_leaves=30
num_cat=0
split_feature=0 0 0 0 0 0 0 0 0 0 0 0 0 0 0 0 0 0 0 0 0 0 0 0 0 0 0 0 0
split_gain=1.25182e+06 160103 146122 23686.1 20046.5 17958.6 11152 3169.24 3062.81 2757.71 2560.22 2369.31 2360.78 1661.93 618.399 594.854 565.831 442.228 430.374 375.916 312.664 307.643 291.137 288.662 275.887 254.397 186.549 70.5777 64.8365
threshold=2781968.0000000005 3929063.5000000005 1564753.0000000002 4777326.0000000009 2227063.0000000005 996987.00000000012 3492982.0000000005 5204415.0000000009 4434800.5000000009 1955025.0000000002 2522094.5000000005 739572.00000000012 3127078.0000000005 1279571.5000000002 3734439.5000000005 4129307.5000000005 1718093.5000000002 5078490.0000000009 2914411.0000000005 627226.50000000012 888538.50000000012 4651688.5000000009 2360009.0000000005 1451644.5000000002 3329005.0000000005 1131400.0000000002 2075873.0000000002 2667792.0000000005 3633591.0000000005
decision_type=2 2 2 2 2 2 2 2 2 2 2 2 2 2 2 2 2 2 2 2 2 2 2 2 2 2 2 2 2
left_child=2 6 5 8 9 11 12 17 15 16 22 19 18 25 28 -3 -4 -5 -2 -1 -13 -10 -6 -15 -14 -7 -11 -12 -8
right_child=1 3 4 7 10 13 14 -9 21 26 27 20 24 23 -16 -17 -18 -19 -20 -21 -22 -23 -24 -25 -26 -27 -28 -29 -30
leaf_value=-1.4166459085212815 0.23433386962860825 1.2415926482717872 -0.66330461686565767 1.8486719738353383 -0.19106884788797829 -1.0449113524149334 0.77149140992334919 2.2516027188563088 1.5436208802920124 -0.39908688093225164 0.10635092629461873 -1.237035015651158 0.50641260697166357 -0.85858212266649536 0.97103909988488479 1.3903735604041663 -0.52749583623467056 2.0059616646399863 0.38044311415315391 -1.3144592472485135 -1.1328410485434153 1.6822849112290603 -0.07306231583601662 -0.74669609045495799 0.61826915050647702 -0.94911274120405131 -0.30051653223843977 0.17208588700209346 0.84367224414433761
leaf_weight=252 84 118 126 143 98 126 70 91 104 84 98 168 126 140 98 156 196 65 126 140 126 65 112 98 98 154 112 70 56
leaf_count=252 84 118 126 143 98 126 70 91 104 84 98 168 126 140 98 156 196 65 126 140 126 65 112 98 98 154 112 70 56
internal_value=0 1.15812 -0.772079 1.66164 -0.2886 -1.13188 0.590319 2.0055 1.42955 -0.490631 -0.0117442 -1.29968 0.442438 -0.909652 0.876839 1.3263 -0.580638 1.89783 0.321999 -1.38015 -1.19238 1.59695 -0.128132 -0.812511 0.55535 -0.992222 -0.342761 0.13374 0.803572
internal_weight=0 1400 2100 742 896 1204 658 299 443 518 378 686 434 518 224 274 322 208 210 392 294 169 210 238 224 280 196 168 126
internal_count=3500 1400 2100 742 896 1204 658 299 443 518 378 686 434 518 224 274 322 208 210 392 294 169 210 238 224 280 196 168 126
is_linear=0
shrinkage=0.05


Tree=20
num_leaves=30
num_cat=0
split_feature=0 0 0 0 0 0 0 0 0 0 0 0 0 0 0 0 0 0 0 0 0 0 0 0 0 0 0 0 0
split_gain=1.12977e+06 144493 131875 21376.7 18099.2 16217.9 10064.7 2860.24 2764.18 2730.95 2130.6 2075.19 1936.97 1717.38 560.881 537.389 486.452 415.339 388.412 378 356.31 277.648 249.991 240.208 239.809 230.261 145.145 84.2811 63.6964
threshold=2781968.0000000005 3929063.5000000005 1564753.0000000002 4777326.0000000009 2183604.5000000005 961774.00000000012 3492982.0000000005 5204415.0000000009 4434800.5000000009 2522094.5000000005 3127078.0000000005 1812641.5000000002 1240007.0000000002 702581.50000000012 3764705.0000000005 4172670.0000000005 2032500.5000000002 4969663.0000000009 2914411.0000000005 2360009.0000000005 1398057.5000000002 4651688.5000000009 3243402.0000000005 1098394.5000000002 860550.50000000012 564359.50000000012 1682535.5000000002 3633591.0000000005 2667792.0000000005
decision_type=2 2 2 2 2 2 2 2 2 2 2 2 2 2 2 2 2 2 2 2 2 2 2 2 2 2 2 2 2
left_child=2 6 5 8 11 13 10 17 15 19 18 26 23 25 27 -3 -13 -5 -2 -6 -14 -10 -12 -7 -15 -1 -4 -8 -11
right_child=1 3 4 7 9 12 14 -9 21 28 22 16 20 24 -16 -17 -18 -19 -20 -21 -22 -23 -24 -25 -26 -27 -28 -29 -30
leaf_value=-1.3634493958471079 0.22261717009934642 1.1934532011548677 -0.64197871928312344 1.7228190809815798 -0.19565309440451009 -1.0177933885369981 0.7329168485743659 2.1390225682939805 1.4664398266718939 0.1010333810989954 0.44923584974237851 -0.44342498461760232 -0.84190540002925052 -1.1927402252679344 0.93513909417781105 1.3336818452981802 -0.30889928870435274 1.865245092424572 0.36142096089583542 -0.069409202817561369 -0.7290987101622991 1.5981706692622257 0.56319438991221515 -0.92517129693712519 -1.0997512183019094 -1.2822741550403638 -0.55865685871935322 0.810506013115602 0.16348159241889204
leaf_weight=168 84 144 98 91 126 140 70 91 104 98 70 168 140 182 84 130 112 117 126 112 140 65 154 140 112 182 112 70 70
leaf_count=168 84 144 98 91 126 140 70 91 104 98 70 168 140 182 84 130 112 117 126 112 140 65 154 140 112 182 112 70 70
internal_value=0 1.10021 -0.733475 1.57856 -0.27417 -1.07528 0.560803 1.90522 1.35807 -0.0272934 0.420316 -0.478726 -0.878492 -1.2464 0.832997 1.25999 -0.389615 1.80293 0.305899 -0.136244 -0.785502 1.51711 0.527582 -0.971482 -1.15732 -1.32124 -0.59754 0.771711 0.127053
internal_weight=0 1400 2100 742 896 1204 658 299 443 406 434 490 560 644 224 274 280 208 210 238 280 169 224 280 294 350 210 140 168
internal_count=3500 1400 2100 742 896 1204 658 299 443 406 434 490 560 644 224 274 280 208 210 238 280 169 224 280 294 350 210 140 168
is_linear=0
shrinkage=0.05


Tree=21
num_leaves=31
num_cat=0
split_feature=0 0 0 0 0 0 0 0 0 0 0 0 0 0 0 0 0 0 0 0 0 0 0 0 0 0 0 0 0 0
split_gain=1.01962e+06 130490 119017 21064.1 16352 14649.5 7276.92 2805.55 2766.7 2268.94 2079.49 1933.51 1356.28 1140.1 941.04 425.452 398.63 373.853 361.749 311.555 281.15 271.673 253.092 233.995 191.496 183.175 160.676 136.709 134.944 57.486
threshold=2781968.0000000005 3873233.0000000005 1564753.0000000002 4748295.5000000009 2227063.0000000005 996987.00000000012 3350275.5000000005 5179409.5000000009 4340761.0000000009 1887270.0000000002 2522094.5000000005 739572.00000000012 1315939.5000000002 3003648.5000000005 3522254.5000000005 4129307.5000000005 4932664.5000000009 4565307.0000000009 2032500.5000000002 627226.50000000012 1718093.5000000002 1173885.5000000002 888538.50000000012 2360009.0000000005 3193289.0000000005 1451644.5000000002 3680014.0000000005 5313469.5000000009 2891746.5000000005 2667792.0000000005
decision_type=2 2 2 2 2 2 2 2 2 2 2 2 2 2 2 2 2 2 2 2 2 2 2 2 2 2 2 2 2 2
left_child=2 6 5 8 9 11 13 16 15 20 23 19 21 28 -8 -3 -5 -10 -11 -1 -4 -7 -13 -6 -15 -14 -16 -9 -2 -12
right_child=1 3 4 7 10 12 14 27 17 18 29 22 25 24 26 -17 -18 -19 -20 -21 -22 -23 -24 -25 -26 -27 -28 -29 -30 -31
leaf_value=-1.2789940595153779 0.19993279665708541 1.0988475159422992 -0.59896624802596987 1.6141790353334866 -0.17173275301346974 -0.93048296499819994 0.57660908688391954 1.9533986366712133 1.3416021748485729 -0.40239334027615509 0.095981713815839323 -1.1163211635180883 -0.76650956914361035 0.38856411609532582 0.71804343855806763 1.2311817497015001 1.7537108563969277 1.4767279860737561 -0.28183392239468436 -1.185965575831277 -0.49601523865147357 -0.83617471354348327 -1.0225773652394614 -0.06593874448112079 0.48426964178073162 -0.67290634598050802 0.81228211914398241 2.0680508907024677 0.29811030915805276 0.15530751327651421
leaf_weight=252 70 146 126 91 98 168 98 52 117 112 98 168 112 112 84 104 117 91 140 140 140 140 126 112 98 98 98 52 70 70
leaf_count=252 70 146 126 91 98 168 98 52 117 112 98 168 112 112 84 104 117 91 140 140 140 140 126 112 98 98 98 52 70 70
internal_value=0 1.0452 -0.696801 1.48184 -0.260462 -1.02152 0.511536 1.79869 1.26599 -0.442928 -0.0104159 -1.17307 -0.82081 0.359545 0.701525 1.1539 1.69267 1.40072 -0.335416 -1.24577 -0.544782 -0.887616 -1.07615 -0.115309 0.433227 -0.722828 0.768787 2.01072 0.249022 0.120701
internal_weight=0 1400 2100 770 896 1204 630 312 458 518 378 686 518 350 280 250 208 208 252 392 266 308 294 210 210 210 182 104 140 168
internal_count=3500 1400 2100 770 896 1204 630 312 458 518 378 686 518 350 280 250 208 208 252 392 266 308 294 210 210 210 182 104 140 168
is_linear=0
shrinkage=0.05


Tree=22
num_leaves=31
num_cat=0
split_feature=0 0 0 0 0 0 0 0 0 0 0 0 0 0 0 0 0 0 0 0 0 0 0 0 0 0 0 0 0 0
split_gain=920210 130707 96044.4 19026.5 14223.3 10761.6 8220.21 3413.78 2413.28 1569.3 1457.78 1434.25 1274.86 1083.85 985.268 677.287 381.035 334.321 282.755 269.142 218.52 200.365 197.221 191.263 150.631 147.752 145.011 136.079 135.939 130.812
threshold=2690109.0000000005 3873233.0000000005 1481851.0000000002 4651688.5000000009 2075873.0000000002 925594.00000000012 3329005.0000000005 5152199.0000000009 2442457.0000000005 4172670.0000000005 3003648.5000000005 1812641.5000000002 1173885.5000000002 667626.50000000012 3522254.5000000005 4823958.5000000009 2244467.5000000005 4434800.5000000009 2541673.5000000005 1632019.0000000002 2891746.5000000005 3974016.0000000005 5279793.0000000009 1398057.5000000002 789285.00000000012 1041978.5000000001 3680014.0000000005 3193289.0000000005 1975537.5000000002 553173.50000000012
decision_type=2 2 2 2 2 2 2 2 2 2 2 2 2 2 2 2 2 2 2 2 2 2 2 2 2 2 2 2 2 2
left_child=2 6 5 9 11 13 10 15 16 21 20 19 25 29 -8 -5 -6 -11 -10 -4 -2 -3 -9 -14 -15 -7 -16 -12 -13 -1
right_child=1 3 4 7 8 12 14 22 18 17 27 28 23 24 26 -17 -18 -19 -20 -21 -22 -23 -24 -25 -26 -27 -28 -29 -30 -31
leaf_value=-1.2342164718485498 0.17302308881448375 0.97903931010853162 -0.61721417270009482 1.4564462504544102 -0.25141444421181131 -0.94731084051586345 0.54186323094846944 1.8201394117795506 -0.023025563673249316 1.2032302561173074 0.36913591364864262 -0.41770467746352397 -0.77786770417576756 -1.1049519348144532 0.68214125748546361 1.6280875236560139 -0.13156287821275847 1.3235041058980501 0.10854777665618731 -0.51867843332954433 0.28320478766557894 1.0947494425325313 1.950780784900372 -0.68243298905236394 -1.0332920058981165 -0.87073954684393751 0.77166800844121963 0.45332293867000512 -0.33080152339701141 -1.169046281220077
leaf_weight=154 126 55 126 91 126 126 112 52 70 130 112 126 210 140 84 156 140 104 98 154 70 117 65 70 154 126 98 84 70 154
leaf_count=154 126 55 126 91 126 126 112 52 70 130 112 126 210 140 84 156 140 104 98 154 70 117 65 70 154 126 98 84 70 154
internal_value=0 0.960593 -0.684258 1.40774 -0.301652 -0.991287 0.458687 1.67024 -0.0946339 1.17241 0.308795 -0.490404 -0.827438 -1.13608 0.658544 1.56485 -0.188335 1.25669 0.0537256 -0.56302 0.212374 1.05775 1.89272 -0.754009 -1.06742 -0.909025 0.730348 0.405216 -0.386668 -1.20163
internal_weight=0 1456 2044 770 910 1134 686 364 434 406 392 476 532 602 294 247 266 234 168 280 196 172 117 280 294 252 182 196 196 308
internal_count=3500 1456 2044 770 910 1134 686 364 434 406 392 476 532 602 294 247 266 234 168 280 196 172 117 280 294 252 182 196 196 308
is_linear=0
shrinkage=0.05


Tree=23
num_leaves=31
num_cat=0
split_feature=0 0 0 0 0 0 0 0 0 0 0 0 0 0 0 0 0 0 0 0 0 0 0 0 0 0 0 0 0 0
split_gain=830558 106299 96957.5 16448.8 12965.7 12342.1 6600.67 2265.25 2127.96 1689.41 1618.5 1577.53 1347.12 943.215 922.363 335.986 328.211 319.479 317.499 256.823 215.488 208.062 196.446 196.401 180.379 154.908 107.824 83.1393 45.6049 14.4902
threshold=2781968.0000000005 3900113.5000000005 1597368.5000000002 4777326.0000000009 996987.00000000012 2227063.0000000005 3350275.5000000005 4369214.0000000009 5204415.0000000009 2522094.5000000005 1975537.5000000002 739572.00000000012 1315939.5000000002 3552276.5000000005 3003648.5000000005 1812641.5000000002 4129307.5000000005 5078490.0000000009 4651688.5000000009 627226.50000000012 1173885.5000000002 888538.50000000012 2360009.0000000005 1451644.5000000002 3734439.5000000005 3193289.0000000005 2891746.5000000005 2075873.0000000002 2667792.0000000005 3443436.5000000005
decision_type=2 2 2 2 2 2 2 2 2 2 2 2 2 2 2 2 2 2 2 2 2 2 2 2 2 2 2 2 2 2
left_child=2 6 4 7 11 10 14 16 17 22 15 19 20 29 26 -4 -3 -5 -9 -1 -6 -13 -7 -14 -15 -16 -2 -12 -11 -8
right_child=1 3 5 8 12 9 13 18 -10 28 27 21 23 24 25 -17 -18 -19 -20 -21 -22 -23 -24 -25 -26 -27 -28 -29 -30 -31
leaf_value=-1.1546007444934241 0.18128500955445426 1.0010180153629997 -0.50303418169637304 1.5037836935136701 -0.83946469270047686 -0.1557118847662089 0.51379266902804377 1.2369540613014383 1.8354529590397093 0.086695049938802823 -0.31426144872392925 -1.0076461905524845 -0.69108010152620936 0.67011116711156715 0.35067911984931149 -0.39681944820793374 1.1160362033762483 1.6374734731820917 1.3702289405235879 -1.0701378233092171 -0.75547258870942258 -0.92264995442496422 -0.058777090581133964 -0.60008126109365434 0.7699608046738875 0.43675757078643973 0.26904455167906627 -0.24479889937876062 0.13953574129513333 0.54976167894367667
leaf_weight=252 70 132 182 143 168 98 56 143 91 98 70 168 112 98 112 126 117 65 65 140 140 126 112 126 84 98 70 112 70 56
leaf_count=252 70 132 182 143 168 98 56 143 91 98 70 168 112 98 112 126 117 65 65 140 140 126 112 126 84 98 70 112 70 56
internal_value=0 0.943336 -0.628891 1.34545 -0.914062 -0.224132 0.471286 1.15681 1.63379 -0.00946874 -0.389729 -1.05877 -0.732248 0.645941 0.324575 -0.459583 1.05506 1.54556 1.2786 -1.12444 -0.801286 -0.971219 -0.104013 -0.642904 0.716196 0.390849 0.225165 -0.271515 0.108712 0.531777
internal_weight=0 1400 2100 756 1232 868 644 457 299 378 490 686 546 294 350 308 249 208 208 392 308 294 210 238 182 210 140 182 168 112
internal_count=3500 1400 2100 756 1232 868 644 457 299 378 490 686 546 294 350 308 249 208 208 392 308 294 210 238 182 210 140 182 168 112
is_linear=0
shrinkage=0.05


Tree=24
num_leaves=30
num_cat=0
split_feature=0 0 0 0 0 0 0 0 0 0 0 0 0 0 0 0 0 0 0 0 0 0 0 0 0 0 0 0 0
split_gain=749579 95975.5 87517.4 14196.5 12039.9 10776.5 6679.99 2055.24 1808.61 1758.72 1419.1 1379.06 1237.34 1207.47 363.477 348.848 254.507 238.024 232.358 219.721 216.738 190.477 189.732 164.852 164.499 159.224 139.181 89.1728 53.7711
threshold=2781968.0000000005 3929063.5000000005 1564753.0000000002 4797700.0000000009 2183604.5000000005 973223.00000000012 3492982.0000000005 4434800.5000000009 2482116.0000000005 5204415.0000000009 3127078.0000000005 1887270.0000000002 702581.50000000012 1240007.0000000002 3764705.0000000005 4129307.5000000005 2914411.0000000005 5078490.0000000009 1413039.0000000002 4651688.5000000009 1718093.5000000002 860550.50000000012 2032500.5000000002 3329005.0000000005 564359.50000000012 2302127.5000000005 1098394.5000000002 2667792.0000000005 3633591.0000000005
decision_type=2 2 2 2 2 2 2 2 2 2 2 2 2 2 2 2 2 2 2 2 2 2 2 2 2 2 2 2 2
left_child=2 6 5 7 11 12 10 15 25 17 16 20 24 26 28 -3 -2 -5 -15 -9 -4 -14 -13 -12 -1 -6 -7 -10 -8
right_child=1 3 4 9 8 13 14 19 27 -11 23 22 21 18 -16 -17 -18 -19 -20 -21 -22 -23 -24 -25 -26 -27 -28 -29 -30
leaf_value=-1.1121578605402085 0.18130661495739508 0.96143343413280236 -0.51466432216148528 1.4384155788788429 -0.17719812554617723 -0.82609315022589669 0.59798031451446676 1.1954812116347826 0.062173987200690645 1.7436803199432711 0.39181311620133269 -0.34472487156412435 -0.97178626322484285 -0.68040975003273463 0.76052885232936773 1.0753691337811642 0.29366472151780887 1.5555997723799486 -0.58885477014950349 1.3064951859987701 -0.42427261830440594 -0.89181292738233298 -0.25269132839249714 0.47827868750508956 -1.0435465776003325 -0.088327225694610254 -0.75365768287863055 0.13255895378334182 0.65995445801477359
leaf_weight=168 84 118 126 130 84 126 70 104 126 91 126 112 182 154 84 156 126 65 126 78 140 126 112 98 182 126 140 70 70
leaf_count=168 84 118 126 130 84 126 70 104 126 91 126 112 182 154 84 156 126 65 126 78 140 126 112 98 182 126 140 70 70
internal_value=0 0.89617 -0.597446 1.28602 -0.223278 -0.875897 0.456552 1.11281 -0.0219232 1.56218 0.3421 -0.390115 -1.01216 -0.711682 0.678303 1.0263 0.248721 1.47748 -0.63921 1.24306 -0.46709 -0.93907 -0.298708 0.429642 -1.07648 -0.123876 -0.787969 0.0873115 0.628967
internal_weight=0 1400 2100 742 896 1204 658 456 406 286 434 490 658 546 224 274 210 195 280 182 266 308 224 224 350 210 266 196 140
internal_count=3500 1400 2100 742 896 1204 658 456 406 286 434 490 658 546 224 274 210 195 280 182 266 308 224 224 350 210 266 196 140
is_linear=0
shrinkage=0.05


Tree=25
num_leaves=31
num_cat=0
split_feature=0 0 0 0 0 0 0 0 0 0 0 0 0 0 0 0 0 0 0 0 0 0 0 0 0 0 0 0 0 0
split_gain=676495 86695.7 78993.1 13975.6 10565.4 10055.2 4804.06 2200.35 1496.08 1397.21 1322.96 1288.56 1099.43 760.74 618.651 363.656 275.962 231.807 213.467 206.656 194.211 178.722 169.356 160.222 156.91 131.778 103.246 87.1027 66.9705 17.5102
threshold=2781968.0000000005 3873233.0000000005 1597368.5000000002 4696264.0000000009 996987.00000000012 2227063.0000000005 3350275.5000000005 5152199.0000000009 4276564.0000000009 2541673.5000000005 1975537.5000000002 739572.00000000012 1315939.5000000002 3003648.5000000005 3522254.5000000005 4898748.0000000009 1812641.5000000002 3974016.0000000005 616736.00000000012 4565307.0000000009 2360009.0000000005 1131400.0000000002 888538.50000000012 1451644.5000000002 5313469.5000000009 3243402.0000000005 3680014.0000000005 2891746.5000000005 2145442.5000000005 2667792.0000000005
decision_type=2 2 2 2 2 2 2 2 2 2 2 2 2 2 2 2 2 2 2 2 2 2 2 2 2 2 2 2 2 2
left_child=2 6 4 8 11 10 13 15 17 20 16 18 21 27 -8 -5 -4 -3 -1 -10 -7 -6 -13 -14 -9 -15 -16 -2 -12 -11
right_child=1 3 5 7 12 9 14 24 19 29 28 22 23 25 26 -17 -18 -19 -20 -21 -22 -23 -24 -25 -26 -27 -28 -29 -30 -31
leaf_value=-1.0446304990463897 0.163155426468168 0.84001944975419485 -0.45423520440338083 1.2872311903880194 -0.76899485625917952 -0.14097076203978184 0.46945613566405919 1.5716247470562275 1.0818017980435513 0.092070957254396679 -0.26504388823070463 -0.90934098533221663 -0.62365004697016313 0.32505657563784296 0.584599622108397 1.4157309122574635 -0.35797450556641536 0.9581963168975165 -0.9690814016701339 1.1893246918458205 -0.04712107332925948 -0.69152842576687157 -0.83265703443496941 -0.54145880251649825 1.6881526360144983 0.40907748975924085 0.66014171137417454 0.2420326703148229 -0.19932834694960289 0.12593100624425071
leaf_weight=238 70 55 182 104 126 98 98 65 143 84 126 168 112 140 84 117 126 169 154 65 126 182 126 126 52 70 98 70 56 70
leaf_count=238 70 55 182 104 126 98 98 65 143 84 126 168 112 140 84 117 126 169 154 65 126 182 126 126 52 70 98 70 56 70
internal_value=0 0.851361 -0.567574 1.20726 -0.824975 -0.202231 0.416371 1.44808 1.01884 -0.00847423 -0.351701 -0.955604 -0.66085 0.292876 0.570739 1.35526 -0.414856 0.92918 -1.01495 1.1154 -0.0881803 -0.723219 -0.876476 -0.580137 1.62341 0.353064 0.625276 0.202594 -0.244824 0.107462
internal_weight=0 1400 2100 770 1232 868 630 338 432 378 490 686 546 350 280 221 308 224 392 208 224 308 294 238 117 210 182 140 182 154
internal_count=3500 1400 2100 770 1232 868 630 338 432 378 490 686 546 350 280 221 308 224 392 208 224 308 294 238 117 210 182 140 182 154
is_linear=0
shrinkage=0.05


Tree=26
num_leaves=31
num_cat=0
split_feature=0 0 0 0 0 0 0 0 0 0 0 0 0 0 0 0 0 0 0 0 0 0 0 0 0 0 0 0 0 0
split_gain=610536 78242.9 71320.5 12633.8 10291.7 8362.42 4335.66 1837.89 1574.95 1165.33 1163.8 1155 1136.56 686.568 560.181 291.479 245.039 228.273 204.289 185.129 184.292 153.499 151.483 138.06 118.929 80.3215 78.6102 69.5432 16.4092 9.9052
threshold=2781968.0000000005 3873233.0000000005 1632019.0000000002 4777326.0000000009 996987.00000000012 2244467.5000000005 3350275.5000000005 4369214.0000000009 5204415.0000000009 1328175.5000000002 702581.50000000012 2541673.5000000005 1975537.5000000002 3003648.5000000005 3552276.5000000005 4129307.5000000005 4969663.0000000009 4565307.0000000009 888538.50000000012 1173885.5000000002 1812641.5000000002 1451644.5000000002 2442457.0000000005 564359.50000000012 3243402.0000000005 2145442.5000000005 2891746.5000000005 3680014.0000000005 2624515.0000000005 3443436.5000000005
decision_type=2 2 2 2 2 2 2 2 2 2 2 2 2 2 2 2 2 2 2 2 2 2 2 2 2 2 2 2 2 2
left_child=2 6 4 7 10 12 13 15 16 19 23 22 20 26 29 -3 -5 -9 -12 -6 -4 -11 -7 -1 -15 -14 -2 -16 -13 -8
right_child=1 3 5 8 9 11 14 17 -10 21 18 28 25 24 27 -17 -18 -19 -20 -21 -22 -23 -24 -25 -26 -27 -28 -29 -30 -31
leaf_value=-1.0043184635185061 0.15499765200274332 0.85057497544035532 -0.42161306689989253 1.2636552121613054 -0.72021446575721104 -0.10821686448263271 0.4407162742157068 1.0442137423616191 1.5745857238769532 -0.58927830080596777 -0.87155596210843056 0.12367975044596409 -0.25179170015312374 0.30880374023890389 0.56188321223216398 0.95649600227673859 1.3730522740600457 1.1489736718627124 -0.79102416927852337 -0.64431825196544357 -0.34007577858273946 -0.50923034870005279 -0.018132772956575668 -0.94146231334288055 0.38862360928739825 -0.18499119308378018 0.22993103853293828 0.62713462321125735 0.089751100053592603 0.47045501397390455
leaf_weight=168 70 146 154 91 168 140 56 104 91 98 210 56 126 140 70 117 117 104 126 154 126 154 70 182 70 70 70 98 98 56
leaf_count=168 70 146 154 91 168 140 56 104 91 98 210 56 126 140 70 117 117 104 126 154 126 154 70 182 70 70 70 98 98 56
internal_value=0 0.808793 -0.539195 1.1469 -0.77711 -0.182323 0.395552 0.985532 1.40109 -0.620892 -0.907824 -0.00191753 -0.32028 0.278232 0.542202 0.897696 1.32519 1.09659 -0.841357 -0.683916 -0.384921 -0.54036 -0.0781888 -0.971633 0.33541 -0.227934 0.192464 0.599947 0.102089 0.455586
internal_weight=0 1400 2100 770 1260 840 630 471 299 574 686 364 476 350 280 263 208 208 336 322 280 252 210 350 210 196 140 168 154 112
internal_count=3500 1400 2100 770 1260 840 630 471 299 574 686 364 476 350 280 263 208 208 336 322 280 252 210 350 210 196 140 168 154 112
is_linear=0
shrinkage=0.05


Tree=27
num_leaves=31
num_cat=0
split_feature=0 0 0 0 0 0 0 0 0 0 0 0 0 0 0 0 0 0 0 0 0 0 0 0 0 0 0 0 0 0
split_gain=551088 78342.5 57566.9 11403.6 7628.22 7329.42 4913.56 1668.28 1358.83 1076.07 1009.09 1008.7 949.817 662.946 578.95 243.983 241.12 177.261 161.197 152.058 149.508 143.561 138.507 132.447 131.487 129.468 117.469 106.489 75.8199 29.069
threshold=2690109.0000000005 3873233.0000000005 1524251.5000000002 4728027.0000000009 2145442.5000000005 925594.00000000012 3243402.0000000005 5152199.0000000009 4340761.0000000009 2461724.5000000005 1225239.0000000002 1812641.5000000002 3492982.0000000005 627226.50000000012 2914411.0000000005 4898748.0000000009 3974016.0000000005 1975537.5000000002 4565307.0000000009 1041978.5000000001 2302127.5000000005 789285.00000000012 1398057.5000000002 478235.00000000006 5313469.5000000009 2541673.5000000005 1682535.5000000002 3680014.0000000005 3003648.5000000005 3350275.5000000005
decision_type=2 2 2 2 2 2 2 2 2 2 2 2 2 2 2 2 2 2 2 2 2 2 2 2 2 2 2 2 2 2
left_child=2 6 5 8 11 13 14 15 16 20 19 26 29 23 -2 -5 -3 -13 -10 -7 -6 -15 -12 -1 -9 -11 -4 -14 -16 -8
right_child=1 3 4 7 9 10 12 24 18 25 22 17 27 21 28 -17 -18 -19 -20 -21 -22 -23 -24 -25 -26 -27 -28 -29 -30 -31
leaf_value=-0.87340160267693667 0.14056782554835082 0.75548970482566147 -0.45779091532061261 1.168346189928579 -0.16270279836441792 -0.73349128185756629 0.36919242394821983 1.4183449055598334 0.98692529947839247 -0.010808302408882552 -0.58909166227881016 -0.32307199164042399 0.52206841061005782 -0.86324254955564228 0.22452500604891351 1.2775072733561199 0.87402770305673294 -0.23920211276364706 1.079720475123479 -0.66203693164164557 -0.081005438111190292 -0.7987314303199966 -0.51601521686783858 -0.96059197795634366 1.5250157163693356 0.084494405612349513 -0.38741481386657273 0.59577789693614658 0.29336355648402662 0.41281953691726642
leaf_weight=56 140 55 126 91 112 126 70 65 117 56 154 126 98 196 56 117 195 126 78 182 112 154 112 196 52 98 112 98 140 84
leaf_count=56 140 55 126 91 112 126 70 65 117 56 154 126 98 196 56 117 195 126 78 182 112 154 112 196 52 98 112 98 140 84
internal_value=0 0.743372 -0.529525 1.08955 -0.220667 -0.757492 0.3548 1.31471 0.925114 -0.0519051 -0.629659 -0.350854 0.485912 -0.87938 0.218226 1.22975 0.847949 -0.281137 1.02404 -0.691268 -0.121854 -0.834858 -0.558323 -0.941216 1.46575 0.0498389 -0.424673 0.558923 0.273695 0.392989
internal_weight=0 1456 2044 770 868 1176 686 325 445 378 574 490 350 602 336 208 250 252 195 308 224 350 266 252 117 154 238 196 196 154
internal_count=3500 1456 2044 770 868 1176 686 325 445 378 574 490 350 602 336 208 250 252 195 308 224 350 266 252 117 154 238 196 196 154
is_linear=0
shrinkage=0.05


Tree=28
num_leaves=31
num_cat=0
split_feature=0 0 0 0 0 0 0 0 0 0 0 0 0 0 0 0 0 0 0 0 0 0 0 0 0 0 0 0 0 0
split_gain=497357 70711.1 51954.1 10812.7 6884.47 6614.8 4035.44 1859.67 999.057 972.297 911.569 910.35 710.252 598.564 522.502 388.541 184.601 162.005 161.552 150.927 140.613 121.72 118.667 106.015 95.936 88.9885 69.9442 46.0016 26.2347 17.6222
threshold=2690109.0000000005 3837971.0000000005 1524251.5000000002 4651688.5000000009 2145442.5000000005 925594.00000000012 3243402.0000000005 5152199.0000000009 4172670.0000000005 2482116.0000000005 1212755.0000000002 1812641.5000000002 3492982.0000000005 657341.00000000012 2914411.0000000005 4823958.5000000009 4434800.5000000009 2302127.5000000005 1997098.0000000002 3974016.0000000005 1398057.5000000002 1041978.5000000001 5313469.5000000009 1682535.5000000002 789285.00000000012 478235.00000000006 3127078.0000000005 3680014.0000000005 3350275.5000000005 2781968.0000000005
decision_type=2 2 2 2 2 2 2 2 2 2 2 2 2 2 2 2 2 2 2 2 2 2 2 2 2 2 2 2 2 2
left_child=2 6 5 8 11 13 14 15 19 17 21 23 28 25 29 -5 -10 -6 -13 -3 -12 -7 -9 -4 -15 -1 -16 -14 -8 -2
right_child=1 3 4 7 9 10 12 22 16 -11 20 18 27 24 26 -17 -18 -19 -20 -21 -22 -23 -24 -25 -26 -27 -28 -29 -30 -31
leaf_value=-0.82973152058465149 0.11181336955300399 0.71079078463540568 -0.43490136412401048 1.0683694348230468 -0.15456765843222717 -0.69681670774543103 0.35073280813438551 1.3474276304244996 0.88496682788317027 0.055245903586037461 -0.56254103644085784 -0.30288746232432984 0.49596498980357939 -0.81460532600229441 0.2377477411683353 1.1983726001702821 0.97433988950573491 -0.071920454502105713 -0.22232112660338835 0.80402861772439427 -0.4902144628443888 -0.63180596301598213 1.4487649367405819 -0.36804406841692983 -0.75879487341100527 -0.89978473326739139 0.30008382501346725 0.54638923686884699 0.39217857054789507 0.14802347783531464
leaf_weight=56 56 69 126 91 112 126 70 65 130 140 168 140 98 154 126 156 104 126 112 117 112 168 52 112 154 238 70 84 84 84
leaf_count=56 56 69 126 91 112 126 70 65 130 140 168 140 98 154 126 156 104 126 112 117 112 168 52 112 154 238 70 84 84 84
internal_value=0 0.706204 -0.503049 1.0288 -0.209633 -0.719618 0.329841 1.22826 0.855936 -0.0493099 -0.598176 -0.333312 0.452368 -0.835411 0.207314 1.15048 0.924688 -0.110813 -0.26708 0.76944 -0.53361 -0.659668 1.39247 -0.403439 -0.7867 -0.886441 0.260011 0.519238 0.37334 0.133539
internal_weight=0 1456 2044 784 868 1176 672 364 420 378 574 490 336 602 336 247 234 238 252 186 280 294 117 238 308 294 196 182 154 140
internal_count=3500 1456 2044 784 868 1176 672 364 420 378 574 490 336 602 336 247 234 238 252 186 280 294 117 238 308 294 196 182 154 140
is_linear=0
shrinkage=0.05


Tree=29
num_leaves=31
num_cat=0
split_feature=0 0 0 0 0 0 0 0 0 0 0 0 0 0 0 0 0 0 0 0 0 0 0 0 0 0 0 0 0 0
split_gain=448865 63820.6 46895.5 9309.11 6956.67 5257.11 4000.32 1484.24 1191.09 1078.25 772.629 697.473 625.157 549.632 474.333 224.033 204.928 178.894 152.26 143.433 120.417 114.38 109.853 109.637 86.2297 64.0086 54.8902 41.9985 39.6018 23.9964
threshold=2690109.0000000005 3873233.0000000005 1481851.0000000002 4797700.0000000009 2075873.0000000002 925594.00000000012 3243402.0000000005 4369214.0000000009 2442457.0000000005 5204415.0000000009 3492982.0000000005 1735573.5000000002 1212755.0000000002 627226.50000000012 2963439.5000000005 4129307.5000000005 4651688.5000000009 2244467.5000000005 5078490.0000000009 2541673.5000000005 1955025.0000000002 789285.00000000012 1041978.5000000001 478235.00000000006 3680014.0000000005 1398057.5000000002 1632019.0000000002 2850049.5000000005 3127078.0000000005 3329005.0000000005
decision_type=2 2 2 2 2 2 2 2 2 2 2 2 2 2 2 2 2 2 2 2 2 2 2 2 2 2 2 2 2 2
left_child=2 6 5 7 11 13 14 15 17 18 29 26 22 23 27 -3 -9 -6 -5 -10 -13 -15 -7 -1 -12 -14 -4 -2 -16 -8
right_child=1 3 4 9 8 12 10 16 19 -11 24 20 25 21 28 -17 -18 -19 -20 -21 -22 -23 -24 -25 -26 -27 -28 -29 -30 -31
leaf_value=-0.78824496737548289 0.11641251723072968 0.72813234379744696 -0.4315414280290642 1.1119468002594435 -0.17481664911296868 -0.6619758673603573 0.32856292850337926 0.90966471426084738 -0.016202717721462253 1.3516247091712534 0.47116673020836047 -0.31162905807838426 -0.53441398734160306 -0.77843752722350923 0.23583942631981814 0.82099360110413322 1.0104161565120404 -0.092694559264928103 1.205670915933756 0.077507388857858517 -0.23925561260132652 -0.72085512814583719 -0.60021565805654975 -0.86757314630917137 0.53749524545380656 -0.47750590484057159 -0.37936164350027135 0.16712084887283191 0.28507963812776976 0.36959242216330401
leaf_weight=56 98 146 126 130 126 126 56 143 70 91 98 182 168 196 98 117 78 140 65 98 84 154 168 196 98 70 84 70 70 98
leaf_count=56 98 146 126 130 126 126 56 143 70 91 98 182 168 196 98 117 78 140 65 98 84 154 168 196 98 70 84 70 70 98
internal_value=0 0.670893 -0.477897 0.983348 -0.210546 -0.692437 0.32018 0.849707 -0.0657664 1.20951 0.438481 -0.342552 -0.577918 -0.79364 0.196949 0.769443 0.945224 -0.131594 1.14319 0.0384615 -0.288774 -0.753101 -0.626684 -0.849945 0.504331 -0.517676 -0.41067 0.137541 0.256356 0.354673
internal_weight=0 1456 2044 770 910 1134 686 484 434 286 350 476 532 602 336 263 221 266 195 168 266 350 294 252 196 238 210 168 168 154
internal_count=3500 1456 2044 770 910 1134 686 484 434 286 350 476 532 602 336 263 221 266 195 168 266 350 294 252 196 238 210 168 168 154
is_linear=0
shrinkage=0.05


Tree=30
num_leaves=30
num_cat=0
split_feature=0 0 0 0 0 0 0 0 0 0 0 0 0 0 0 0 0 0 0 0 0 0 0 0 0 0 0 0 0
split_gain=405116 51955.2 47337.8 7699.58 6514.47 5830.8 3591.22 1239.68 984.876 884.438 778.082 751.625 711.106 628.078 192.769 190.671 142.417 135.566 133.266 122.676 120.023 110.944 110.432 104.926 102.563 93.0898 86.2537 22.0941 20.4261
threshold=2781968.0000000005 3929063.5000000005 1564753.0000000002 4823958.5000000009 2183604.5000000005 961774.00000000012 3492982.0000000005 4434800.5000000009 2522094.5000000005 5204415.0000000009 3127078.0000000005 1887270.0000000002 1240007.0000000002 679088.00000000012 4172670.0000000005 3734439.5000000005 2360009.0000000005 4651688.5000000009 2891746.5000000005 1451644.5000000002 1718093.5000000002 860550.50000000012 5078490.0000000009 2032500.5000000002 540386.50000000012 1098394.5000000002 3285461.0000000005 2667792.0000000005 3633591.0000000005
decision_type=2 2 2 2 2 2 2 2 2 2 2 2 2 2 2 2 2 2 2 2 2 2 2 2 2 2 2 2 2
left_child=2 6 5 7 11 13 10 14 16 22 18 20 25 24 -3 28 -6 -9 -2 -14 -4 -15 -5 -13 -1 -7 -12 -10 -8
right_child=1 3 4 9 8 12 15 17 27 -11 26 23 19 21 -16 -17 -18 -19 -20 -21 -22 -23 -24 -25 -26 -27 -28 -29 -30
leaf_value=-0.8281641218491963 0.12598341050956929 0.71435202229768047 -0.37898506209372529 1.0641035542528854 -0.117815366610589 -0.61118252649903304 0.43927715319075755 0.88013965507539427 0.061443638801574711 1.284043488266704 0.28109765134903852 -0.2534934380291296 -0.49395143830186722 -0.71866724899836953 0.79833873354471652 0.55027369280554816 -0.040325396920421294 0.96370493548584513 0.21047740748950414 -0.42456413997451259 -0.31171946425523078 -0.65704590875123237 1.1453873954369473 -0.18505211314851686 -0.77124038279711549 -0.55352285853454042 0.34364150120721515 0.098222667851618373 0.47979115120002203
leaf_weight=140 70 144 126 117 126 140 70 104 98 91 98 112 182 210 130 98 112 91 140 98 140 112 65 112 182 140 126 70 56
leaf_count=140 70 144 126 117 126 140 70 104 98 91 98 112 182 210 130 98 112 91 140 98 140 112 65 112 182 140 126 70 56
internal_value=0 0.658827 -0.439218 0.945661 -0.164034 -0.644006 0.335375 0.822777 -0.0159215 1.15677 0.251456 -0.286755 -0.526009 -0.746612 0.7542 0.497967 -0.0813495 0.919137 0.182313 -0.469666 -0.343582 -0.697234 1.09313 -0.219273 -0.79599 -0.582353 0.316279 0.0767682 0.457283
internal_weight=0 1400 2100 742 896 1204 658 469 406 273 434 490 560 644 274 224 238 195 210 280 266 322 182 224 322 280 224 168 126
internal_count=3500 1400 2100 742 896 1204 658 469 406 273 434 490 560 644 274 224 238 195 210 280 266 322 182 224 322 280 224 168 126
is_linear=0
shrinkage=0.05


Tree=31
num_leaves=30
num_cat=0
split_feature=0 0 0 0 0 0 0 0 0 0 0 0 0 0 0 0 0 0 0 0 0 0 0 0 0 0 0 0 0
split_gain=365617 46889.6 42733.7 6952.31 6171.84 5011.86 3241.07 1011.1 877.526 711.288 705.159 702.219 697.242 676.086 174.068 174.042 139.52 123.682 121.954 112.545 103.905 102.488 101.836 91.3615 89.7108 78.0501 49.0786 26.1603 20.4491
threshold=2781968.0000000005 3929063.5000000005 1632019.0000000002 4797700.0000000009 996987.00000000012 2244467.5000000005 3492982.0000000005 4434800.5000000009 5204415.0000000009 739572.00000000012 1315939.5000000002 3127078.0000000005 2541673.5000000005 1975537.5000000002 3764705.0000000005 4129307.5000000005 540386.50000000012 5078490.0000000009 2914411.0000000005 1812641.5000000002 1451644.5000000002 1131400.0000000002 4651688.5000000009 888538.50000000012 2442457.0000000005 3329005.0000000005 2075873.0000000002 3633591.0000000005 2624515.0000000005
decision_type=2 2 2 2 2 2 2 2 2 2 2 2 2 2 2 2 2 2 2 2 2 2 2 2 2 2 2 2 2
left_child=2 6 4 7 9 13 11 15 17 16 21 18 24 19 27 -3 -1 -5 -2 -4 -12 -6 -9 -11 -7 -13 -15 -8 -14
right_child=1 3 5 8 10 12 14 22 -10 23 20 25 28 26 -16 -17 -18 -19 -20 -21 -22 -23 -24 -25 -26 -27 -28 -29 -30
leaf_value=-0.78675590719495503 0.12653068837798423 0.67067102562573 -0.32634465979267058 1.0036462705066571 -0.56660925840574605 -0.083718863004552474 0.41731330247861997 0.83613266212722426 1.2198412989522076 -0.66799217263857535 -0.45745305075376691 0.27443545439265787 0.1035611980993833 -0.2101605717624937 0.52997061854139682 0.75114748844733603 -0.72450188772072877 1.0881180065526412 0.2043080497710478 -0.26262606720602705 -0.39415939029475511 -0.50794666367327124 0.91171010209199721 -0.61166923833597042 -0.014394003450870513 0.33393072539142205 -0.15794381891924239 0.46054053717425891 0.065685552103939102
leaf_weight=140 84 118 154 130 126 140 70 104 91 168 112 126 56 70 84 156 252 65 126 126 154 182 78 126 70 98 126 70 98
leaf_count=140 84 118 154 130 126 140 70 104 91 168 112 126 56 70 84 156 252 65 126 126 154 182 78 126 70 98 126 70 98
internal_value=0 0.625885 -0.417257 0.898378 -0.601419 -0.141014 0.318606 0.77717 1.09163 -0.702643 -0.480443 0.238884 -0.00135058 -0.247815 0.473068 0.71649 -0.746735 1.0318 0.173197 -0.297671 -0.420809 -0.531945 0.868523 -0.643854 -0.0606106 0.300465 -0.176593 0.438927 0.0794585
internal_weight=0 1400 2100 742 1260 840 658 456 286 686 574 434 364 476 224 274 392 195 210 280 266 308 182 294 210 224 196 140 154
internal_count=3500 1400 2100 742 1260 840 658 456 286 686 574 434 364 476 224 274 392 195 210 280 266 308 182 294 210 224 196 140 154
is_linear=0
shrinkage=0.05


Tree=32
num_leaves=31
num_cat=0
split_feature=0 0 0 0 0 0 0 0 0 0 0 0 0 0 0 0 0 0 0 0 0 0 0 0 0 0 0 0 0 0
split_gain=330034 48219.1 33509 7131.89 5006.06 3699.8 2806.48 1243.37 778.737 651.583 559.072 457.149 450.411 384.26 383.573 262.951 153.194 134.946 108.091 90.6504 90.6128 89.3719 71.4022 61.4587 60.9865 53.6064 44.8559 33.2822 27.1946 25.7958
threshold=2667792.0000000005 3837971.0000000005 1467313.0000000002 4651688.5000000009 2075873.0000000002 912522.50000000012 3243402.0000000005 5152199.0000000009 2442457.0000000005 4276564.0000000009 1735573.5000000002 1173885.5000000002 3492982.0000000005 2963439.5000000005 627226.50000000012 4823958.5000000009 3974016.0000000005 2302127.5000000005 478235.00000000006 2541673.5000000005 1887270.0000000002 5313469.5000000009 789285.00000000012 1041978.5000000001 4434800.5000000009 1315939.5000000002 1632019.0000000002 2850049.5000000005 3633591.0000000005 3127078.0000000005
decision_type=2 2 2 2 2 2 2 2 2 2 2 2 2 2 2 2 2 2 2 2 2 2 2 2 2 2 2 2 2 2
left_child=2 6 5 9 10 14 13 15 17 16 26 23 -8 27 18 -5 -3 -6 -1 -10 -12 -9 -16 -7 -11 -13 -4 -2 -14 -15
right_child=1 3 4 7 8 11 12 21 19 24 20 25 28 29 22 -17 -18 -19 -20 -21 -22 -23 -24 -25 -26 -27 -28 -29 -30 -31
leaf_value=-0.66808667981198866 0.098099268853132221 0.58080335427885477 -0.37190447209136829 0.86927750831121919 -0.1401340815194306 -0.56988838621548243 0.30471068106035326 1.0956074474408077 -0.013674299865961076 0.73583914114114568 -0.2781238675235756 -0.47568351270364861 0.39644763055673271 0.20330817872772414 -0.66722566710442921 0.97622562858920825 0.66921542583132643 -0.066305697203034128 -0.74685354719356623 0.063367529302125886 -0.21967766938464983 1.1835512162401127 -0.62047331707818176 -0.52175426114173173 0.79432603646642885 -0.43072935219794983 -0.32568762250954197 0.14204873510237251 0.43617492987707795 0.24304899867091861
leaf_weight=56 112 69 140 91 168 140 154 65 70 78 126 140 70 98 196 156 169 98 196 84 140 52 140 126 104 126 84 70 112 70
leaf_count=56 112 69 140 91 168 140 154 65 70 78 126 140 70 98 196 156 169 98 196 84 140 52 140 126 104 126 84 70 112 70
internal_value=0 0.570564 -0.413167 0.838435 -0.1878 -0.596278 0.264426 1.00042 -0.0611305 0.698043 -0.296373 -0.500739 0.367644 0.165338 -0.682719 0.936824 0.643583 -0.112934 -0.72935 0.0283485 -0.247363 1.13469 -0.647746 -0.547088 0.76926 -0.454389 -0.354573 0.115003 0.420895 0.219867
internal_weight=0 1470 2030 784 910 1120 686 364 420 420 490 532 336 350 588 247 238 266 252 154 266 117 336 266 182 266 224 182 182 168
internal_count=3500 1470 2030 784 910 1120 686 364 420 420 490 532 336 350 588 247 238 266 252 154 266 117 336 266 182 266 224 182 182 168
is_linear=0
shrinkage=0.05


Tree=33
num_leaves=31
num_cat=0
split_feature=0 0 0 0 0 0 0 0 0 0 0 0 0 0 0 0 0 0 0 0 0 0 0 0 0 0 0 0 0 0
split_gain=297858 42466.6 31127.2 6439.37 4136.79 3962 2396.13 982.409 743.797 578.566 550.82 547.298 406.496 372.285 315.383 243.33 138.258 98.0883 97.5524 94.0661 91.8385 81.9742 76.2347 74.5384 62.5201 25.2954 24.5431 23.2807 22.9172 17.761
threshold=2690109.0000000005 3837971.0000000005 1524251.5000000002 4696264.0000000009 2145442.5000000005 925594.00000000012 3243402.0000000005 5204415.0000000009 4276564.0000000009 2482116.0000000005 1225239.0000000002 1812641.5000000002 3492982.0000000005 627226.50000000012 2963439.5000000005 4932664.5000000009 3974016.0000000005 2302127.5000000005 478235.00000000006 1997098.0000000002 4565307.0000000009 1098394.5000000002 789285.00000000012 1398057.5000000002 1682535.5000000002 2850049.5000000005 3633591.0000000005 3127078.0000000005 2606229.5000000005 3350275.5000000005
decision_type=2 2 2 2 2 2 2 2 2 2 2 2 2 2 2 2 2 2 2 2 2 2 2 2 2 2 2 2 2 2
left_child=2 6 5 8 11 13 14 15 16 17 21 24 29 18 25 -5 -3 -6 -1 -13 -10 -7 -15 -12 -4 -2 -14 -16 -11 -8
right_child=1 3 4 7 9 10 12 -9 20 28 23 19 26 22 27 -17 -18 -19 -20 -21 -22 -23 -24 -25 -26 -27 -28 -29 -30 -31
leaf_value=-0.63468235709837506 0.095592821678336784 0.55176318551319237 -0.33659053874157729 0.85706584992317048 -0.11939482356621219 -0.52992278001793147 0.27087426468729975 1.1015561827263989 0.71843750934813411 0.059265867088522231 -0.43280873455155594 -0.23402439228658167 0.37662525500570027 -0.63386437476289526 0.19314277007111483 0.95645795501195474 0.63575465140654852 -0.055085683622885323 -0.70951087614711461 -0.17254723537979383 0.79011610352076023 -0.47745859599302687 -0.58685418305458958 -0.37920048795640471 -0.28524837866425518 0.13494629703462124 0.41436618229241245 0.2308965495654515 0.017972440818058596 0.30497586822935513
leaf_weight=56 98 69 126 117 112 182 70 91 143 84 154 140 70 196 98 130 169 126 196 112 65 126 154 112 112 70 112 70 56 84
leaf_count=56 98 69 126 117 112 182 70 91 143 84 154 140 70 196 98 130 169 126 196 112 65 126 154 112 112 70 112 70 56 84
internal_value=0 0.546513 -0.389297 0.796513 -0.162183 -0.556929 0.254847 0.961118 0.671768 -0.0379054 -0.462942 -0.258055 0.349262 -0.646544 0.160432 0.909377 0.611404 -0.0853488 -0.692882 -0.206701 0.740837 -0.50846 -0.61318 -0.410237 -0.31243 0.11199 0.39985 0.208874 0.0427485 0.289475
internal_weight=0 1456 2044 784 868 1176 672 338 446 378 574 490 336 602 336 247 238 238 252 252 208 308 350 266 238 168 182 168 140 154
internal_count=3500 1456 2044 784 868 1176 672 338 446 378 574 490 336 602 336 247 238 238 252 252 208 308 350 266 238 168 182 168 140 154
is_linear=0
shrinkage=0.05


Tree=34
num_leaves=31
num_cat=0
split_feature=0 0 0 0 0 0 0 0 0 0 0 0 0 0 0 0 0 0 0 0 0 0 0 0 0 0 0 0 0 0
split_gain=268844 39265.7 27297.4 5814.93 4078.98 3013.39 2282.97 1026.23 729.453 542.065 372.295 371.682 366.863 312.667 311.964 189.531 153.416 138.932 101.305 88.041 77.5164 72.9464 58.5925 51.3209 46.6277 44.0107 43.8632 36.6398 22.1502 16.0293
threshold=2667792.0000000005 3837971.0000000005 1467313.0000000002 4651688.5000000009 2032500.5000000002 912522.50000000012 3243402.0000000005 5078490.0000000009 2360009.0000000005 4172670.0000000005 1173885.5000000002 1735573.5000000002 3492982.0000000005 2914411.0000000005 627226.50000000012 5204415.0000000009 2541673.5000000005 4823958.5000000009 4434800.5000000009 478235.00000000006 3974016.0000000005 2183604.5000000005 766699.50000000012 1041978.5000000001 1887270.0000000002 3003648.5000000005 1279571.5000000002 1632019.0000000002 3633591.0000000005 3350275.5000000005
decision_type=2 2 2 2 2 2 2 2 2 2 2 2 2 2 2 2 2 2 2 2 2 2 2 2 2 2 2 2 2 2
left_child=2 6 5 9 11 14 13 17 21 20 23 27 29 -2 19 -9 -10 -5 -11 -1 -3 -6 -16 -7 -13 -15 -12 -4 -14 -8
right_child=1 3 4 7 8 10 12 15 16 18 26 24 28 25 22 -17 -18 -19 -20 -21 -22 -23 -24 -25 -26 -27 -28 -29 -30 -31
leaf_value=-0.60294824334726282 0.096019651566620012 0.52417502538233574 -0.33562752294487191 0.78391675809091277 -0.15128565715027176 -0.51461318272565093 0.25733055446829117 0.9346903066222485 -0.028966780024625008 0.65113672065620243 -0.43393223819189841 -0.25109356462600685 0.35779398300818038 0.15376193991729192 -0.60552397006679159 1.0464783622995837 0.05826819724447671 0.86629061255699558 0.71734388757210521 -0.67403533400929705 0.59099493280180504 -0.095827420746042793 -0.5637648373132661 -0.47062775479659202 -0.20675454884102301 0.20620873223458017 -0.39280861483572371 -0.29385726756992797 0.39364786772057414 0.28972707414733517
leaf_weight=56 154 69 140 91 112 140 70 65 126 130 112 126 70 56 168 91 84 117 104 196 117 126 168 126 112 140 154 84 112 84
leaf_count=56 154 69 140 91 112 140 70 65 126 130 112 126 70 56 168 91 84 117 104 196 117 126 168 126 112 140 154 84 112 84
internal_value=0 0.514962 -0.372904 0.756687 -0.169494 -0.538174 0.238704 0.902958 -0.0619945 0.629919 -0.451951 -0.273736 0.331799 0.149334 -0.616185 0.9999 0.00592721 0.830252 0.680562 -0.658238 0.566207 -0.121925 -0.584644 -0.493778 -0.230228 0.191224 -0.410124 -0.319964 0.379858 0.275001
internal_weight=0 1470 2030 784 910 1120 686 364 448 420 532 462 336 350 588 156 210 208 234 252 186 238 336 266 238 196 266 224 182 154
internal_count=3500 1470 2030 784 910 1120 686 364 448 420 532 462 336 350 588 156 210 208 234 252 186 238 336 266 238 196 266 224 182 154
is_linear=0
shrinkage=0.05


Tree=35
num_leaves=31
num_cat=0
split_feature=0 0 0 0 0 0 0 0 0 0 0 0 0 0 0 0 0 0 0 0 0 0 0 0 0 0 0 0 0 0
split_gain=242631 35437.3 24635.9 5252.35 3681.99 2719.59 2060.38 739.055 692.955 577.056 409.856 337.53 331.89 283.416 281.548 142.111 117.616 111.791 99.7164 79.457 69.7376 68.7122 60.8336 52.9866 50.246 33.0674 30.1788 25.3942 21.2719 6.10843
threshold=2667792.0000000005 3837971.0000000005 1467313.0000000002 4748295.5000000009 2075873.0000000002 912522.50000000012 3243402.0000000005 4276564.0000000009 5204415.0000000009 2442457.0000000005 1735573.5000000002 1131400.0000000002 3522254.5000000005 2891746.5000000005 627226.50000000012 4969663.0000000009 4565307.0000000009 3974016.0000000005 2244467.5000000005 478235.00000000006 2541673.5000000005 1955025.0000000002 1279571.5000000002 789285.00000000012 3003648.5000000005 1632019.0000000002 3655811.5000000005 1026422.0000000001 3350275.5000000005 2781968.0000000005
decision_type=2 2 2 2 2 2 2 2 2 2 2 2 2 2 2 2 2 2 2 2 2 2 2 2 2 2 2 2 2 2
left_child=2 6 5 7 10 14 13 17 15 18 25 27 28 29 19 -5 -9 -3 -6 -1 -11 -12 -13 -16 -15 -4 -14 -7 -8 -2
right_child=1 3 4 8 9 11 12 16 -10 20 21 22 26 24 23 -17 -18 -19 -20 -21 -22 -23 -24 -25 -26 -27 -28 -29 -30 -31
leaf_value=-0.57280085086822508 0.076317877194711142 0.49796627326935961 -0.31884614507950443 0.78768833417158868 -0.12924903982156327 -0.49090099198714143 0.24446403925972326 0.6484540891084638 0.99415444915111262 -0.012218514446701323 -0.22943490383593917 -0.41761047125056194 0.38997633712100133 0.14401620281594141 -0.57219324322246323 0.86801687789778426 0.72116869222986835 0.57349191381645637 -0.067937128019652196 -0.64033357145226732 0.055354786592180884 -0.17476449745396774 -0.37316818513072936 -0.53191870169980182 0.19589830227196217 -0.2791644063689524 0.34699170386456712 -0.45696478662442186 0.28055229434857565 0.097206063547304711
leaf_weight=56 70 69 140 104 126 126 70 143 91 70 182 154 70 70 196 117 91 169 140 196 84 84 154 140 140 84 98 98 98 70
leaf_count=56 70 69 140 104 126 126 70 143 91 70 182 154 70 70 196 117 91 169 140 196 84 84 154 140 140 84 98 98 98 70
internal_value=0 0.489214 -0.354258 0.718853 -0.161019 -0.511265 0.226769 0.613634 0.878031 -0.0523859 -0.254134 -0.429353 0.315209 0.141867 -0.585375 0.830215 0.676732 0.551596 -0.0969796 -0.625326 0.0246396 -0.212171 -0.395389 -0.555412 0.178604 -0.303965 0.364902 -0.476054 0.265516 0.086762
internal_weight=0 1470 2030 784 910 1120 686 472 312 420 490 532 336 350 588 221 234 238 266 252 154 266 308 336 210 224 168 224 168 140
internal_count=3500 1470 2030 784 910 1120 686 472 312 420 490 532 336 350 588 221 234 238 266 252 154 266 308 336 210 224 168 224 168 140
is_linear=0
shrinkage=0.05


Tree=36
num_leaves=31
num_cat=0
split_feature=0 0 0 0 0 0 0 0 0 0 0 0 0 0 0 0 0 0 0 0 0 0 0 0 0 0 0 0 0 0
split_gain=218975 31982.2 22234.7 4744.4 3201.5 2567.85 1859.49 731.036 575.607 520.793 346.477 310.982 300.503 275.193 255.783 124.557 102.4 97.1401 94.5517 90.4395 72.5664 65.5469 62.9382 53.588 45.347 34.4947 31.09 21.5644 12.866 5.51286
threshold=2667792.0000000005 3837971.0000000005 1481851.0000000002 4777326.0000000009 2075873.0000000002 925594.00000000012 3243402.0000000005 4340761.0000000009 5204415.0000000009 2442457.0000000005 1812641.5000000002 1212755.0000000002 3492982.0000000005 596020.00000000012 2891746.5000000005 3996588.5000000005 4969663.0000000009 478235.00000000006 4565307.0000000009 2302127.5000000005 751920.50000000012 1682535.5000000002 2541673.5000000005 1041978.5000000001 3003648.5000000005 1398057.5000000002 1975537.5000000002 3680014.0000000005 3329005.0000000005 2781968.0000000005
decision_type=2 2 2 2 2 2 2 2 2 2 2 2 2 2 2 2 2 2 2 2 2 2 2 2 2 2 2 2 2 2
left_child=2 6 5 7 10 13 14 15 16 19 21 23 28 17 29 -3 -5 -1 -9 -6 -15 -4 -11 -7 -16 -13 -12 -14 -8 -2
right_child=1 3 4 8 9 11 12 18 -10 22 26 25 27 20 24 -17 -18 -19 -20 -21 -22 -23 -24 -25 -26 -27 -28 -29 -30 -31
leaf_value=-0.54416079989501409 0.072501979512827747 0.47900412282565741 -0.2946064663651799 0.75389673329869311 -0.1143978836857492 -0.46264337683244361 0.22892554653704533 0.62259312905689601 0.94444673365944043 -0.011607587060758047 -0.20301978495267647 -0.37339833540331929 0.32701015857960652 -0.55113590713970517 0.13681539131062373 0.55322290645032135 0.82461602584037008 -0.62106049725568147 0.68811574637746586 -0.053958208874172103 -0.50811052664126055 -0.24522529602316873 0.052587050181769193 -0.41950760894521538 0.18610338427126408 -0.33162195137568884 -0.16145995202873434 0.36153422499164228 0.25896865783297285 0.09234575822949409
leaf_weight=56 70 82 168 91 168 126 56 117 91 70 126 168 98 196 70 182 117 154 104 98 196 112 84 168 140 70 70 84 98 70
leaf_count=56 70 82 168 91 168 126 56 117 91 70 126 168 98 196 70 182 117 154 104 98 196 112 84 168 140 70 70 84 98 70
internal_value=0 0.464753 -0.336545 0.68291 -0.150384 -0.483636 0.215431 0.586335 0.839563 -0.0497666 -0.239163 -0.403599 0.299448 -0.554366 0.134774 0.53017 0.793676 -0.600554 0.653427 -0.0921306 -0.529623 -0.274854 0.0234077 -0.437994 0.169674 -0.361111 -0.188177 0.342944 0.248044 0.0824239
internal_weight=0 1470 2030 784 896 1134 686 485 299 420 476 532 336 602 350 264 208 210 221 266 392 280 154 294 210 238 196 182 154 140
internal_count=3500 1470 2030 784 896 1134 686 485 299 420 476 532 336 602 350 264 208 210 221 266 392 280 154 294 210 238 196 182 154 140
is_linear=0
shrinkage=0.05


Tree=37
num_leaves=31
num_cat=0
split_feature=0 0 0 0 0 0 0 0 0 0 0 0 0 0 0 0 0 0 0 0 0 0 0 0 0 0 0 0 0 0
split_gain=197625 28863.9 20074.2 4290.17 2628.6 2588.57 1679.71 764.947 408.082 362.846 341.217 318.948 300.06 292.553 207.612 133.728 102.195 80.9822 74.3639 60.234 55.2335 53.457 49.762 48.2622 44.1811 43.6426 39.289 34.2677 19.4619 15.628
