tree
version=v4
num_class=1
num_tree_per_iteration=1
label_index=0
max_feature_idx=0
objective=regression
feature_names=Column_0
feature_infos=[442368:5415912]
tree_sizes=4228 4215 4224 4388 4137 4228 4320 4312 4236 4410 4309 4315 4328 4327 4412 4434 4264 4448 4373 4541 4555 4473 4314 4396 4482 4477 4329 4327 4666 4495 4336 4499 4264 4435 4357 4358 4434 4618 4462 4296 4645 4552 4485 4239 4481 4404 4565 4498 4253 4326 4491 4324 4239 4767 4401 4354 4469 4273 4721 4558 4451 4401 4486 4482 4479 4477 4564 4501 4479 4479 4319 4677 4399 4566 4646 4482 4401 4398 4568 4483 4569 4559 4402 4551 4569 4395 4549 4401 4629 4464 4572 4303 4481 4399 4565 4560 4394 4549 4401 4570

Tree=0
num_leaves=52
num_cat=0
split_feature=0 0 0 0 0 0 0 0 0 0 0 0 0 0 0 0 0 0 0 0 0 0 0 0 0 0 0 0 0 0 0 0 0 0 0 0 0 0 0 0 0 0 0 0 0 0 0 0 0 0 0
split_gain=7.66245e+06 981677 955549 162772 113848 101886 70774 20449.4 19241.3 18380.8 13624.7 13436.3 13421.9 12358.2 8805.6 6129.16 6112.31 4818.86 4573.33 3517.56 3340.43 3120.79 2963.24 2794.27 2706.43 2120.02 1998.16 1833.65 1683 1146.83 1042.89 3084.4 1323.72 974.296 1601.82 934.519 840.875 643.125 412.723 332.58 324.371 220.08 190.025 188.168 175.897 106.08 91.0804 78.2286 71.503 71.4584 1.50893
threshold=2891746.5000000005 1682535.5000000002 3996588.5000000005 4748295.5000000009 1007307.5000000001 2227063.0000000005 3552276.5000000005 5242418.0000000009 2541673.5000000005 1451644.5000000002 4340761.0000000009 802934.00000000012 4651688.5000000009 3215911.0000000005 5047063.0000000009 3443436.5000000005 1975537.5000000002 2145442.5000000005 2420677.5000000005 1597368.5000000002 925594.00000000012 3817801.5000000005 1887270.0000000002 1225239.0000000002 3086048.0000000005 1346249.5000000002 4218308.0000000009 1098394.5000000002 3350275.5000000005 1524251.5000000002 751920.50000000012 667626.50000000012 478235.00000000006 516694.50000000006 606334.00000000012 3655811.5000000005 2715805.0000000005 2340635.0000000005 1279571.5000000002 2806427.0000000005 4129307.5000000005 2624515.0000000005 1160592.0000000002 4932664.5000000009 4458643.5000000009 2986958.0000000005 564359.50000000012 2075873.0000000002 1812641.5000000002 849480.50000000012 1753141.5000000002
decision_type=2 2 2 2 2 2 2 2 2 2 2 2 2 2 2 2 2 2 2 2 2 2 2 2 2 2 2 2 2 2 2 2 2 2 2 2 2 2 2 2 2 2 2 2 2 2 2 2 2 2 2
left_child=1 4 6 10 11 16 13 14 18 23 26 30 44 24 43 28 22 47 37 29 49 35 48 27 45 38 40 -6 -15 -11 31 32 -1 -34 46 -8 41 -7 -25 -38 -4 -10 -29 -5 -12 -2 -35 -18 50 -13 -3
right_child=2 5 3 7 9 8 21 -9 36 19 12 20 -14 15 -16 -17 17 -19 -20 -21 -22 -23 -24 25 -26 -27 -28 42 -30 -31 -32 -33 33 34 -36 -37 39 -39 -40 -41 -42 -43 -44 -45 -46 -47 -48 -49 -50 -51 -52
leaf_value=289.7604712987968 297.98368569179945 293.7533285777867 302.60026070999311 306.3246196752695 291.33487625115259 295.51225713445382 301.13011432538713 307.61820960400479 296.70154283710463 292.45154295335499 304.29385041641405 290.57118568924494 302.31308124726684 298.95273337414153 304.97956471973464 297.99797143833553 294.67439997744356 293.48904287552836 294.75392380364582 291.83725723430086 289.89746117463403 300.0734178801406 292.94440004171645 291.59082867240903 297.3301142674855 291.1182096140044 301.99577354120424 290.59440005670274 299.66047145376888 293.05868576918527 289.0158284612383 289.96480807448404 288.85511414487019 289.48547134222304 288.99797130929858 300.60273340252468 296.28189998317356 295.94975714135143 291.97475723702564 296.62654283701067 302.92269661721031 296.98189997751371 290.84154288046699 306.08615817034377 304.0784658228277 298.17832856161453 289.66582850551606 294.51582854042732 293.62654284998348 290.71701905550276 293.77654285509243
leaf_weight=56 56 56 78 91 84 84 56 78 56 70 65 56 52 84 91 56 70 56 84 70 98 96 70 56 84 84 52 56 56 56 56 98 56 56 84 84 56 56 56 56 52 56 70 52 91 56 56 56 56 84 56
leaf_count=56 56 56 78 91 84 84 56 78 56 70 65 56 52 84 91 56 70 56 84 70 98 96 70 56 84 84 52 56 56 56 56 98 56 56 84 84 56 56 56 56 52 56 70 52 91 56 56 56 56 84 56
internal_value=296.002 292.339 301.978 304.514 290.602 294.944 299.144 306.216 295.993 291.61 303.152 289.735 303.704 298.321 305.749 298.882 293.825 294.261 295.337 292.406 290.345 300.513 293.491 291.226 297.759 291.498 302.52 290.973 299.236 292.721 289.42 289.476 289.321 289.223 289.328 300.814 296.648 295.687 291.783 296.454 302.729 296.842 290.732 306.238 304.168 298.081 289.576 294.604 293.719 290.659 293.765
internal_weight=0 2170 1330 702 1302 868 628 312 448 602 390 700 208 392 234 196 420 182 224 196 238 236 238 406 196 196 182 210 140 126 462 406 308 252 196 140 224 140 112 112 130 112 126 143 156 112 112 126 168 140 112
internal_count=3500 2170 1330 702 1302 868 628 312 448 602 390 700 208 392 234 196 420 182 224 196 238 236 238 406 196 196 182 210 140 126 462 406 308 252 196 140 224 140 112 112 130 112 126 143 156 112 112 126 168 140 112
is_linear=0
shrinkage=1


Tree=1
num_leaves=51
num_cat=0
split_feature=0 0 0 0 0 0 0 0 0 0 0 0 0 0 0 0 0 0 0 0 0 0 0 0 0 0 0 0 0 0 0 0 0 0 0 0 0 0 0 0 0 0 0 0 0 0 0 0 0 0
split_gain=6.20658e+06 795158 773995 131845 92217 82709.4 57326.9 16564 14902.5 14549.9 11036 10883.4 10871.7 10126.3 7313.49 5959.06 5779.01 4452.59 3352.29 2705.75 2540.42 2527.84 2481.69 2374.61 1984.67 2302.74 1821.69 1618.51 1485.26 1390.29 844.742 2498.36 1072.21 789.181 1297.47 756.96 426.755 430.39 331.224 269.39 262.74 246.719 209.001 176.261 153.92 147.066 142.477 73.7753 63.3651 57.8813
threshold=2891746.5000000005 1682535.5000000002 3996588.5000000005 4748295.5000000009 1007307.5000000001 2244467.5000000005 3552276.5000000005 5242418.0000000009 1430486.5000000002 2522094.5000000005 4340761.0000000009 802934.00000000012 4651688.5000000009 3193289.0000000005 5078490.0000000009 2420677.5000000005 1975537.5000000002 3443436.5000000005 3108287.5000000005 925594.00000000012 2145442.5000000005 3817801.5000000005 1845925.0000000002 1597368.5000000002 1225239.0000000002 1363669.0000000002 3350275.5000000005 4218308.0000000009 1098394.5000000002 1524251.5000000002 751920.50000000012 667626.50000000012 478235.00000000006 516694.50000000006 606334.00000000012 3655811.5000000005 2715805.0000000005 2624515.0000000005 4932664.5000000009 2806427.0000000005 4129307.5000000005 2340635.0000000005 1781436.0000000002 1279571.5000000002 1160592.0000000002 3003648.5000000005 4458643.5000000009 564359.50000000012 2075873.0000000002 849480.50000000012
decision_type=2 2 2 2 2 2 2 2 2 2 2 2 2 2 2 2 2 2 2 2 2 2 2 2 2 2 2 2 2 2 2 2 2 2 2 2 2 2 2 2 2 2 2 2 2 2 2 2 2 2
left_child=1 4 6 10 11 16 13 14 24 15 27 30 46 18 38 41 22 26 45 49 48 35 42 29 28 43 -15 40 -6 -10 31 32 -1 -34 47 -8 37 -11 -5 -38 -4 -7 -3 -26 -30 -2 -12 -35 -18 -13
right_child=2 5 3 7 8 9 21 -9 23 36 12 19 -14 17 -16 -17 20 -19 -20 -21 -22 -23 -24 -25 25 -27 -28 -29 44 -31 -32 -33 33 34 -36 -37 39 -39 -40 -41 -42 -43 -44 -45 -46 -47 -48 -49 -50 -51
leaf_value=-5.6171183586120605 1.7305956931625095 -2.0892019070330123 5.93869197062957 9.2906146877414582 -4.2001543660249032 -0.3283685771482332 4.6155599577086317 10.454845682779949 -3.2919796659123328 0.51022668123245241 7.4629224395751947 -4.8874756472451351 5.680230438709259 2.5779069651146327 7.981530438936673 -1.3539638052242144 -1.1945828746046339 1.7966314713869775 0.89734571065221513 -5.4938277266463453 -2.0093685970561848 3.6645332331691556 -2.6455624753115128 -3.7480114528111055 -3.9697970833097189 -4.6082495553152905 3.2928814172744754 5.3946534372293033 -4.866582724026272 -2.64872568164553 -6.2872972062655856 -5.4332154760555351 -6.4319401877267026 -5.8646186198507042 -6.3033684889475508 4.1409171376909528 0.25216712749430109 0.88216714433261334 8.9950544269268331 0.56234570337193357 6.2288840990800125 -0.046761420621935813 -1.8397971391677856 -3.7317734146118164 -4.6441542298453191 1.9480153066771373 7.2690763892708254 -5.7022969786609927 -1.3372971463416305 -4.7562256279445831
leaf_weight=56 70 84 78 91 84 70 56 78 84 70 65 56 52 98 78 70 70 56 56 98 70 96 98 70 56 56 56 52 56 56 56 98 56 56 84 84 56 56 65 56 52 56 56 70 70 56 91 56 56 84
leaf_count=56 70 84 78 91 84 70 56 78 84 70 65 56 52 98 78 70 70 56 56 98 70 96 98 70 56 56 56 52 56 56 56 98 56 56 84 84 56 56 65 56 52 56 56 70 70 56 91 56 56 84
internal_value=0 -3.29677 5.37894 7.66061 -4.85974 -0.952309 2.8284 9.19283 -3.95223 0.0238434 6.43485 -5.6402 6.93244 2.08707 8.77215 -0.614193 -1.92846 2.56023 1.54111 -5.09083 -1.52635 4.05976 -2.25961 -3.27246 -4.3164 -4.0747 2.8379 5.86616 -4.52587 -3.03468 -5.92321 -5.87299 -6.01291 -6.10087 -6.00628 4.33077 0.549285 0.675534 9.16746 0.407256 6.05477 -0.20321 -1.98944 -3.83756 -4.74301 1.82723 7.34985 -5.78346 -1.25801 -4.80873
internal_weight=0 2170 1330 702 1302 868 628 312 602 434 390 700 208 392 234 196 434 210 182 238 196 236 238 210 392 182 154 182 210 140 462 406 308 252 196 140 238 126 156 112 130 126 140 126 126 126 156 112 126 140
internal_count=3500 2170 1330 702 1302 868 628 312 602 434 390 700 208 392 234 196 434 210 182 238 196 236 238 210 392 182 154 182 210 140 462 406 308 252 196 140 238 126 156 112 130 126 140 126 126 126 156 112 126 140
is_linear=0
shrinkage=0.1


Tree=2
num_leaves=51
num_cat=0
split_feature=0 0 0 0 0 0 0 0 0 0 0 0 0 0 0 0 0 0 0 0 0 0 0 0 0 0 0 0 0 0 0 0 0 0 0 0 0 0 0 0 0 0 0 0 0 0 0 0 0 0
split_gain=5.02733e+06 644078 626936 106795 74695.8 67344.3 46434.8 13416.8 12621.2 12194 9080.87 8815.54 8373.39 8227.84 5923.92 4426.6 4058.98 3911.16 3340.59 2191.66 2047.55 2038.4 1904.19 1636.04 1452.69 1362.55 2620.1 1203.06 1108.53 1074.37 684.24 2023.67 868.489 639.235 1050.95 613.138 502.223 382.89 359.533 289.835 268.292 242.035 203.505 124.676 70.6729 59.7577 51.3258 46.8838 39.5843 0.198634
threshold=2891746.5000000005 1682535.5000000002 3996588.5000000005 4748295.5000000009 1007307.5000000001 2227063.0000000005 3552276.5000000005 5242418.0000000009 2522094.5000000005 1413039.0000000002 4304117.0000000009 802934.00000000012 4598764.0000000009 3215911.0000000005 5078490.0000000009 2420677.5000000005 3443436.5000000005 1975537.5000000002 2145442.5000000005 925594.00000000012 3817801.5000000005 1887270.0000000002 3086048.0000000005 1597368.5000000002 1524251.5000000002 1225239.0000000002 1346249.5000000002 1098394.5000000002 4195798.0000000009 3350275.5000000005 751920.50000000012 667626.50000000012 478235.00000000006 516694.50000000006 606334.00000000012 3655811.5000000005 4409625.0000000009 2340635.0000000005 2757616.0000000005 1279571.5000000002 4932664.5000000009 4087515.5000000005 2624515.0000000005 1160592.0000000002 2986958.0000000005 564359.50000000012 2075873.0000000002 849480.50000000012 1812641.5000000002 1753141.5000000002
decision_type=2 2 2 2 2 2 2 2 2 2 2 2 2 2 2 2 2 2 2 2 2 2 2 2 2 2 2 2 2 2 2 2 2 2 2 2 2 2 2 2 2 2 2 2 2 2 2 2 2 2
left_child=1 4 6 10 11 17 13 14 15 25 28 30 36 22 40 37 29 21 46 47 35 48 44 24 -11 27 39 -6 41 -15 31 32 -1 -34 45 -8 -12 -7 42 -27 -5 -4 -10 -29 -2 -35 -19 -13 49 -3
right_child=2 5 3 7 9 8 20 -9 38 23 12 19 -14 16 -16 -17 -18 18 -20 -21 -22 -23 -24 -25 -26 26 -28 43 -30 -31 -32 -33 33 34 -36 -37 -38 -39 -40 -41 -42 -43 -44 -45 -46 -47 -48 -49 -50 -51
leaf_value=-5.055406819842756 1.6107147272144045 -1.8146269837660449 5.5711046567329996 8.3615534855769234 -3.7801389674345653 -0.37965789976574127 4.1540040152413509 9.4093608464950176 0.45920401773282465 -3.0223225772380831 6.4200197953444267 -4.3987280130386353 5.3798868601138778 2.3981264864050207 7.1833775569231086 -1.2185674058539528 1.6169682764581272 -1.0751245552301407 -2.0604674219020778 -4.9444449447855661 3.2980799401799836 -2.4870265546866825 1.0603048992476294 -3.373210208075387 -2.3838531892214503 -3.5728174958910262 -4.2496936253138946 -4.3799246102571487 4.855390018969775 2.9635932752064296 -5.6585673740931917 -4.8898940212872564 -5.7887459482465475 -5.2781566096203676 -5.6730317249184568 3.7268253099350703 6.8095974220024367 -0.04208530001342297 0.32793852488199871 -3.251084181240627 8.0955489965585556 5.2816547305767356 0.6900694803822609 -4.1797388131277904 1.7695867965263981 -5.132067435188219 -1.2035674375881042 -4.2806030727568132 -1.9133862747677737 -1.8062043486961299
leaf_weight=56 56 56 52 91 84 84 56 78 70 98 52 56 78 84 78 70 56 70 56 98 96 70 84 70 56 56 56 56 52 56 56 98 56 56 84 84 91 56 84 56 65 65 84 70 56 56 56 84 56 56
leaf_count=56 56 56 52 91 84 84 56 78 70 98 52 56 78 84 78 70 56 70 56 98 96 70 84 70 56 56 56 56 52 56 56 98 56 56 84 84 91 56 84 56 65 65 84 70 56 56 56 84 56 56
internal_value=0 -2.96709 4.84104 6.89455 -4.37377 -0.857078 2.54556 8.27354 -0.00422055 -3.55701 5.79136 -5.07618 6.21333 1.87836 7.89494 -0.569275 2.3365 -1.76679 -1.41783 -4.58174 3.65378 -2.03365 1.42022 -2.97236 -2.79015 -3.90347 -3.6912 -4.07328 5.23956 2.62431 -5.33089 -5.28569 -5.41162 -5.49078 -5.40565 3.8977 6.66793 -0.244629 0.494357 -3.41195 8.25072 5.4103 0.585131 -4.26871 1.69015 -5.20511 -1.13221 -4.32785 -1.84474 -1.81042
internal_weight=0 2170 1330 702 1302 868 628 312 448 602 390 700 221 392 234 210 196 420 182 238 236 238 196 224 154 378 168 210 169 140 462 406 308 252 196 140 143 140 238 112 156 117 154 126 112 112 126 140 168 112
internal_count=3500 2170 1330 702 1302 868 628 312 448 602 390 700 221 392 234 210 196 420 182 238 236 238 196 224 154 378 168 210 169 140 462 406 308 252 196 140 143 140 238 112 156 117 154 126 112 112 126 140 168 112
is_linear=0
shrinkage=0.1


Tree=3
num_leaves=53
num_cat=0
split_feature=0 0 0 0 0 0 0 0 0 0 0 0 0 0 0 0 0 0 0 0 0 0 0 0 0 0 0 0 0 0 0 0 0 0 0 0 0 0 0 0 0 0 0 0 0 0 0 0 0 0 0 0
split_gain=4.07214e+06 521703 507818 86503.7 60503.6 54755.7 37612.2 11028.5 10867.6 10063.6 7380.73 7570.48 7140.58 6939.92 4827.53 3365.03 2684.77 2576.76 3351.85 2333.62 1948.67 1775.24 1689.08 1658.52 1428.92 1418.27 1278.34 1263.65 974.477 554.235 1639.18 703.477 544.252 518.345 517.781 851.272 496.642 472.303 264.434 247.43 234.766 176.605 175.127 181.087 103.263 102.396 83.0882 76.2633 57.2451 48.4038 38.9751 0.0374706
threshold=2891746.5000000005 1682535.5000000002 3996588.5000000005 4748295.5000000009 1007307.5000000001 2206268.0000000005 3552276.5000000005 2541673.5000000005 5242418.0000000009 1451644.5000000002 4340761.0000000009 4651688.5000000009 802934.00000000012 3173708.0000000005 5047063.0000000009 3086048.0000000005 3443436.5000000005 1975537.5000000002 2127943.0000000005 2420677.5000000005 1597368.5000000002 925594.00000000012 1845925.0000000002 3817801.5000000005 3350275.5000000005 1225239.0000000002 1346249.5000000002 4218308.0000000009 1098394.5000000002 751920.50000000012 667626.50000000012 478235.00000000006 1524251.5000000002 2715805.0000000005 516694.50000000006 606334.00000000012 3655811.5000000005 2340635.0000000005 4129307.5000000005 2806427.0000000005 1279571.5000000002 1781436.0000000002 4540471.5000000009 4434800.5000000009 2624515.0000000005 1173885.5000000002 4932664.5000000009 3266200.5000000005 2986958.0000000005 564359.50000000012 860550.50000000012 2054844.5000000002
decision_type=2 2 2 2 2 2 2 2 2 2 2 2 2 2 2 2 2 2 2 2 2 2 2 2 2 2 2 2 2 2 2 2 2 2 2 2 2 2 2 2 2 2 2 2 2 2 2 2 2 2 2 2
left_child=1 4 6 10 12 17 13 19 14 25 27 42 29 15 46 48 24 22 51 37 32 50 41 36 47 28 40 38 -6 30 31 -1 -11 44 -33 49 -8 -7 -4 -35 -27 -3 43 -12 -9 -30 -5 -15 -2 -36 -14 -19
right_child=2 5 3 8 9 7 23 33 -10 20 11 -13 21 16 -16 -17 -18 18 -20 -21 -22 -23 -24 -25 -26 26 -28 -29 45 -31 -32 34 -34 39 35 -37 -38 -39 -40 -41 -42 -43 -44 -45 -46 -47 -48 -49 -50 -51 -52 -53
leaf_value=-4.549866070917675 1.4496432200074196 -1.6990997390378091 4.7973605917050284 7.5253978975526579 -3.4021250270661856 -0.40192884474384538 3.7386036393897877 0.53290265926292968 8.4684252127622948 -2.5637241205147334 6.0245043131021356 4.5742185371999557 -3.9478308922052388 2.1310879209012326 6.5360648478780483 0.571742485676493 1.4552714314843929 -1.0047549561198268 -1.9504574882132666 -0.92479100826950311 -3.0358892062732155 -4.4500006344853622 -2.1486932599270832 2.968271918781102 2.6672339354242602 -3.2155356818011835 -3.5868180365789506 4.3305333100832426 -3.9224701447997776 -5.0927107036113739 -4.4009044532873194 -5.2098713568278718 -2.145467891657193 0.17605003927435195 -4.7503411171691763 -5.1057284976754875 3.3541429689952302 -0.037876769474574495 5.0884869300402134 0.4733173191547394 -2.9259757559214319 -1.4698379050141999 6.1173098940115711 5.7605937004089363 0.72494349522250046 -3.7410507696015496 7.3669394493103031 1.9660518710501493 1.5926281253674202 -4.6188607496874674 -3.8423048115628107 -1.0010967635815697
leaf_weight=56 56 84 78 91 84 98 56 56 78 70 52 52 70 56 91 56 56 56 56 84 70 98 98 96 56 56 84 52 70 56 98 56 56 56 56 84 84 56 52 56 56 56 52 52 56 56 52 56 56 56 70 56
leaf_count=56 56 84 78 91 84 98 56 56 78 70 52 52 70 56 91 56 56 56 56 84 70 98 98 96 56 56 84 52 70 56 98 56 56 56 56 84 84 56 52 56 56 56 52 52 56 56 52 56 56 56 70 56
internal_value=0 -2.67038 4.35694 6.2051 -3.93639 -0.77137 2.291 -0.0268152 7.44619 -3.20131 5.21223 5.61916 -4.56856 1.69052 7.10544 1.20467 2.05491 -1.61862 -1.31877 -0.500809 -2.61285 -4.12357 -1.83028 3.28841 2.25479 -3.48539 -3.29193 4.74716 -3.66595 -4.7978 -4.75712 -4.87046 -2.37783 0.476803 -4.9417 -4.86508 3.50793 -0.269546 4.91381 0.324684 -3.07076 -1.6074 5.96747 5.89255 0.628923 -3.84184 7.46778 2.04857 1.52114 -4.6846 -3.89507 -1.00293
internal_weight=0 2170 1330 702 1302 868 628 462 312 602 390 208 700 392 234 168 224 406 168 238 196 238 238 236 168 406 196 182 210 462 406 308 126 224 252 196 140 154 130 112 112 140 156 104 112 126 143 112 112 112 140 112
internal_count=3500 2170 1330 702 1302 868 628 462 312 602 390 208 700 392 234 168 224 406 168 238 196 238 238 236 168 406 196 182 210 462 406 308 126 224 252 196 140 154 130 112 112 140 156 104 112 126 143 112 112 112 140 112
is_linear=0
shrinkage=0.1


Tree=4
num_leaves=50
num_cat=0
split_feature=0 0 0 0 0 0 0 0 0 0 0 0 0 0 0 0 0 0 0 0 0 0 0 0 0 0 0 0 0 0 0 0 0 0 0 0 0 0 0 0 0 0 0 0 0 0 0 0 0
split_gain=3.29843e+06 422580 411333 70068 49007.9 44394.8 30465.9 8802.79 8202.68 7793.37 6128.74 5984.96 5783.87 5623.66 3983.07 3392.89 2981.55 2633.66 2097.26 1591.66 1437.95 1403.47 1343.4 1113.09 903.661 848.744 1841.7 789.327 768.333 671.628 448.93 1327.73 569.817 419.402 689.531 402.28 340.334 283.447 223.221 190.16 162.376 143.521 120.591 104.512 85.3723 39.207 31.9532 26.4225 25.1426
threshold=2891746.5000000005 1682535.5000000002 3996588.5000000005 4748295.5000000009 1007307.5000000001 2244467.5000000005 3552276.5000000005 5242418.0000000009 1413039.0000000002 2522094.5000000005 4304117.0000000009 4598764.0000000009 802934.00000000012 3193289.0000000005 5078490.0000000009 2420677.5000000005 1975537.5000000002 3415108.0000000005 3108287.5000000005 2145442.5000000005 925594.00000000012 1887270.0000000002 3817801.5000000005 1597368.5000000002 1524251.5000000002 1225239.0000000002 1346249.5000000002 1098394.5000000002 4195798.0000000009 3329005.0000000005 751920.50000000012 667626.50000000012 478235.00000000006 516694.50000000006 606334.00000000012 3655811.5000000005 4409625.0000000009 2757616.0000000005 4087515.5000000005 1279571.5000000002 4932664.5000000009 3003648.5000000005 2624515.0000000005 2340635.0000000005 1160592.0000000002 564359.50000000012 849480.50000000012 2075873.0000000002 1781436.0000000002
decision_type=2 2 2 2 2 2 2 2 2 2 2 2 2 2 2 2 2 2 2 2 2 2 2 2 2 2 2 2 2 2 2 2 2 2 2 2 2 2 2 2 2 2 2 2 2 2 2 2 2
left_child=1 4 6 10 12 16 13 14 25 15 28 36 30 18 40 43 21 29 41 47 46 48 35 24 -10 27 39 -6 38 -15 31 32 -1 -34 45 -8 -12 42 -4 -27 -5 -2 -11 -7 -29 -35 -14 -18 -3
right_child=2 5 3 7 8 9 22 -9 23 37 11 -13 20 17 -16 -17 19 -19 -20 -21 -22 -23 -24 -25 -26 26 -28 44 -30 -31 -32 -33 33 34 -36 -37 -38 -39 -40 -41 -42 -43 -44 -45 -46 -47 -48 -49 -50
leaf_value=-4.0948793028082164 1.2454632275870869 -1.5291898069637162 4.5342582643032072 6.7728585589063037 -3.061912412302835 -0.21737303618873868 3.3647431609886036 7.6215824322822776 -2.434486626970525 0.38914719281452048 5.2179167099583612 4.3330397994090353 -3.5640722155570987 1.9456546119281226 5.8114335364256151 -1.004231586115701 -0.86720976484673362 1.37325470539076 0.6054227839357087 -1.5028965794188638 -4.0050005529608041 -2.0234546227114545 2.6714447021547434 -2.7323003467065949 -1.9309209904234326 -2.8939821551953044 -3.4660423615149094 -3.5496851239885601 3.9178487931879666 2.3927445752812284 -4.5834396166460856 -3.9608141605951346 -4.6888841695551369 -4.2753068349191121 -4.5951557091304229 3.0187285502751671 5.5386162778833414 0.25772184034188589 4.2562856690700235 -2.6333781559818559 6.5659177295978255 1.4602464868021865 0.5668646337020965 -0.034089079446026259 -3.384031586476735 -4.1569746323994234 -3.4665536612272265 -0.95936699387883506 -1.4518184662929603
leaf_weight=56 70 84 52 91 84 70 56 78 98 70 52 78 56 84 78 70 70 70 56 70 98 70 96 70 56 56 56 56 52 56 56 98 56 56 84 84 91 84 65 56 65 56 84 56 70 56 84 56 84
leaf_count=56 70 84 52 91 84 70 56 78 98 70 52 78 56 84 78 70 70 70 56 70 98 70 96 70 56 56 56 56 52 56 56 98 56 56 84 84 91 84 65 56 65 56 84 56 70 56 84 56 84
internal_value=0 -2.40334 3.92124 5.58459 -3.54275 -0.694233 2.0619 6.70157 -2.88118 0.0209315 4.691 5.03766 -4.1117 1.52147 6.3949 -0.446027 -1.4094 1.87408 1.11461 -1.12057 -3.71121 -1.64725 2.95957 -2.40166 -2.25137 -3.16533 -2.9978 -3.29936 4.23768 2.12449 -4.31802 -4.28141 -4.38341 -4.44753 -4.37858 3.15713 5.422 0.405486 4.37983 -2.76368 6.68663 1.34092 0.486084 -0.135913 -3.45766 -4.21614 -3.50556 -0.908169 -1.4905
internal_weight=0 2170 1330 702 1302 868 628 312 602 434 390 221 700 392 234 196 434 210 182 196 238 238 236 224 154 378 168 210 169 140 462 406 308 252 196 140 143 238 117 112 156 126 154 126 126 112 140 126 168
internal_count=3500 2170 1330 702 1302 868 628 312 602 434 390 221 700 392 234 196 434 210 182 196 238 238 236 224 154 378 168 210 169 140 462 406 308 252 196 140 143 238 117 112 156 126 154 126 126 112 140 126 168
is_linear=0
shrinkage=0.1


Tree=5
num_leaves=51
num_cat=0
split_feature=0 0 0 0 0 0 0 0 0 0 0 0 0 0 0 0 0 0 0 0 0 0 0 0 0 0 0 0 0 0 0 0 0 0 0 0 0 0 0 0 0 0 0 0 0 0 0 0 0 0
split_gain=2.67173e+06 342290 333180 56755.1 39696.4 36490.8 24677.4 7216.14 7130.26 6729.1 4964.28 4917.64 4723.4 4684.94 3226.28 2411.88 1917.91 1586.15 2426.84 1459.43 1193.76 1172.44 1164.74 1088.15 903.058 1075.74 721.066 622.349 593.299 559.694 363.634 1075.46 461.551 351.869 339.716 558.52 325.847 264.796 225.584 224.245 180.809 143.425 132.523 131.524 44.1602 35.4865 31.7577 26.5965 25.2127 0.291552
threshold=2891746.5000000005 1682535.5000000002 3996588.5000000005 4748295.5000000009 1007307.5000000001 2206268.0000000005 3552276.5000000005 2563457.0000000005 5242418.0000000009 1451644.5000000002 4304117.0000000009 4651688.5000000009 3173708.0000000005 802934.00000000012 5078490.0000000009 3086048.0000000005 3415108.0000000005 1975537.5000000002 2127943.0000000005 1581855.5000000002 2420677.5000000005 1845925.0000000002 925594.00000000012 3817801.5000000005 1240007.0000000002 1363669.0000000002 3329005.0000000005 4195798.0000000009 2715805.0000000005 1098394.5000000002 751920.50000000012 667626.50000000012 478235.00000000006 4540471.5000000009 516694.50000000006 606334.00000000012 3655811.5000000005 2340635.0000000005 1511550.0000000002 2806427.0000000005 4087515.5000000005 1188704.5000000002 1781436.0000000002 4932664.5000000009 4434800.5000000009 2986958.0000000005 564359.50000000012 860550.50000000012 1297692.0000000002 2054844.5000000002
decision_type=2 2 2 2 2 2 2 2 2 2 2 2 2 2 2 2 2 2 2 2 2 2 2 2 2 2 2 2 2 2 2 2 2 2 2 2 2 2 2 2 2 2 2 2 2 2 2 2 2 2
left_child=1 4 6 10 13 17 12 20 14 24 27 33 15 30 43 45 26 21 49 38 37 42 47 36 29 48 -14 40 -9 -6 31 32 -1 44 -34 46 -8 -7 -11 -30 -4 -31 -3 -5 -12 -2 -36 -15 -26 -19
right_child=2 5 3 8 9 7 23 28 -10 19 11 -13 16 22 -16 -17 -18 18 -20 -21 -22 -23 -24 -25 25 -27 -28 -29 39 41 -32 -33 34 -35 35 -37 -38 -39 -40 -41 -42 -43 -44 -45 -46 -47 -48 -49 -50 -51
leaf_value=-3.6853913888335228 1.180132581293583 -1.3762708248127076 4.0808323126572832 6.0955723793952021 -2.7557211736838028 -0.30326942056417466 3.0282689230001001 0.59563277169149753 6.8594242193760016 -2.0174744554928372 4.7543102293748118 3.6834928015103707 1.7036480264700189 -3.1985909857068746 5.2302900057572588 0.43265536039003305 1.2359292391368322 -0.8175585114530155 -1.6187103274544434 -2.426958634314083 -0.65060834843589344 -1.7478109638605799 -3.6045004423479647 2.404300267652919 -2.5151444490466801 -2.9674230171952929 2.1534701540001802 3.5260639771819116 0.11721571482318854 -3.1648729410465983 -4.1250956874872955 -3.5647326683815646 -4.2199957787990572 5.011996235211309 -3.8477761864662172 -4.1356400740288555 2.716855801996731 -0.030680158734321596 -1.7336331997598924 0.40021337515541489 3.830657118467184 -2.9582670756748746 -1.1776722437302982 5.909325932722826 4.6306727675291208 1.2927102865917344 -3.7412771889141632 -3.1114188216413772 -2.4202522704643865 -0.80735431695689597
leaf_weight=56 56 84 52 91 84 98 56 98 78 56 65 52 98 70 78 56 70 56 56 84 98 98 98 96 56 70 56 52 56 84 56 98 56 52 56 84 84 56 56 56 65 56 56 65 52 56 56 70 56 56
leaf_count=56 56 84 52 91 84 98 56 98 78 56 65 52 98 70 78 56 70 56 56 84 98 98 98 96 56 70 56 52 56 84 56 98 56 52 56 84 84 56 56 56 65 56 56 65 52 56 56 70 56 56
internal_value=0 -2.16301 3.52912 5.02613 -3.18848 -0.62481 1.85571 -0.0169915 6.03141 -2.59306 4.2219 4.53389 1.36932 -3.70053 5.75541 0.968499 1.66994 -1.31646 -1.08121 -2.11187 -0.37777 -1.48253 -3.34009 2.66361 -2.82536 -2.6599 1.86722 3.81391 0.415943 -2.95979 -3.88622 -3.85327 -3.94507 4.79556 -4.00278 -3.94072 2.84142 -0.204146 -1.87555 0.258715 3.94185 -3.08223 -1.29683 6.01797 4.69936 1.23642 -3.79453 -3.155 -2.4677 -0.812456
internal_weight=0 2170 1330 702 1302 868 628 462 312 602 390 221 392 700 234 168 224 406 168 196 252 238 238 236 406 182 154 169 210 224 462 406 308 169 252 196 140 154 112 112 117 140 140 156 117 112 112 140 112 112
internal_count=3500 2170 1330 702 1302 868 628 462 312 602 390 221 392 700 234 168 224 406 168 196 252 238 238 236 406 182 154 169 210 224 462 406 308 169 252 196 140 154 112 112 117 140 140 156 117 112 112 140 112 112
is_linear=0
shrinkage=0.1


Tree=6
num_leaves=52
num_cat=0
split_feature=0 0 0 0 0 0 0 0 0 0 0 0 0 0 0 0 0 0 0 0 0 0 0 0 0 0 0 0 0 0 0 0 0 0 0 0 0 0 0 0 0 0 0 0 0 0 0 0 0 0 0
split_gain=2.1641e+06 277255 269875 45971.6 32154.1 29557.5 19988.7 6053.93 5775.51 5541.79 4088.76 4727.72 3831.73 3794.8 2652.61 2088.65 2038.74 1284.78 1965.74 1048.28 965.65 962.903 943.437 881.404 804.422 532.075 1355.48 523.023 504.766 306.248 294.543 877.699 319.942 336.667 265.106 263.936 235.023 234.945 205.165 131.767 131.059 116.426 76.9703 62.2125 58.1301 57.3636 41.3247 25.7239 21.775 21.1526 0.236157
threshold=2891746.5000000005 1682535.5000000002 3996588.5000000005 4748295.5000000009 1007307.5000000001 2206268.0000000005 3552276.5000000005 2522094.5000000005 5242418.0000000009 1413039.0000000002 4340761.0000000009 4598764.0000000009 3215911.0000000005 802934.00000000012 5047063.0000000009 2442457.0000000005 3415108.0000000005 1975537.5000000002 2127943.0000000005 3108287.5000000005 1887270.0000000002 4218308.0000000009 925594.00000000012 3817801.5000000005 1581855.5000000002 1225239.0000000002 1346249.5000000002 1098394.5000000002 1511550.0000000002 4129307.5000000005 751920.50000000012 690923.50000000012 478235.00000000006 516694.50000000006 606334.00000000012 3655811.5000000005 3329005.0000000005 2757616.0000000005 2360009.0000000005 3003648.5000000005 1279571.5000000002 2283998.5000000005 4850289.5000000009 2667792.0000000005 1160592.0000000002 646333.00000000012 4486776.0000000009 564359.50000000012 849480.50000000012 1767260.5000000002 2054844.5000000002
decision_type=2 2 2 2 2 2 2 2 2 2 2 2 2 2 2 2 2 2 2 2 2 2 2 2 2 2 2 2 2 2 2 2 2 2 2 2 2 2 2 2 2 2 2 2 2 2 2 2 2 2 2
left_child=1 4 6 10 13 17 12 15 14 25 21 46 19 30 42 38 36 20 50 39 49 29 48 35 28 27 40 -6 -11 -4 31 32 -1 -34 47 -8 -14 43 41 -2 -27 -7 -5 -9 -29 -36 -12 -35 -15 -3 -19
right_child=2 5 3 8 9 7 23 37 -10 24 11 -13 16 22 -16 -17 -18 18 -20 -21 -22 -23 -24 -25 -26 26 -28 44 -30 -31 -32 -33 33 34 45 -37 -38 -39 -40 -41 -42 -43 -44 -45 -46 -47 -48 -49 -50 -51 -52
leaf_value=-3.3168523533003675 1.0006520633825235 -1.1622695346176624 3.4737204430195003 5.3514000085683975 -2.4801490619069053 -0.18831059423142249 2.7254419653543405 0.36122349981142554 6.1734819620083545 -1.9478623059179103 4.4258469068087072 3.4871031388258324 1.663272154586656 -2.8878060098205296 4.7578071680697773 -0.91731900732432092 1.1123363033362799 -0.735802653006145 -1.4568392783403397 0.60946920395961834 -1.6463280746234314 3.0898808153704387 -3.2440504308865998 2.1638702311087399 -2.1842628217878799 -2.3419914254120417 -2.8363751581736976 -2.8782293464456288 -1.5602698306153928 3.7870196762566382 -3.712586127008711 -3.1458105074082106 -3.7979963424482515 -3.4629986827926977 -3.7042189989771162 2.445170128984111 1.9381231551723823 0.20136158895634471 -0.055842434268976962 1.2064522089702745 -2.1256427402342006 -0.39222392415893931 5.5039130968051957 0.49335062724671197 -2.7415374074450565 -3.5610861672354597 4.5409342283239731 -3.3671493648418358 -2.8073035298004037 -1.2342433449565149 -0.72661886699497702
leaf_weight=56 70 70 78 52 84 56 56 98 78 84 78 78 70 56 91 56 70 56 56 70 70 52 98 96 84 56 56 56 56 52 56 70 56 56 56 84 56 84 56 56 56 56 91 56 70 56 52 56 84 98 56
leaf_count=56 70 70 78 52 84 56 56 98 78 84 78 78 70 56 91 56 70 56 56 70 70 52 98 96 84 56 56 56 56 52 56 70 56 56 56 84 56 84 56 56 56 56 91 56 70 56 52 56 84 98 56
internal_value=0 -1.94671 3.17621 4.52352 -2.86963 -0.562329 1.67014 -0.0152923 5.42827 -2.33375 3.79971 4.10259 1.23239 -3.33048 5.17987 -0.388424 1.54504 -1.18482 -0.973087 0.919744 -1.33428 3.45357 -3.00608 2.39725 -1.93961 -2.56732 -2.43467 -2.67343 -1.79283 3.59904 -3.49759 -3.46794 -3.53505 -3.57869 -3.52386 2.55728 1.78543 0.33589 -0.212126 1.09212 -2.23382 -0.290267 5.44845 0.40927 -2.80229 -3.63265 4.47188 -3.41507 -2.8395 -1.20425 -0.731211
internal_weight=0 2170 1330 702 1302 868 628 462 312 602 390 208 392 700 234 224 196 406 168 196 238 182 238 236 224 378 168 210 140 130 462 406 336 280 224 140 126 238 168 126 112 112 143 154 126 112 130 112 140 168 112
internal_count=3500 2170 1330 702 1302 868 628 462 312 602 390 208 392 700 234 224 196 406 168 196 238 182 238 236 224 378 168 210 140 130 462 406 336 280 224 140 126 238 168 126 112 112 143 154 126 112 130 112 140 168 112
is_linear=0
shrinkage=0.1


Tree=7
num_leaves=52
num_cat=0
split_feature=0 0 0 0 0 0 0 0 0 0 0 0 0 0 0 0 0 0 0 0 0 0 0 0 0 0 0 0 0 0 0 0 0 0 0 0 0 0 0 0 0 0 0 0 0 0 0 0 0 0 0
split_gain=1.75292e+06 224596 218599 37237 25123.2 24967.1 16190.8 4903.68 4678.16 4109.8 3462.12 4911.81 3292.49 3073.79 2167.37 1785.06 1750.72 1333.14 1195.28 1592.25 944.107 861.023 764.183 713.938 663.104 574.321 437.222 937.433 563.51 381.672 537.666 294.795 238.58 739.955 307.995 217.385 384.043 213.788 198.618 203.059 195.182 191.402 151.007 111.219 106.76 98.791 83.3373 20.8363 20.6534 18.1514 0.191286
threshold=2891746.5000000005 1667042.0000000002 3996588.5000000005 4748295.5000000009 2206268.0000000005 1007307.5000000001 3552276.5000000005 2522094.5000000005 5242418.0000000009 1413039.0000000002 4390093.5000000009 4598764.0000000009 3173708.0000000005 802934.00000000012 5078490.0000000009 3086048.0000000005 2420677.5000000005 3443436.5000000005 1975537.5000000002 2127943.0000000005 1597368.5000000002 3350275.5000000005 925594.00000000012 3817801.5000000005 1887270.0000000002 1524251.5000000002 1201793.5000000002 1346249.5000000002 1098394.5000000002 4276564.0000000009 4087515.5000000005 1266813.5000000002 751920.50000000012 667626.50000000012 478235.00000000006 516694.50000000006 606334.00000000012 3655811.5000000005 2715805.0000000005 2806427.0000000005 3266200.5000000005 2340635.0000000005 4172670.0000000005 2624515.0000000005 4486776.0000000009 4932664.5000000009 1781436.0000000002 564359.50000000012 2986958.0000000005 860550.50000000012 2054844.5000000002
decision_type=2 2 2 2 2 2 2 2 2 2 2 2 2 2 2 2 2 2 2 2 2 2 2 2 2 2 2 2 2 2 2 2 2 2 2 2 2 2 2 2 2 2 2 2 2 2 2 2 2 2 2
left_child=1 5 6 10 18 13 12 16 14 26 29 44 15 32 45 48 41 21 24 50 25 40 49 37 46 -11 28 31 -7 30 -4 -28 33 34 -1 -36 47 -8 43 -40 -14 -6 -32 -9 -12 -5 -3 -37 -2 -15 -20
right_child=2 4 3 8 7 9 23 38 -10 20 11 -13 17 22 -16 -17 -18 -19 19 -21 -22 -23 -24 -25 -26 -27 27 -29 -30 -31 42 -33 -34 -35 35 36 -38 -39 39 -41 -42 -43 -44 -45 -46 -47 -48 -49 -50 -51 -52
leaf_value=-2.9851670535547394 0.96205411212784908 -1.1821787944101558 3.3253771974490243 4.9443390531854314 -0.24537226580919658 -2.2321341446467811 2.4528977790049145 0.30439650334417823 5.5561335759285173 -1.7769548009852973 4.2894772367981764 3.1383928178212583 1.4729176440409253 -2.5915613968883244 4.2314802707769941 0.31351833365791082 -0.76424522783075066 0.93759226309401655 -0.66222236837992188 -1.311155331129807 -2.1104481330939704 1.8211471902738727 -2.919645229164435 1.9474831551313401 -1.481695265557085 -1.3755056977272035 -2.2137417129107884 -2.5527376728398461 -2.5851007838638465 3.3756622280065827 3.0520534873008729 -1.92352255327361 -3.3413275437695642 -2.8818132669341807 -3.4181966900825502 -3.1166988577161518 -3.3564253158512574 2.2006531207317797 0.070758519640990669 0.34005586198930232 1.2088951406202146 -0.013618374456252372 2.8110563246103433 0.49347068216385587 4.0868407723995359 4.7829241563723635 -1.0464404316175553 -3.030434434754508 1.0479390178407941 -2.5195466920307705 -0.65395699356283465
leaf_weight=56 56 98 52 91 98 84 56 70 78 98 52 78 56 70 78 56 70 56 56 56 56 56 98 96 70 56 70 56 98 52 52 70 56 98 56 56 84 84 56 56 56 56 52 56 52 65 84 56 56 70 56
leaf_count=56 56 98 52 91 98 84 56 70 78 98 52 78 56 70 78 56 70 56 56 56 56 56 98 96 70 56 70 56 98 52 52 70 56 98 56 56 84 84 56 56 56 56 52 56 52 65 84 56 56 70 56
internal_value=0 -1.75204 2.85859 4.07116 -0.522633 -2.59391 1.50313 -0.0137631 4.88544 -2.11353 3.41974 3.73826 1.10915 -2.99743 4.66188 0.774504 -0.349582 1.36014 -1.08239 -0.875778 -1.75883 1.50099 -2.70547 2.15752 -1.22013 -1.63097 -2.31058 -2.20695 -2.42219 3.14104 3.06283 -2.06863 -3.14783 -3.12115 -3.1973 -3.24444 -3.19479 2.30155 0.302301 0.205407 1.34091 -0.161098 2.93155 0.388429 4.18816 4.87708 -1.11953 -3.07357 1.005 -2.55555 -0.65809
internal_weight=0 2170 1330 702 882 1288 628 462 312 588 390 182 392 700 234 168 224 224 420 168 210 168 238 236 252 154 378 196 182 208 156 140 462 406 308 252 196 140 238 112 112 154 104 126 104 156 182 112 112 140 112
internal_count=3500 2170 1330 702 882 1288 628 462 312 588 390 182 392 700 234 168 224 224 420 168 210 168 238 236 252 154 378 196 182 208 156 140 462 406 308 252 196 140 238 112 112 154 104 126 104 156 182 112 112 140 112
is_linear=0
shrinkage=0.1


Tree=8
num_leaves=51
num_cat=0
split_feature=0 0 0 0 0 0 0 0 0 0 0 0 0 0 0 0 0 0 0 0 0 0 0 0 0 0 0 0 0 0 0 0 0 0 0 0 0 0 0 0 0 0 0 0 0 0 0 0 0 0
split_gain=1.41987e+06 182098 177065 30162 21051.9 19492.2 13178.2 3789.31 3680.24 3467.03 2880.33 2804.31 3978.57 2489.77 1769.24 1473.83 1656.89 1445.9 1353.46 1183.12 1067.38 1020.99 898.124 815.447 705.785 618.989 472.538 814.315 381.198 352.824 307.694 304.182 227.546 198.743 492.164 291.449 188.374 179.954 164.478 135.022 263.106 98.4368 97.4835 86.4756 71.0065 64.911 36.7301 16.7292 14.8368 5.37942
threshold=2891746.5000000005 1682535.5000000002 3996588.5000000005 4748295.5000000009 1007307.5000000001 2244467.5000000005 3585573.5000000005 5242418.0000000009 1451644.5000000002 2563457.0000000005 3173708.0000000005 4390093.5000000009 4598764.0000000009 802934.00000000012 5047063.0000000009 3466926.5000000005 3369171.5000000005 3086048.0000000005 3285461.0000000005 1975537.5000000002 2145442.5000000005 2420677.5000000005 1581855.5000000002 3817801.5000000005 1845925.0000000002 925594.00000000012 1240007.0000000002 1376904.5000000002 2715805.0000000005 4218308.0000000009 1098394.5000000002 4129307.5000000005 3680014.0000000005 635683.00000000012 751920.50000000012 478235.00000000006 1315939.5000000002 690923.50000000012 2806427.0000000005 516694.50000000006 596020.00000000012 1781436.0000000002 1511550.0000000002 4486776.0000000009 4850289.5000000009 1188704.5000000002 2321341.5000000005 2986958.0000000005 849480.50000000012 2054844.5000000002
decision_type=2 2 2 2 2 2 2 2 2 2 2 2 2 2 2 2 2 2 2 2 2 2 2 2 2 2 2 2 2 2 2 2 2 2 2 2 2 2 2 2 2 2 2 2 2 2 2 2 2 2
left_child=1 4 6 11 13 19 10 14 26 21 17 29 43 33 44 16 18 47 -12 24 49 46 42 32 41 48 30 36 -11 31 -6 -4 -8 35 37 -1 -28 -35 -30 -37 -41 -3 -10 -13 -5 -32 -7 -2 -15 -21
right_child=2 5 3 7 8 9 23 -9 22 28 15 12 -14 25 -16 -17 -18 -19 -20 20 -22 -23 -24 -25 -26 -27 27 -29 38 -31 45 -33 -34 34 -36 39 -38 -39 -40 40 -42 -43 -44 -45 -46 -47 -48 -49 -50 -51
leaf_value=-2.6866504956568993 0.86584873952503727 -1.0029993276244829 2.8029213997416011 4.3218259252034699 -2.0089207902905488 -0.0060305576239313395 2.2898411352719581 5.0005203959269409 -1.4432452529668809 0.45492819442736859 1.4678892111778259 3.8605295074673798 2.8245535495189524 -2.3398691694252194 3.8510006105506811 0.7892410982932363 1.8284824008388179 0.28216649341796124 0.8083140740437168 -0.59600015122975625 -1.0599265052803926 -0.49676029046579284 -1.7825119266197795 1.7527348596602679 -1.2844371977509286 -2.6276807777735653 -1.9116436476366863 -2.2605834911178269 0.063682665037257336 2.65879323177565 -2.3066091015934944 3.1151622042059901 2.0193973466753961 -2.7697976455518178 -3.007194761772241 -3.0763769845877373 -1.6655768159776927 -2.5430480194091798 0.30605029995952338 -2.7962453328225081 -3.0679635963269645 -0.83183666036597315 -1.256656078728182 3.6781567105880151 4.468311468782006 -2.1676171932901656 -0.11468648995671954 0.94314510811652463 -2.2734182508928433 -0.55441771456173494
leaf_weight=56 56 84 78 52 84 56 56 78 56 98 70 52 78 56 91 56 56 56 56 56 70 98 84 96 98 98 70 56 56 78 84 52 70 70 56 56 56 70 56 98 56 56 56 52 91 56 70 56 84 70
leaf_count=56 56 84 78 52 84 56 56 78 56 98 70 52 78 56 91 56 56 56 56 56 70 98 84 96 98 98 70 56 56 78 84 52 70 70 56 56 56 70 56 98 56 56 56 52 91 56 70 56 84 70
internal_value=0 -1.57683 2.57273 3.66405 -2.32479 -0.454896 1.35281 4.3969 -1.89119 0.0189856 1.01408 3.07777 3.36443 -2.69769 4.19569 1.23786 1.37589 0.697053 1.17474 -0.928778 -0.746837 -0.25468 -1.53533 1.9723 -1.07861 -2.43493 -2.06298 -1.9433 0.310895 2.82693 -2.16023 2.92782 2.13959 -2.83305 -2.75664 -2.88935 -1.80228 -2.65642 0.184866 -2.94341 -2.89505 -0.934534 -1.34995 3.76934 4.41504 -2.25101 -0.066395 0.904497 -2.3 -0.572899
internal_weight=0 2170 1330 702 1302 868 628 312 602 434 406 390 182 700 234 238 182 168 126 434 196 224 196 222 238 238 406 182 210 208 224 130 126 462 196 266 126 140 112 210 154 140 112 104 143 140 126 112 140 126
internal_count=3500 2170 1330 702 1302 868 628 312 602 434 406 390 182 700 234 238 182 168 126 434 196 224 196 222 238 238 406 182 210 208 224 130 126 462 196 266 126 140 112 210 154 140 112 104 143 140 126 112 140 126
is_linear=0
shrinkage=0.1


Tree=9
num_leaves=53
num_cat=0
split_feature=0 0 0 0 0 0 0 0 0 0 0 0 0 0 0 0 0 0 0 0 0 0 0 0 0 0 0 0 0 0 0 0 0 0 0 0 0 0 0 0 0 0 0 0 0 0 0 0 0 0 0 0
split_gain=1.15023e+06 155464 136094 24431.2 16342.5 14393.1 12402.6 3069.34 2834.14 2773.96 2554.53 2367.26 2414.99 2016.71 1457.03 1436.79 1300.68 1000.15 721.891 1137.25 703.601 1880.54 686.163 501.381 496.602 465.521 463.73 450.617 400.179 368.371 337.15 872.819 291.337 249.232 209.995 160.982 398.652 236.074 150.565 156.713 145.763 125.16 114.323 109.368 213.116 75.7008 54.2895 53.7377 53.6585 12.3897 7.61693 0.0301346
threshold=2830993.5000000005 3996588.5000000005 1667042.0000000002 4748295.5000000009 1007307.5000000001 2206268.0000000005 3552276.5000000005 5242418.0000000009 3215911.0000000005 1413039.0000000002 2522094.5000000005 4276564.0000000009 4651688.5000000009 802934.00000000012 5078490.0000000009 3415108.0000000005 2442457.0000000005 4390093.5000000009 1975537.5000000002 2127943.0000000005 3900113.5000000005 3788617.5000000005 1597368.5000000002 925594.00000000012 3108287.5000000005 4087515.5000000005 1887270.0000000002 2715805.0000000005 1524251.5000000002 3003648.5000000005 1346249.5000000002 1240007.0000000002 4486776.0000000009 1098394.5000000002 3655811.5000000005 635683.00000000012 751920.50000000012 478235.00000000006 2360009.0000000005 2283998.5000000005 690923.50000000012 3329005.0000000005 4172670.0000000005 516694.50000000006 596020.00000000012 4932664.5000000009 2624515.0000000005 1781436.0000000002 1173885.5000000002 860550.50000000012 2914411.0000000005 2054844.5000000002
decision_type=2 2 2 2 2 2 2 2 2 2 2 2 2 2 2 2 2 2 2 2 2 2 2 2 2 2 2 2 2 2 2 2 2 2 2 2 2 2 2 2 2 2 2 2 2 2 2 2 2 2 2 2
left_child=2 6 4 11 13 18 8 14 24 30 16 25 17 35 45 41 38 -13 26 51 21 34 28 49 29 -3 47 46 -11 50 31 33 -19 -6 -8 37 40 -1 39 -7 -37 -10 -27 -39 -45 -5 -12 -4 -35 -15 -2 -20
right_child=1 3 5 7 9 10 20 -9 15 22 27 12 -14 23 -16 -17 -18 32 19 -21 -22 -23 -24 -25 -26 42 -28 -29 -30 -31 -32 -33 -34 48 -36 36 -38 43 -40 -41 -42 -43 -44 44 -46 -47 -48 -49 -50 -51 -52 -53
leaf_value=-2.4179853424429893 0.63354275066937715 2.7125472832184574 -0.95252506443280349 4.0114444961034499 -1.808028675260998 -0.091644452192953654 2.0161389700004033 4.5004681832133198 1.2450885838163752 -1.4342478321218977 0.2665315769825663 2.7722165923852189 2.3701385660813403 -2.0997473374647755 3.4232322839590221 0.76917857732091632 -0.69948657240186429 3.4744765448742188 -0.53640011240329055 -1.086684908983963 2.0685492981639171 1.1753399022189635 -1.7211521691509657 -2.3649126994366547 0.39514893267835893 2.4509438872337341 -1.2050820235695159 0.0087977054715156558 -1.0991431159632545 0.92158356202500213 -2.1011558652988502 -1.5863948426684555 3.1688998900544951 -2.0878203268295952 1.7563344867527484 -2.4928179495675225 -2.7064752881548237 -2.7687392128365382 -0.0091101955622434616 -0.32822229500327793 -2.2887433054191724 1.4456625798451048 2.2412528854150042 -2.5166207816071657 -2.7611672816465478 3.8701468063547062 0.39863080901226833 -0.84352605131765213 -1.9640018759135689 -2.0402502005440848 0.58138595074415211 -0.53311950886355974
leaf_weight=56 56 52 98 91 84 56 56 78 70 98 70 52 52 70 78 70 56 52 56 56 54 56 56 98 70 52 70 70 56 56 56 98 78 70 70 70 56 56 56 56 70 56 52 98 56 65 56 84 70 70 56 56
leaf_count=56 56 52 98 91 84 56 56 78 70 98 70 52 52 70 78 70 56 52 56 56 54 56 56 98 70 52 70 70 56 56 56 98 78 70 70 70 56 56 56 56 70 56 52 98 56 65 56 84 70 70 56 56
internal_value=0 2.25771 -1.45563 3.29764 -2.10145 -0.465362 1.1681 3.95721 0.850832 -1.7128 -0.0514228 2.76999 2.97115 -2.42792 3.77612 1.13243 -0.282116 3.14287 -0.879302 -0.718735 1.75156 1.65751 -1.42139 -2.19143 0.618929 2.46825 -0.986347 0.212226 -1.31239 0.712171 -1.87469 -1.83531 3.29113 -1.94421 1.8718 -2.54975 -2.48098 -2.60042 -0.142992 -0.209933 -2.39078 1.33423 2.3461 -2.64906 -2.60555 3.95257 0.325242 -0.902218 -2.02591 -2.07 0.607464 -0.53476
internal_weight=0 1372 2128 702 1288 840 670 312 434 588 420 390 234 700 234 196 224 182 420 168 236 182 210 238 238 156 252 196 154 168 378 322 130 224 126 462 196 266 168 112 140 126 104 210 154 156 126 182 140 140 112 112
internal_count=3500 1372 2128 702 1288 840 670 312 434 588 420 390 234 700 234 196 224 182 420 168 236 182 210 238 238 156 252 196 154 168 378 322 130 224 126 462 196 266 168 112 140 126 104 210 154 156 126 182 140 140 112 112
is_linear=0
shrinkage=0.1


Tree=10
num_leaves=52
num_cat=0
split_feature=0 0 0 0 0 0 0 0 0 0 0 0 0 0 0 0 0 0 0 0 0 0 0 0 0 0 0 0 0 0 0 0 0 0 0 0 0 0 0 0 0 0 0 0 0 0 0 0 0 0 0
split_gain=932153 119575 116003 20019 14325.9 12178.1 8737.85 2621.01 2565.44 2257.3 1958.96 1925.87 1863.7 2327.07 1633.54 1183.91 1339.06 1264.95 1093.59 761.903 685.357 628.466 828.442 638.118 622.89 561.765 406.118 316.197 524.542 338.871 312.182 305.371 302.328 297.788 287.12 140.214 130.395 322.908 191.22 124.468 118.068 88.588 172.624 61.5662 57.0951 34.3707 10.1078 7.21809 5.76003 5.53417 3.66558
threshold=2891746.5000000005 1700267.5000000002 3996588.5000000005 4823958.5000000009 1007307.5000000001 2244467.5000000005 3585573.5000000005 1451644.5000000002 4390093.5000000009 2563457.0000000005 4696264.0000000009 3173708.0000000005 5242418.0000000009 4932664.5000000009 802934.00000000012 3466926.5000000005 3369171.5000000005 3285461.0000000005 3086048.0000000005 2420677.5000000005 5125060.5000000009 1975537.5000000002 2145442.5000000005 1845925.0000000002 3817801.5000000005 1581855.5000000002 925594.00000000012 1201793.5000000002 1376904.5000000002 1131400.0000000002 2757616.0000000005 4218308.0000000009 1315939.5000000002 4129307.5000000005 4565307.0000000009 3680014.0000000005 635683.00000000012 751920.50000000012 478235.00000000006 1070688.5000000002 690923.50000000012 516694.50000000006 596020.00000000012 1767260.5000000002 1511550.0000000002 2321341.5000000005 849480.50000000012 2054844.5000000002 2986958.0000000005 1253374.5000000002 2667792.0000000005
decision_type=2 2 2 2 2 2 2 2 2 2 2 2 2 2 2 2 2 2 2 2 2 2 2 2 2 2 2 2 2 2 2 2 2 2 2 2 2 2 2 2 2 2 2 2 2 2 2 2 2 2 2
left_child=1 4 6 8 14 21 11 27 31 19 34 18 13 -5 36 16 17 -13 48 45 -15 23 47 43 35 44 46 29 32 39 50 33 49 -4 -10 -8 38 40 -1 -6 -38 -40 -43 -3 -9 -7 -16 -23 -2 -29 -11
right_child=2 5 3 12 7 9 24 25 10 30 -12 15 -14 20 26 -17 -18 -19 -20 -21 -22 22 -24 -25 -26 -27 -28 28 -30 -31 -32 -33 -34 -35 -36 -37 37 -39 41 -41 -42 42 -44 -45 -46 -47 -48 -49 -50 -51 -52
leaf_value=-2.1761868608849393 0.71982133777013857 -0.62743043576899382 2.2600946352267877 4.0449201748921322 -1.7677019712648221 0.015565836003848485 1.8657382118382626 -1.1554959448320525 2.8566463599984466 0.3351769052871636 2.3178876847366783 1.2305890201883658 4.0504214124801834 3.0982478469610215 -1.8959075054952077 0.60222510240439864 1.5348920920065472 0.59294509547097352 0.2012740886637143 -0.41459865391596545 3.5533449246333202 -0.48276011023138254 -0.88506700481687273 -1.0458154558527226 1.4096843721965948 -1.4119394481600245 -2.1284214234169649 -1.6214415321924858 -1.8577549190393516 -1.9427581177439011 0.10155329244832199 2.1333910027375587 -1.3146415851478066 2.5690362004133371 3.131826119010265 1.6534440658294729 -2.2435361123085023 -2.435827684402466 -2.4918653477515496 -1.556863394379616 -2.0598689302376338 -2.2649587151955588 -2.4850505924650603 -0.76810433516544963 -1.0126985571746316 -0.089542330609900619 -1.8410597882455304 -0.4345926882539477 0.76517717348677783 -1.5769837982952595 0.36950214835149903
leaf_weight=56 56 56 78 52 56 56 56 56 91 70 65 70 78 91 56 56 56 56 56 98 52 56 70 98 96 98 98 56 56 70 84 78 56 52 65 70 70 56 56 56 70 98 56 70 56 70 84 70 56 56 56
leaf_count=56 56 56 78 52 56 56 56 56 91 70 65 70 78 91 56 56 56 56 56 98 52 56 70 98 96 98 98 56 56 70 84 78 56 52 65 70 70 56 56 56 70 98 56 70 56 70 84 70 56 56 56
internal_value=0 -1.27763 2.08456 2.96788 -1.87562 -0.356143 1.09715 -1.5239 2.54188 0.0153411 2.77912 0.82132 3.6373 3.47205 -2.18513 1.00431 1.12802 0.947192 0.562091 -0.205477 3.26374 -0.74001 -0.609238 -0.854434 1.60159 -1.23709 -1.97229 -1.67225 -1.59271 -1.77016 0.250881 2.28982 -1.50436 2.38367 2.9713 1.7478 -2.29477 -2.23288 -2.34037 -1.66228 -2.1517 -2.38416 -2.34499 -0.705583 -1.0841 -0.0428276 -1.863 -0.456 0.742499 -1.59921 0.350433
internal_weight=0 2170 1330 702 1316 854 628 616 429 434 221 406 273 195 700 238 182 126 168 224 143 420 196 224 222 210 238 406 224 182 210 208 168 130 156 126 462 196 266 112 140 210 154 126 112 126 140 126 112 112 126
internal_count=3500 2170 1330 702 1316 854 628 616 429 434 221 406 273 195 700 238 182 126 168 224 143 420 196 224 222 210 238 406 224 182 210 208 168 130 156 126 462 196 266 112 140 210 154 126 112 126 140 126 112 112 126
is_linear=0
shrinkage=0.1


Tree=11
num_leaves=52
num_cat=0
split_feature=0 0 0 0 0 0 0 0 0 0 0 0 0 0 0 0 0 0 0 0 0 0 0 0 0 0 0 0 0 0 0 0 0 0 0 0 0 0 0 0 0 0 0 0 0 0 0 0 0 0 0
split_gain=755335 101804 89304.5 16568.5 10676.9 9508.92 8483.25 1933.06 1865.87 1670.01 1616.37 1970.4 1323.17 1272.57 1069.62 997.936 911.611 1279.33 830.58 663.024 556.64 1632.97 528.478 518.849 849.786 678.411 405.673 373.39 328.956 292.814 608.015 187.373 148.176 140.159 128.364 118.842 105.62 261.556 162.855 98.3244 95.6348 93.3018 91.9636 86.4887 51.2934 47.1431 42.9704 29.2463 23.6466 11.1733 8.45835
threshold=2830993.5000000005 3996588.5000000005 1667042.0000000002 4748295.5000000009 1007307.5000000001 2206268.0000000005 3392407.5000000005 5242418.0000000009 1413039.0000000002 2522094.5000000005 4276564.0000000009 4598764.0000000009 802934.00000000012 5078490.0000000009 3585573.5000000005 2420677.5000000005 3173708.0000000005 3285461.0000000005 4390093.5000000009 3086048.0000000005 3900113.5000000005 3788617.5000000005 1581855.5000000002 1917543.0000000002 1845925.0000000002 2127943.0000000005 4087515.5000000005 2715805.0000000005 925594.00000000012 1346249.5000000002 1240007.0000000002 1098394.5000000002 1511550.0000000002 2032500.5000000002 3680014.0000000005 1781436.0000000002 635683.00000000012 751920.50000000012 528232.50000000012 2986958.0000000005 690923.50000000012 4969663.0000000009 2340635.0000000005 4172670.0000000005 4486776.0000000009 1160592.0000000002 478235.00000000006 596020.00000000012 2624515.0000000005 4850289.5000000009 860550.50000000012
decision_type=2 2 2 2 2 2 2 2 2 2 2 2 2 2 2 2 2 2 2 2 2 2 2 2 2 2 2 2 2 2 2 2 2 2 2 2 2 2 2 2 2 2 2 2 2 2 2 2 2 2 2
left_child=2 6 4 10 12 23 16 13 29 15 26 18 36 41 -8 42 19 -18 -12 39 21 34 32 24 35 33 -3 48 50 30 31 -6 -10 -25 -16 -4 38 40 46 -2 -38 49 -7 -28 -20 -33 -1 -40 -11 -5 -14
right_child=1 3 5 7 8 9 14 -9 22 27 11 -13 28 -15 20 -17 17 -19 44 -21 -22 -23 -24 25 -26 -27 43 -29 -30 -31 -32 45 -34 -35 -36 -37 37 -39 47 -41 -42 -43 -44 -45 -46 -47 -48 -49 -50 -51 -52
leaf_value=-1.9585682128156936 0.52255399868804575 2.215283093085656 -0.7701053567382754 3.2135343594619865 -1.4574835706103062 -0.14358762423602903 1.0447845871351205 3.6453792127279137 -1.1214284689653489 0.23635174930095673 2.2816559441602577 1.9924076697001092 -1.7012787943014076 2.740744436780612 1.6791643961731877 -0.54054366505571783 1.1075301166517393 0.50294642856078486 2.8413642346858978 0.1811466760401215 1.720725965941394 0.9107435244002513 -1.3739480638504029 -0.40723818256741479 -1.158593715567674 -0.90077156403235026 1.9643929628225472 -0.012955335144485748 -1.9155792577154174 -1.7324204664677383 -1.2769173428720357 -1.717472292110324 -0.91142867657222926 -0.59883260641779212 1.4650512124810902 -0.58748995837356366 -2.0191824749537877 -2.1922449389472605 -2.143248917375292 0.68865947832486463 -1.8538820429997784 3.3448117729562981 0.017055176198482513 1.782006297568576 2.7009069848519105 -1.5990210473271353 -2.0760922702827624 -2.2365455492266588 0.32353376464119982 3.1479796308737535 -1.6521191487993514
leaf_weight=56 98 52 98 52 84 98 98 78 84 70 52 78 70 78 56 70 70 70 52 56 54 56 70 84 56 56 52 70 98 56 98 56 56 70 56 56 70 56 84 56 70 52 56 52 52 84 70 56 56 52 70
leaf_count=56 98 52 98 52 84 98 98 78 84 70 52 78 70 78 56 70 70 70 52 56 54 56 70 84 56 56 52 70 98 56 98 56 56 70 56 56 70 56 84 56 70 52 56 52 52 84 70 56 56 52 70
internal_value=0 1.82955 -1.17958 2.67109 -1.70274 -0.377404 0.947819 3.21425 -1.3886 -0.0409498 2.23656 2.40279 -1.96662 3.07054 1.31996 -0.227476 0.607579 0.805238 2.60798 0.475807 1.44143 1.35165 -1.1496 -0.713858 -0.825005 -0.602712 1.98723 0.172223 -1.77506 -1.52137 -1.48467 -1.57556 -1.03743 -0.494327 1.57211 -0.7037 -2.06529 -2.00959 -2.10634 0.582956 -1.93653 3.23544 -0.0851721 1.8732 2.77114 -1.6464 -2.02386 -2.18057 0.275099 3.18076 -1.6767
internal_weight=0 1372 2128 702 1288 840 670 312 588 420 390 234 700 234 320 224 350 140 156 210 222 168 210 420 210 210 156 196 238 378 322 224 140 154 112 154 462 196 266 154 140 156 154 104 104 140 126 140 126 104 140
internal_count=3500 1372 2128 702 1288 840 670 312 588 420 390 234 700 234 320 224 350 140 156 210 222 168 210 420 210 210 156 196 238 378 322 224 140 154 112 154 462 196 266 154 140 156 154 104 104 140 126 140 126 104 140
is_linear=0
shrinkage=0.1


Tree=12
num_leaves=52
num_cat=0
split_feature=0 0 0 0 0 0 0 0 0 0 0 0 0 0 0 0 0 0 0 0 0 0 0 0 0 0 0 0 0 0 0 0 0 0 0 0 0 0 0 0 0 0 0 0 0 0 0 0 0 0 0
split_gain=611968 78515.8 75997.3 13435.6 9360.56 8036.24 5800.17 1750.72 1718.35 1449.62 1680.6 1436.59 1238.98 1071.76 866.39 809.652 611.213 575.756 1097.9 614.295 461.635 407.601 328.595 286.502 757.009 591.434 274.126 495.235 266.454 237.179 492.492 182.885 178.066 172.415 151.772 126.876 113.184 184.523 105.264 104.342 173.506 162.523 211.86 84.3135 78.2245 77.4642 70.0559 46.8953 38.1859 31.7592 6.8848
threshold=2891746.5000000005 1700267.5000000002 3996588.5000000005 4777326.0000000009 1007307.5000000001 2206268.0000000005 3392407.5000000005 1413039.0000000002 2522094.5000000005 4276564.0000000009 4670355.5000000009 5242418.0000000009 5047063.0000000009 802934.00000000012 3585573.5000000005 2442457.0000000005 4565307.0000000009 3215911.0000000005 3307197.5000000005 3108287.5000000005 3817801.5000000005 4458643.5000000009 4087515.5000000005 1937395.5000000002 1866767.5000000002 2127943.0000000005 1632019.0000000002 1543196.0000000002 925594.00000000012 1346249.5000000002 1240007.0000000002 1481851.0000000002 2032500.5000000002 2757616.0000000005 1098394.5000000002 4898748.0000000009 2360009.0000000005 2283998.5000000005 3003648.5000000005 506703.50000000006 553173.50000000012 635683.00000000012 751920.50000000012 1767260.5000000002 3680014.0000000005 690923.50000000012 4172670.0000000005 2667792.0000000005 1160592.0000000002 596020.00000000012 849480.50000000012
decision_type=2 2 2 2 2 2 2 2 2 2 2 2 2 2 2 2 2 2 2 2 2 2 2 2 2 2 2 2 2 2 2 2 2 2 2 2 2 2 2 2 2 2 2 2 2 2 2 2 2 2 2
left_child=1 4 6 9 13 23 17 29 15 22 16 12 35 39 -8 36 21 19 -19 38 44 -11 -4 24 43 32 27 31 50 30 34 -9 -25 47 -6 -5 37 -7 -2 -1 -41 49 45 -3 -16 -43 -24 -10 -36 -42 -15
right_child=2 5 3 11 7 8 14 26 33 10 -12 -13 -14 28 20 -17 -18 18 -20 -21 -22 -23 46 25 -26 -27 -28 -29 -30 -31 -32 -33 -34 -35 48 -37 -38 -39 -40 40 41 42 -44 -45 -46 -47 -48 -49 -50 -51 -52
leaf_value=-1.9503546631761961 0.52688446606908534 -0.48767685698611402 1.9937547014309811 3.0785509116374534 -1.3117351971211888 -0.024646188744476865 0.9403061311159816 -0.96609812464032851 0.20230861999550642 2.3334430053338902 1.6727544171592363 3.2808413511667496 2.4986585338692091 -1.5361889399588109 1.5112479451378542 -0.53402368652501275 2.6061733037233354 1.073996438831091 0.44781146392758403 0.23916400456002782 1.1320800654900571 1.9824785934044766 1.7679536936374811 -0.31339212758200508 -1.0177532337206816 -0.81069439426064493 -1.2164812442181367 -0.75481784173420507 -1.7240213023156536 -1.5591784453817779 -1.1492256191236023 -1.221668428182602 -0.53894934462649491 0.065918027130620824 -1.5457250793065345 2.8809683233384904 0.021115928090044433 -0.28135855219193867 0.71082694275038583 -1.6721909701824189 -1.9063895425626212 -1.8172642282077245 -1.9730204750384606 -0.64608551572476125 1.352680685669184 -1.6684938573996935 1.6038056092480055 0.317022992843496 -1.4391189621317955 -2.012890988322241 -1.4909225213917949
leaf_weight=98 70 56 52 65 84 56 98 56 98 91 52 78 91 56 56 56 52 56 56 70 96 52 52 70 56 56 56 70 98 56 98 56 70 84 56 65 56 56 56 56 56 70 56 84 70 70 52 56 84 56 84
leaf_count=98 70 56 52 65 84 56 98 56 98 91 52 78 91 56 56 56 52 56 56 70 96 52 52 70 56 56 56 70 98 56 98 56 70 84 56 65 56 56 56 56 56 70 56 84 70 70 52 56 84 56 84
internal_value=0 -1.0352 1.68902 2.40398 -1.51977 -0.288502 0.889806 -1.23546 -0.00593605 2.02715 2.17788 2.91188 2.78166 -1.76995 1.18796 -0.204728 2.31258 0.580036 0.760904 0.476682 1.29728 2.20582 1.7885 -0.621526 -0.707017 -0.536035 -1.023 -0.963473 -1.59756 -1.36923 -1.3362 -1.09388 -0.426171 0.181162 -1.418 2.97976 -0.0949629 -0.153002 0.608637 -1.85876 -1.83411 -1.86355 -1.80863 -0.582722 1.42316 -1.74288 1.68588 0.244023 -1.48176 -1.95964 -1.50903
internal_weight=0 2170 1330 702 1316 854 628 616 462 403 247 299 221 700 320 224 195 308 112 196 222 143 156 392 196 196 238 182 238 378 322 112 140 238 224 130 168 112 126 462 364 308 196 140 126 140 104 154 140 112 140
internal_count=3500 2170 1330 702 1316 854 628 616 462 403 247 299 221 700 320 224 195 308 112 196 222 143 156 392 196 196 238 182 238 378 322 112 140 238 224 130 168 112 126 462 364 308 196 140 126 140 104 154 140 112 140
is_linear=0
shrinkage=0.1


Tree=13
num_leaves=52
num_cat=0
split_feature=0 0 0 0 0 0 0 0 0 0 0 0 0 0 0 0 0 0 0 0 0 0 0 0 0 0 0 0 0 0 0 0 0 0 0 0 0 0 0 0 0 0 0 0 0 0 0 0 0 0 0
split_gain=496062 66651.4 58632 11121.4 7002.81 6142 5511.05 1383.58 1392.03 1238.87 1061.54 924.554 2878.28 871.549 788.034 687.944 628.121 973.616 612.536 945.956 556.166 509.42 477.094 452.893 422.519 345.724 612.321 454.635 288.28 285.627 242.635 192.643 182.962 417.539 166.299 112.149 99.7331 99.2466 87.9618 87.5678 84.5173 140.539 131.644 171.607 77.8137 66.4591 62.746 47.9056 30.9306 25.7249 16.4558
threshold=2830993.5000000005 3996588.5000000005 1667042.0000000002 4823958.5000000009 996987.00000000012 2206268.0000000005 3392407.5000000005 4304117.0000000009 4696264.0000000009 1413039.0000000002 2522094.5000000005 5152199.0000000009 5047063.0000000009 3900113.5000000005 802934.00000000012 2420677.5000000005 3173708.0000000005 3285461.0000000005 3788617.5000000005 3585573.5000000005 4565307.0000000009 3086048.0000000005 4932664.5000000009 1581855.5000000002 4458643.5000000009 1917543.0000000002 1845925.0000000002 2127943.0000000005 2715805.0000000005 938758.00000000012 4195798.0000000009 888538.50000000012 1346249.5000000002 1240007.0000000002 5279793.0000000009 1511550.0000000002 2032500.5000000002 1098394.5000000002 1781436.0000000002 3680014.0000000005 506703.50000000006 553173.50000000012 635683.00000000012 751920.50000000012 4087515.5000000005 2340635.0000000005 690923.50000000012 2986958.0000000005 1160592.0000000002 596020.00000000012 2624515.0000000005
decision_type=2 2 2 2 2 2 2 2 2 2 2 2 2 2 2 2 2 2 2 2 2 2 2 2 2 2 2 2 2 2 2 2 2 2 2 2 2 2 2 2 2 2 2 2 2 2 2 2 2 2 2
left_child=2 6 4 7 14 25 16 30 20 32 15 12 22 18 40 45 21 -18 19 -8 24 47 -5 35 -9 26 38 36 50 31 44 -16 33 37 -13 -11 -27 -6 -4 -21 -1 -42 49 46 -3 -7 -44 -2 -39 -43 -12
right_child=1 3 5 11 9 10 13 8 -10 23 28 34 -14 -15 29 -17 17 -19 -20 39 -22 -23 -24 -25 -26 27 -28 -29 -30 -31 -32 -33 -34 -35 -36 -37 -38 48 -40 -41 41 42 43 -45 -46 -47 -48 -49 -50 -51 -52
leaf_value=-1.7553191982969947 0.43736586804900857 1.7943792971280907 -0.62124116657567885 3.0210757659031797 -1.2023745783965807 -0.1157622896286906 0.84627554066935373 2.1522292545208566 1.5900832060667185 -0.90415682633008287 0.19248571402193715 3.008325254229399 1.8956998273730279 1.4354453653649049 -1.4527493271900684 -0.44418973863124855 0.92277076423168192 0.39534694854702268 0.70094612879412521 1.36012313919408 2.3632837889744684 0.12732405142326439 2.5927093412583839 -1.1426049132006511 1.7842307452685557 -0.32343581346794964 -0.95025071549628459 -0.72962496196851134 -0.028295804336667063 -1.6118233196650236 1.4435886751000699 -1.2202456185860295 -1.4032606024827277 -1.0343030520239656 2.7683982856457052 -0.72146150640078954 -0.48505440396921973 -1.3911525593804461 -0.4641323962781046 1.1832780020577569 -1.5049718978681736 -1.715750582835504 -1.6355377994690625 -1.7757183841296607 1.6302588542608114 0.020799908574138368 -1.5016444736719132 0.5533093851059675 -1.2952070632505985 -1.8116018482616969 0.26521380185981153
leaf_weight=98 98 52 98 52 98 98 98 78 65 84 70 52 52 54 98 70 70 70 56 56 65 56 52 70 52 84 56 56 70 70 52 56 56 98 65 56 70 56 56 56 56 56 70 56 65 56 70 56 84 56 56
leaf_count=98 98 52 98 52 98 98 98 78 65 84 70 52 52 54 98 70 70 70 56 56 65 56 52 70 52 84 56 56 70 70 52 56 56 98 65 56 70 56 56 56 56 56 70 56 65 56 70 56 84 56 56
internal_value=0 1.48266 -0.955928 2.16358 -1.37983 -0.305948 0.769221 1.84607 1.99086 -1.13092 -0.0355427 2.66253 2.50316 1.06916 -1.59826 -0.184255 0.494987 0.659059 0.994806 1.07317 2.12445 0.385606 2.80689 -0.934921 2.00503 -0.576354 -0.667081 -0.485626 0.134415 -1.44433 1.62332 -1.3682 -1.23592 -1.20802 2.87503 -0.831079 -0.396899 -1.27956 -0.564111 1.2717 -1.67289 -1.6507 -1.67719 -1.62777 1.7032 -0.0661033 -1.56859 0.479527 -1.33359 -1.76368 0.224809
internal_weight=0 1372 2128 702 1288 840 670 429 260 602 420 273 156 320 686 224 350 140 266 210 195 210 104 210 130 420 210 210 196 224 169 154 392 336 117 140 154 238 154 112 462 364 308 196 117 154 140 154 140 112 126
internal_count=3500 1372 2128 702 1288 840 670 429 260 602 420 273 156 320 686 224 350 140 266 210 195 210 104 210 130 420 210 210 196 224 169 154 392 336 117 140 154 238 154 112 462 364 308 196 117 154 140 154 140 112 126
is_linear=0
shrinkage=0.1


Tree=14
num_leaves=53
num_cat=0
split_feature=0 0 0 0 0 0 0 0 0 0 0 0 0 0 0 0 0 0 0 0 0 0 0 0 0 0 0 0 0 0 0 0 0 0 0 0 0 0 0 0 0 0 0 0 0 0 0 0 0 0 0 0
split_gain=401810 53987.7 47593.3 9290.43 6648.93 4463.95 4055.12 1051.46 893.603 868.123 805.545 1606.26 710.501 705.954 688.061 638.308 561.203 533.717 768.841 519.713 496.154 766.224 494.43 397.732 377.508 358.292 345.001 239.377 223.084 220.554 525.332 454.074 202.034 160.137 148.199 338.207 84.1077 82.0267 159.033 81.5814 161.361 78.159 70.9299 69.2683 162.346 225.195 53.7027 51.8412 46.4997 44.1104 27.3472 2.84814
threshold=2830993.5000000005 3996588.5000000005 1543196.0000000002 4748295.5000000009 2206268.0000000005 3392407.5000000005 996987.00000000012 5242418.0000000009 5078490.0000000009 2563457.0000000005 4276564.0000000009 4598764.0000000009 4390093.5000000009 3900113.5000000005 1700267.5000000002 802934.00000000012 1632019.0000000002 3215911.0000000005 3307197.5000000005 2482116.0000000005 3788617.5000000005 3585573.5000000005 2377410.5000000005 1413039.0000000002 2302127.5000000005 3108287.5000000005 2715805.0000000005 925594.00000000012 4087515.5000000005 1975537.5000000002 2108582.0000000005 1887270.0000000002 3003648.5000000005 1481851.0000000002 1346249.5000000002 1240007.0000000002 4898748.0000000009 478235.00000000006 516694.50000000006 1131400.0000000002 1070688.5000000002 1767260.5000000002 3680014.0000000005 751920.50000000012 667626.50000000012 606334.00000000012 564359.50000000012 2914411.0000000005 4172670.0000000005 1188704.5000000002 4486776.0000000009 849480.50000000012
decision_type=2 2 2 2 2 2 2 2 2 2 2 2 2 2 2 2 2 2 2 2 2 2 2 2 2 2 2 2 2 2 2 2 2 2 2 2 2 2 2 2 2 2 2 2 2 2 2 2 2 2 2 2
left_child=2 5 6 10 14 17 15 8 36 19 28 12 -12 20 16 37 -4 25 -19 22 21 -7 24 34 -6 32 -11 51 -3 31 -31 41 47 -25 35 39 -5 -1 -39 40 -8 -16 -23 44 45 46 -40 -2 -30 -41 -14 -17
right_child=1 3 4 7 9 13 23 -9 -10 26 11 -13 50 -15 29 27 -18 18 -20 -21 -22 42 -24 33 -26 -27 -28 -29 48 30 -32 -33 -34 -35 -36 -37 -38 38 43 49 -42 -43 -44 -45 -46 -47 -48 -49 -50 -51 -52 -53
leaf_value=-1.3921440036701305 0.43046851009130482 1.6149413750721859 -0.58192129262856074 2.4595738286391282 -0.036177618503570562 0.76164798943363898 -1.1976208926098688 2.6719185907107135 1.9716029215699589 0.26520538798400334 1.6226390814551941 1.3686654463314858 2.1266347020864487 1.2919008642986969 -0.37678506363715447 -1.2372950954229704 -1.0066408266978604 0.8875053144459214 0.3634956109204463 -0.41804317329078916 0.63085150032171189 1.2241108400481089 0.1404756163060665 -0.77907261720725474 -0.3845189995531525 0.17069733719740596 -0.025466230852263318 -1.43335770778358 1.4281323834035833 -0.26599425907645907 -0.62467632272413809 -0.77819717173065461 0.59506295043975121 -1.0182206758431025 -1.2629345206277711 -0.93087274453469693 2.3127198966649867 -1.6777149822030748 -1.5057596948529994 -1.2764573320214239 -0.96987989425126997 -0.52488091671649284 1.0649502392326082 -1.5981465356956637 -1.371708072250595 -1.6531149549321051 -1.3672695493059499 0.29439966487033026 1.2943994220059654 -1.1509434859002274 2.024076634874711 -1.208180495316074
leaf_weight=56 56 52 70 78 70 98 70 78 78 98 52 78 52 54 56 56 56 56 56 56 56 56 70 56 56 70 70 84 52 98 70 70 56 56 56 98 78 56 56 56 56 98 56 56 98 84 56 56 52 56 52 84
leaf_count=56 56 52 70 78 70 98 70 78 78 98 52 78 52 54 56 56 56 56 56 56 56 56 70 56 56 70 70 84 52 98 70 70 56 56 56 98 78 56 56 56 56 98 56 56 98 84 56 56 52 56 52 84
internal_value=0 1.3344 -0.860335 1.94723 -0.327664 0.692299 -1.28021 2.35395 2.24797 -0.0319884 1.62184 1.73919 1.92445 0.962248 -0.5674 -1.43843 -0.770686 0.445489 0.6255 -0.149375 0.895326 0.965852 -0.0726133 -1.06484 -0.190996 0.360777 0.144092 -1.2999 1.44582 -0.502058 -0.415445 -0.567018 0.439977 -0.898647 -1.11232 -1.08722 2.38615 -1.5056 -1.52125 -1.1516 -1.0964 -0.471028 1.14453 -1.49621 -1.4768 -1.52934 -1.43651 0.362434 1.36127 -1.2137 2.07536 -1.21983
internal_weight=0 1372 2128 702 938 670 1190 312 234 420 390 234 156 320 518 686 126 350 112 252 266 210 196 504 126 238 168 224 156 392 168 224 168 112 392 336 156 462 406 238 126 154 112 350 294 196 112 112 104 112 104 140
internal_count=3500 1372 2128 702 938 670 1190 312 234 420 390 234 156 320 518 686 126 350 112 252 266 210 196 504 126 238 168 224 156 392 168 224 168 112 392 336 156 462 406 238 126 154 112 350 294 196 112 112 104 112 104 140
is_linear=0
shrinkage=0.1


Tree=15
num_leaves=53
num_cat=0
split_feature=0 0 0 0 0 0 0 0 0 0 0 0 0 0 0 0 0 0 0 0 0 0 0 0 0 0 0 0 0 0 0 0 0 0 0 0 0 0 0 0 0 0 0 0 0 0 0 0 0 0 0 0
split_gain=325732 41747.2 40565.6 5408.26 5103.67 4703.8 4565.83 904.308 947.146 898.907 880.793 836.827 784.295 723.627 695.662 672.906 2157.98 667.651 1530.33 526.011 517.029 416.929 364.681 352.917 987.69 316.786 612.446 469.812 251.865 235.013 594.755 208.201 193.895 188.692 172.513 108.937 66.8205 121.882 107.493 118.629 66.006 65.1288 163.151 130.702 60.6102 43.7318 37.5796 25.0161 13.2639 13.0579 4.93002 2.30698
threshold=2891746.5000000005 1667042.0000000002 4152315.5000000005 4823958.5000000009 3552276.5000000005 2244467.5000000005 996987.00000000012 4696264.0000000009 4565307.0000000009 3900113.5000000005 4062006.5000000005 1451644.5000000002 2522094.5000000005 3788617.5000000005 2420677.5000000005 5152199.0000000009 5047063.0000000009 3215911.0000000005 3415108.0000000005 1581855.5000000002 802934.00000000012 3108287.5000000005 4932664.5000000009 4247043.5000000009 4390093.5000000009 1917543.0000000002 2168887.0000000005 1845925.0000000002 3329005.0000000005 1376904.5000000002 1315939.5000000002 5279793.0000000009 925594.00000000012 3655811.5000000005 2781968.0000000005 2054844.5000000002 506703.50000000006 553173.50000000012 635683.00000000012 751920.50000000012 1781436.0000000002 1201793.5000000002 1131400.0000000002 1070688.5000000002 3003648.5000000005 2321341.5000000005 690923.50000000012 2667792.0000000005 1511550.0000000002 596020.00000000012 1253374.5000000002 849480.50000000012
decision_type=2 2 2 2 2 2 2 2 2 2 2 2 2 2 2 2 2 2 2 2 2 2 2 2 2 2 2 2 2 2 2 2 2 2 2 2 2 2 2 2 2 2 2 2 2 2 2 2 2 2 2 2
left_child=1 6 4 7 17 25 20 8 23 13 -11 29 14 33 45 16 22 21 28 48 36 44 -5 -4 -25 27 35 40 -19 30 41 -17 51 -6 47 -27 -1 -38 49 46 -3 42 43 -8 -2 -7 -40 -14 -13 -39 -43 -22
right_child=2 5 3 15 9 12 11 -9 -10 10 -12 19 34 -15 -16 31 -18 18 -20 -21 32 -23 -24 24 -26 26 -28 -29 -30 -31 -32 -33 -34 -35 -36 -37 37 38 39 -41 -42 50 -44 -45 -46 -47 -48 -49 -50 -51 -52 -53
leaf_value=-1.4283341162058774 0.39597922027111054 -0.50132700784930162 1.7652722775363008 2.4766822136365452 1.1366152370614666 0.067570782239740113 -1.0778587423052108 1.2287538654987629 1.9769806542763346 1.3849013343523509 0.87100221491776986 -0.63813484002436915 0.15375208339216759 0.56776634066232612 -0.39147756047546867 2.4928245437259857 1.5004416680106751 0.69213052911417827 0.23543013061795914 -0.9531635243126324 -1.1135656022599765 0.15362761599676952 2.1021664059506011 1.1667314001230094 1.6771131676631972 -0.35616896480930094 -0.66271658108702736 -0.79007176273568935 0.9766590569700514 -1.1855519433106696 -0.66572179335552006 2.2243666187616493 -1.2900219660074939 0.89034098795482086 -0.00048593359334128249 -0.20097669060563758 -1.1995998523065023 -1.4039863069142615 -1.3179288300446101 -1.4383319217711688 -0.36523108965318118 -0.93819260852677488 -1.1771720466443472 -0.87289192506245206 0.53555664047598839 -0.05099001852529389 -1.2143091639450621 0.23202332479613169 -0.56930825609181612 -1.4722763491528374 -0.98015356489590233 -1.0873625045376165
leaf_weight=98 70 98 52 52 56 56 70 65 65 93 52 56 98 56 70 52 52 70 70 70 56 70 52 65 91 98 56 56 56 56 56 65 84 70 70 84 56 56 70 56 56 56 70 56 56 70 70 70 56 56 56 84
leaf_count=98 70 98 52 52 56 56 70 65 65 93 52 56 98 56 70 52 52 70 70 70 56 70 52 65 91 98 56 56 56 56 56 65 84 70 70 84 56 56 70 56 56 56 70 56 56 70 70 70 56 56 56 84
internal_value=0 -0.755253 1.23225 1.83135 0.723147 -0.225214 -1.11821 1.56397 1.64378 1.01485 1.20061 -0.917228 0.00941602 0.866864 -0.138718 2.16239 2.02643 0.479811 0.610317 -0.738122 -1.29459 0.349304 2.28942 1.53966 1.46445 -0.452513 -0.373524 -0.542033 0.818588 -0.99484 -0.9655 2.34368 -1.16991 0.999796 0.131409 -0.284542 -1.35504 -1.33531 -1.35998 -1.31532 -0.451838 -1.02 -1.05477 -0.986762 0.458014 0.00170367 -1.26612 0.186365 -0.603722 -1.43813 -0.959173 -1.09784
internal_weight=0 2170 1330 611 719 882 1288 338 273 327 145 602 434 182 196 273 156 392 196 182 686 196 104 208 156 448 238 210 126 420 364 117 224 126 238 182 462 364 308 196 154 308 196 126 126 126 140 168 112 112 112 140
internal_count=3500 2170 1330 611 719 882 1288 338 273 327 145 602 434 182 196 273 156 392 196 182 686 196 104 208 156 448 238 210 126 420 364 117 224 126 238 182 462 364 308 196 154 308 196 126 126 126 140 168 112 112 112 140
is_linear=0
shrinkage=0.1


Tree=16
num_leaves=51
num_cat=0
split_feature=0 0 0 0 0 0 0 0 0 0 0 0 0 0 0 0 0 0 0 0 0 0 0 0 0 0 0 0 0 0 0 0 0 0 0 0 0 0 0 0 0 0 0 0 0 0 0 0 0 0
split_gain=263942 35573.5 31358.2 6303.6 4364.69 3063.68 2613.66 758.349 907.309 673.246 1213.28 564.854 486.108 418.793 414.196 471.952 375.1 364.651 356.41 449.718 334.507 760.381 330.31 320.541 251.651 199.772 180.044 169.507 160.069 167.481 134.022 400.583 361.074 130.087 234.172 122.806 76.3225 124.064 72.7245 71.1746 62.8604 46.6924 159.138 154.031 56.2029 43.777 43.5919 31.3393 17.3802 14.3827
threshold=2830993.5000000005 3996588.5000000005 1543196.0000000002 4748295.5000000009 2206268.0000000005 3392407.5000000005 996987.00000000012 5125060.5000000009 4997131.0000000009 4651688.5000000009 4390093.5000000009 2522094.5000000005 2420677.5000000005 802934.00000000012 1700267.5000000002 1632019.0000000002 3900113.5000000005 4218308.0000000009 3788617.5000000005 3585573.5000000005 3149464.0000000005 3285461.0000000005 3058651.5000000005 4129307.5000000005 1413039.0000000002 2715805.0000000005 4486776.0000000009 1481851.0000000002 938758.00000000012 888538.50000000012 1975537.5000000002 2108582.0000000005 1887270.0000000002 1346249.5000000002 1240007.0000000002 5242418.0000000009 478235.00000000006 516694.50000000006 1098394.5000000002 4873754.0000000009 1767260.5000000002 606334.00000000012 667626.50000000012 714338.00000000012 564359.50000000012 2340635.0000000005 3680014.0000000005 1160592.0000000002 2963439.5000000005 2606229.5000000005
decision_type=2 2 2 2 2 2 2 2 2 2 2 2 2 2 2 2 2 2 2 2 2 2 2 2 2 2 2 2 2 2 2 2 2 2 2 2 2 2 2 2 2 2 2 2 2 2 2 2 2 2
left_child=2 5 6 9 14 20 13 8 39 10 17 12 45 36 15 -4 18 23 19 -7 22 -22 48 -3 33 49 -12 -26 29 -15 32 -32 40 34 38 -9 -1 -38 -8 -5 -16 44 -43 -44 -39 -6 -21 -40 -2 -13
right_child=1 3 4 7 11 16 24 35 -10 -11 26 25 -14 28 30 -17 -18 -19 -20 46 21 -23 -24 -25 27 -27 -28 -29 -30 -31 31 -33 -34 -35 -36 -37 37 41 47 -41 -42 42 43 -45 -46 -47 -48 -49 -50 -51
leaf_value=-1.110096093586513 0.38003781420134364 1.1870414900856141 -0.44376703560352326 2.018407941873257 -0.0748136788454591 0.63847709295092803 -0.86695224018316075 1.9794200844203051 1.4826704310339232 0.97596570045615627 1.7462598874018742 0.21165028846423542 -0.3523298054933548 -1.0747591126025939 -0.2889738438384874 -0.8332522073494536 1.0242206189367506 1.0417559421215301 0.51098972572279833 0.99419504808528092 0.66895720944518144 0.22269773108618601 0.063906269573739599 1.5075684419331643 -0.6099810242120709 -0.03682155323880059 1.5060385585595402 -0.85602644995919297 -1.1783030030344215 -0.85797087929344595 -0.21042903285777692 -0.52364142460482455 -0.64740446036415444 -1.0440773693578584 -0.74935332104867824 2.1778158582938025 -1.3728283865244262 -1.2301140559571131 -1.0372172367626005 1.8614450660176001 -0.42178719429945466 -1.3482932026719763 -1.0448821700045041 -1.2527838594071112 -1.088436692740236 0.036021113701696909 0.86942110231944503 -0.94063999557069367 0.30811656026967937 0.14365759277982371
leaf_weight=56 84 78 70 65 98 98 98 52 65 52 52 56 70 98 56 56 54 78 56 56 84 70 56 52 56 70 78 56 70 56 98 70 70 56 98 78 56 56 56 52 98 84 56 98 56 56 56 84 56 70
leaf_count=56 84 78 70 65 98 98 98 52 65 52 52 56 70 98 56 56 54 78 56 56 84 70 56 52 56 70 78 56 70 56 98 70 70 56 98 78 56 56 56 52 98 84 56 98 56 56 56 84 56 70
internal_value=0 1.08151 -0.697286 1.57896 -0.26491 0.56029 -1.0381 1.91399 1.78223 1.31094 1.36247 -0.0253493 -0.133829 -1.16513 -0.459148 -0.616872 0.783927 1.21269 0.735145 0.79492 0.355822 0.466112 0.269166 1.31525 -0.8652 0.0986272 1.60213 -0.733004 -1.05292 -0.995927 -0.408451 -0.340934 -0.459089 -0.90297 -0.879452 2.09846 -1.21954 -1.23463 -0.933022 1.94865 -0.373491 -1.21252 -1.23757 -1.17718 -1.15928 -0.0345101 0.931808 -0.979271 0.351269 0.173877
internal_weight=0 1372 2128 702 938 670 1190 312 182 390 338 420 224 686 518 126 320 208 266 210 350 154 196 130 504 196 130 112 224 154 392 168 224 392 336 130 462 406 238 117 154 350 238 154 112 154 112 140 140 126
internal_count=3500 1372 2128 702 938 670 1190 312 182 390 338 420 224 686 518 126 320 208 266 210 350 154 196 130 504 196 130 112 224 154 392 168 224 392 336 130 462 406 238 117 154 350 238 154 112 154 112 140 140 126
is_linear=0
shrinkage=0.1


Tree=17
num_leaves=53
num_cat=0
split_feature=0 0 0 0 0 0 0 0 0 0 0 0 0 0 0 0 0 0 0 0 0 0 0 0 0 0 0 0 0 0 0 0 0 0 0 0 0 0 0 0 0 0 0 0 0 0 0 0 0 0 0 0
split_gain=213943 27423 26750.5 3626.55 3305.11 3060.67 2978.03 826.536 805.974 682.794 1708.72 528.882 511.548 500.74 499.201 1237.19 496.788 768.348 535.515 451.33 404.885 366.884 297.767 375.478 286.19 604.207 257.732 541.83 241.516 211.514 469.931 207.749 141.864 114.961 79.297 64.7057 101.924 89.4498 62.8611 53.9003 49.7525 119.01 41.8903 47.6896 36.5868 40.5021 35.3095 26.8135 26.1225 8.05427 7.60366 6.26275
threshold=2891746.5000000005 1667042.0000000002 4152315.5000000005 4823958.5000000009 3585573.5000000005 2244467.5000000005 1007307.5000000001 4696264.0000000009 4565307.0000000009 3466926.5000000005 3369171.5000000005 1451644.5000000002 2563457.0000000005 2482116.0000000005 4932664.5000000009 5125060.5000000009 3900113.5000000005 4062006.5000000005 3788617.5000000005 1581855.5000000002 2377410.5000000005 802934.00000000012 3215911.0000000005 3108287.5000000005 4247043.5000000009 4390093.5000000009 2168887.0000000005 1975537.5000000002 1887270.0000000002 1376904.5000000002 1315939.5000000002 2781968.0000000005 5279793.0000000009 961774.00000000012 912522.50000000012 488872.50000000006 635683.00000000012 751920.50000000012 3003648.5000000005 860550.50000000012 1098394.5000000002 1201793.5000000002 1735573.5000000002 1800126.5000000002 528232.50000000012 572634.00000000012 3680014.0000000005 690923.50000000012 2054844.5000000002 1511550.0000000002 1253374.5000000002 2690109.0000000005
decision_type=2 2 2 2 2 2 2 2 2 2 2 2 2 2 2 2 2 2 2 2 2 2 2 2 2 2 2 2 2 2 2 2 2 2 2 2 2 2 2 2 2 2 2 2 2 2 2 2 2 2 2 2
left_child=1 6 4 7 9 26 21 8 24 10 22 29 13 20 -5 -16 18 -18 46 49 -7 35 23 38 -4 -26 27 28 42 30 40 51 -17 34 39 -1 44 47 -2 -23 -8 -42 -3 -44 -37 -46 -6 -38 -29 -13 -43 -14
right_child=2 5 3 14 16 12 11 -9 -10 -11 -12 19 31 -15 15 32 17 -19 -20 -21 -22 33 -24 -25 25 -27 -28 48 -30 -31 -32 -33 -34 -35 -36 36 37 -39 -40 -41 41 50 43 -45 45 -47 -48 -49 -50 -51 -52 -53
leaf_value=-1.0090206636701311 0.32125436638082783 -0.29213137211544171 1.4496335489818684 2.0350213426810044 0.89477559487734526 -0.14323456351056088 -0.76050463957445968 0.94573537221321691 1.649881614630039 0.072780840178685524 0.95512910988181832 -0.50102098514991145 0.17195625294532096 -0.35731861346534322 1.4078582446653765 1.9930751983936017 1.1371611583617427 0.65718466547819288 0.45989072833742412 -0.79789106422236999 0.17165523179939815 -0.89170674209083833 0.49475291027706503 0.095571151801518039 0.94588266436870283 1.3450710269121025 -0.56652216033211777 -0.23234901806073532 -0.58266398887549131 -0.98429382629692563 -0.50947806611657143 -0.021766734144517352 1.784148308130411 -1.0700473498286944 -0.80719062068632663 -1.0960746053074089 -1.0634430538756507 -1.169220301934651 0.46339984933978751 -1.0233315885066987 -0.93204355651930892 -0.7550915203988553 -0.46486181425196788 -0.34105222626456194 -1.2575879606817451 -1.147796347240607 0.78247898758522105 -0.97591594581093111 -0.14417550571573276 -0.44738775759137106 -0.8072028647842151 0.21512932681611607
leaf_weight=70 70 56 52 52 56 98 84 65 65 56 56 56 84 56 91 65 93 52 56 70 70 70 98 70 65 91 56 56 70 56 56 70 65 56 56 56 70 56 56 56 98 56 56 70 56 84 56 70 84 56 56 56
leaf_count=70 70 56 52 52 56 98 84 65 65 56 56 56 84 56 91 65 93 52 56 70 70 70 98 70 65 91 56 56 70 56 56 70 65 56 56 56 70 56 56 56 98 56 56 70 56 84 56 70 84 56 56 56
internal_value=0 -0.612084 0.998663 1.48516 0.585239 -0.182497 -0.906258 1.26621 1.34252 0.396987 0.448861 -0.74035 0.00676713 -0.0983525 1.75625 1.69065 0.829424 0.965032 0.712382 -0.598699 -0.0120305 -1.04562 0.352428 0.281266 1.24647 1.17874 -0.365847 -0.337179 -0.424809 -0.803848 -0.774977 0.118895 1.88861 -0.944754 -0.906202 -1.09758 -1.1134 -1.06241 0.38443 -0.950207 -0.825548 -0.851565 -0.364095 -0.396079 -1.16439 -1.19171 0.838627 -1.01968 -0.179445 -0.474204 -0.781147 0.189225
internal_weight=0 2170 1330 611 719 882 1288 338 273 406 350 588 434 224 273 221 313 145 168 182 168 700 294 196 208 156 448 392 252 406 350 210 130 238 182 462 392 196 126 126 294 210 182 126 196 140 112 140 140 112 112 140
internal_count=3500 2170 1330 611 719 882 1288 338 273 406 350 588 434 224 273 221 313 145 168 182 168 700 294 196 208 156 448 392 252 406 350 210 130 238 182 462 392 196 126 126 294 210 182 126 196 140 112 140 140 112 112 140
is_linear=0
shrinkage=0.1


Tree=18
num_leaves=52
num_cat=0
split_feature=0 0 0 0 0 0 0 0 0 0 0 0 0 0 0 0 0 0 0 0 0 0 0 0 0 0 0 0 0 0 0 0 0 0 0 0 0 0 0 0 0 0 0 0 0 0 0 0 0 0 0
split_gain=173407 23463.2 20679.2 4292.98 2865.67 2025.1 1690.36 644.836 1151.65 508.131 851.804 372.059 428.341 293.194 274 375.401 270.429 222.643 303.279 221.54 266.801 407.252 221.024 708.612 274.361 199.77 172.434 167.749 253.118 155.871 172.609 136.373 126.026 256.345 114.45 162.637 64.5131 117.169 73.0966 62.6741 59.8154 57.0315 50.1988 44.4515 35.8199 26.7942 24.3784 18.0832 14.2958 11.5697 3.41835
threshold=2830993.5000000005 3996588.5000000005 1543196.0000000002 4748295.5000000009 2206268.0000000005 3392407.5000000005 996987.00000000012 4598764.0000000009 4390093.5000000009 5242418.0000000009 5078490.0000000009 2522094.5000000005 2420677.5000000005 4218308.0000000009 1917543.0000000002 2032500.5000000002 802934.00000000012 3492982.0000000005 3900113.5000000005 1845925.0000000002 1700267.5000000002 1632019.0000000002 3149464.0000000005 3285461.0000000005 3058651.5000000005 4129307.5000000005 2715805.0000000005 4969663.0000000009 4850289.5000000009 1413039.0000000002 1481851.0000000002 925594.00000000012 3788617.5000000005 3610174.0000000005 1346249.5000000002 1225239.0000000002 506703.50000000006 553173.50000000012 616736.00000000012 1098394.5000000002 751920.50000000012 2283998.5000000005 2127943.0000000005 1767260.5000000002 690923.50000000012 2940585.0000000005 2606229.5000000005 4486776.0000000009 1279571.5000000002 1160592.0000000002 876666.50000000012
decision_type=2 2 2 2 2 2 2 2 2 2 2 2 2 2 2 2 2 2 2 2 2 2 2 2 2 2 2 2 2 2 2 2 2 2 2 2 2 2 2 2 2 2 2 2 2 2 2 2 2 2 2
left_child=2 5 6 7 14 22 16 8 13 10 27 12 41 25 19 -16 36 -7 32 20 21 -4 24 -24 45 -3 46 28 -5 34 -31 50 33 -19 35 39 -1 -38 -39 -8 44 -6 -17 -22 -40 -2 -13 -10 -37 -41 -18
right_child=1 3 4 9 11 17 29 -9 47 -11 -12 26 -14 -15 15 42 31 18 -20 -21 43 -23 23 -25 -26 -27 -28 -29 -30 30 -32 -33 -34 -35 -36 48 37 38 40 49 -42 -43 -44 -45 -46 -47 -48 -49 -50 -51 -52
leaf_value=-1.059841808980825 0.33521248291113548 0.97862007140349128 -0.33362135750906807 1.7010100960731507 0.0657389165035316 0.81624265640441862 -0.69978452503909272 0.80225945390187781 1.4371268006471487 1.7781372498243284 1.2135952853812624 0.1997533792363746 -0.31310339655194963 0.83459626634915685 -0.11962343284061977 -0.33608620847974507 -0.78073808946425016 0.41840640870588164 0.8080824392813224 -0.61141916896615722 -0.22222680090261357 -0.6954258722120098 0.57254529190914971 0.14174513791288648 0.029567098830427442 1.2316594599531248 -0.045176493610654567 1.7649780432765301 1.3889956205796739 -0.47471718396991491 -0.72300336105482921 -0.95466643657003125 0.41390166857412886 0.68661068065129982 -0.86498105651366386 -0.64790324343900596 -0.83537751681038319 -1.0721797943115234 -0.97198450005784331 -0.84029113985598092 -1.0522982993828398 -0.060766906850990288 -0.46311113658760283 -0.34175918708954539 -0.87832434866045217 0.24771685793463671 0.11123274536537274 1.3537297316468679 -0.57644941359758384 -0.77930896111897063 -0.8126342437097005
leaf_weight=98 70 78 70 52 56 56 98 78 52 78 78 56 70 78 84 70 84 56 54 56 56 56 84 70 56 52 70 52 52 56 56 84 56 98 56 56 56 84 98 56 56 98 56 70 70 70 70 52 56 70 56
leaf_count=98 70 78 70 52 56 56 98 78 52 78 78 56 70 78 84 70 84 56 54 56 56 56 84 70 56 52 70 52 52 56 56 84 56 98 56 56 56 84 98 56 56 98 56 70 70 70 70 52 56 70 56
internal_value=0 0.876612 -0.565184 1.28062 -0.214066 0.453313 -0.841948 1.05943 1.12372 1.5571 1.48342 -0.0199545 -0.107996 0.987871 -0.371454 -0.283374 -0.944105 0.635135 0.596718 -0.431509 -0.391529 -0.494423 0.287077 0.376727 0.216637 1.07984 0.0806639 1.61833 1.545 -0.702901 -0.59886 -0.853935 0.542367 0.589082 -0.732626 -0.710567 -0.987824 -0.968434 -0.992627 -0.759763 -0.962794 -0.0147648 -0.392542 -0.288634 -0.932959 0.291465 0.150575 1.39543 -0.612176 -0.806412 -0.793497
internal_weight=0 1372 2128 702 938 670 1190 390 312 312 234 420 224 208 518 210 686 320 264 308 252 126 350 154 196 130 196 156 104 504 112 224 210 154 392 336 462 364 308 224 224 154 126 126 168 140 126 104 112 126 140
internal_count=3500 1372 2128 702 938 670 1190 390 312 312 234 420 224 208 518 210 686 320 264 308 252 126 350 154 196 130 196 156 104 504 112 224 210 154 392 336 462 364 308 224 224 154 126 126 168 140 126 104 112 126 140
is_linear=0
shrinkage=0.1


Tree=19
num_leaves=54
num_cat=0
split_feature=0 0 0 0 0 0 0 0 0 0 0 0 0 0 0 0 0 0 0 0 0 0 0 0 0 0 0 0 0 0 0 0 0 0 0 0 0 0 0 0 0 0 0 0 0 0 0 0 0 0 0 0 0
split_gain=140545 18072.4 17652.3 2570.24 2468.31 2225.41 1461.05 811.347 635.802 1066.14 494.822 518.364 456.557 683.384 381.349 346.956 336.955 306.904 670.001 422.373 253.652 207.769 202.779 304.075 191.958 192.227 387.723 176.739 148.787 112.551 95.6708 157.781 96.9081 127.443 78.1861 98.7596 207.921 158.884 116.721 73.6821 68.8842 296.203 233.865 63.0317 46.1955 40.661 36.0057 28.838 60.4117 24.0165 14.6474 9.11098 6.81661
threshold=2891746.5000000005 1564753.0000000002 4152315.5000000005 2206268.0000000005 4748295.5000000009 3552276.5000000005 888538.50000000012 4598764.0000000009 3415108.0000000005 3215911.0000000005 4390093.5000000009 4247043.5000000009 5125060.5000000009 4997131.0000000009 2522094.5000000005 2420677.5000000005 3108287.5000000005 3900113.5000000005 4062006.5000000005 3655811.5000000005 1201793.5000000002 3329005.0000000005 1917543.0000000002 2032500.5000000002 1845925.0000000002 1700267.5000000002 1632019.0000000002 5279793.0000000009 2781968.0000000005 3788617.5000000005 938758.00000000012 996987.00000000012 1131400.0000000002 1070688.5000000002 506703.50000000006 778391.50000000012 690923.50000000012 606334.00000000012 836960.50000000012 4873754.0000000009 1451644.5000000002 1376904.5000000002 1315939.5000000002 3003648.5000000005 2283998.5000000005 2127943.0000000005 1767260.5000000002 2690109.0000000005 2606229.5000000005 553173.50000000012 4486776.0000000009 1253374.5000000002 646333.00000000012
decision_type=2 2 2 2 2 2 2 2 2 2 2 2 2 2 2 2 2 2 2 2 2 2 2 2 2 2 2 2 2 2 2 2 2 2 2 2 2 2 2 2 2 2 2 2 2 2 2 2 2 2 2 2 2
left_child=1 6 5 22 7 8 34 10 9 16 11 -4 13 39 15 44 43 19 -19 -7 30 -11 24 -24 25 26 -3 -14 47 -21 -8 -32 33 -33 -1 36 37 49 -37 -6 41 42 51 -2 -5 -25 -27 48 -16 -36 -12 -22 -39
right_child=2 3 4 14 12 17 20 -9 -10 21 50 -13 27 -15 28 -17 -18 18 -20 29 40 -23 23 45 -26 46 -28 -29 -30 -31 31 32 -34 -35 35 38 -38 52 -40 -41 -42 -43 -44 -45 -46 -47 -48 -49 -50 -51 -52 -53 -54
leaf_value=-0.9538575997157972 0.26085742282015939 -0.25376444791576697 1.1914308034456693 0.059165030398539133 1.5145614245992443 0.80824860435511392 -0.59583343831556179 0.722033532613363 0.039756564923695156 0.48437430577618734 1.2934141246172099 0.76783476664469796 1.6611172979382367 1.0391750974838549 0.17977803992440128 -0.28179306123937881 0.050478652843407225 0.93548520729746876 0.48727819830752339 0.56271439211709162 -0.6082217854048525 0.74279785858733316 -0.10766109746126902 -0.30247758977647338 -0.55027726132954868 -0.20000412767486916 -0.62588326409459116 1.4279197736886831 -0.03789575638515609 0.37251147803451334 -0.8685156093537808 -0.73115789349590032 -0.7879531856945583 -0.52876305856875017 -0.75183972016509093 -1.0171062859892845 -0.7046158212484146 -0.93967574983835223 -0.82341186893837792 1.3548574695220361 -0.51918669446390509 -0.81887952131884445 -0.3864587557901229 0.40319565712873429 -0.054690219420103395 -0.41680002012955292 -0.30758326896599364 0.1942238177571978 0.032891667048845975 -0.83970085859298715 1.2183567481545303 -0.66526495292782784 -0.989016432900514
leaf_weight=98 70 56 52 56 65 56 56 78 70 70 52 65 65 65 56 70 70 93 52 70 56 56 84 70 56 56 56 65 70 56 70 70 70 56 56 70 98 56 56 52 98 56 56 56 98 56 70 56 56 70 52 56 56
leaf_count=98 70 56 52 56 65 56 56 78 70 70 52 65 65 65 56 70 70 93 52 70 56 56 84 70 56 56 56 65 70 56 70 70 70 56 56 70 98 56 56 52 98 56 56 56 98 56 70 56 56 70 52 56 56
internal_value=0 -0.4961 0.809426 -0.173916 1.20463 0.473588 -0.754596 0.999312 0.312904 0.372284 1.09718 0.9561 1.40139 1.29915 -0.00354671 -0.097196 0.22639 0.666212 0.774749 0.579739 -0.651872 0.599229 -0.330089 -0.255037 -0.383697 -0.344501 -0.439824 1.54452 0.0845938 0.47818 -0.714631 -0.739641 -0.693615 -0.641205 -0.872728 -0.855519 -0.827206 -0.877684 -0.93102 1.44358 -0.589113 -0.619706 -0.553315 0.324119 -0.0132883 -0.353288 -0.25977 0.135631 0.106335 -0.800651 1.25589 -0.636743 -0.964346
internal_weight=0 2170 1330 966 611 719 1204 299 392 322 221 117 312 182 462 224 196 327 145 182 644 126 504 210 294 238 112 130 238 126 322 266 196 126 560 462 336 238 126 117 322 224 168 126 154 126 126 168 112 126 104 112 112
internal_count=3500 2170 1330 966 611 719 1204 299 392 322 221 117 312 182 462 224 196 327 145 182 644 126 504 210 294 238 112 130 238 126 322 266 196 126 560 462 336 238 126 117 322 224 168 126 154 126 126 168 112 126 104 112 112
is_linear=0
shrinkage=0.1


Tree=20
num_leaves=54
num_cat=0
split_feature=0 0 0 0 0 0 0 0 0 0 0 0 0 0 0 0 0 0 0 0 0 0 0 0 0 0 0 0 0 0 0 0 0 0 0 0 0 0 0 0 0 0 0 0 0 0 0 0 0 0 0 0 0
split_gain=113947 15493.6 13541 2781.94 1784.95 1417.49 1183.45 612.853 1148.08 410.841 819.637 338.852 632.208 357.817 256.322 237.833 385.626 471.411 353.475 235.102 697.905 286.428 205.458 187.535 165.637 164.251 246.301 155.486 155.704 314.055 143.158 97.9854 101.263 81.3145 171.544 77.4933 127.803 78.4956 103.228 76.5485 75.6125 79.291 64.9867 64.1427 181.681 131.446 57.2756 52.1071 35.5883 32.9354 31.2451 29.1646 26.9269
threshold=2830993.5000000005 3996588.5000000005 1564753.0000000002 4823958.5000000009 2206268.0000000005 3392407.5000000005 888538.50000000012 4696264.0000000009 4565307.0000000009 4932664.5000000009 5125060.5000000009 4276564.0000000009 4458643.5000000009 4172670.0000000005 3492982.0000000005 2563457.0000000005 2482116.0000000005 2377410.5000000005 2302127.5000000005 3285461.0000000005 3193289.0000000005 3108287.5000000005 1201793.5000000002 2715805.0000000005 3900113.5000000005 1917543.0000000002 2032500.5000000002 1845925.0000000002 1700267.5000000002 1632019.0000000002 5279793.0000000009 3003648.5000000005 2914411.0000000005 3610174.0000000005 3788617.5000000005 938758.00000000012 996987.00000000012 1131400.0000000002 1070688.5000000002 802934.00000000012 488872.50000000006 616736.00000000012 714338.00000000012 1413039.0000000002 1346249.5000000002 1481851.0000000002 4087515.5000000005 667626.50000000012 528232.50000000012 2127943.0000000005 572634.00000000012 1767260.5000000002 1266813.5000000002
decision_type=2 2 2 2 2 2 2 2 2 2 2 2 2 2 2 2 2 2 2 2 2 2 2 2 2 2 2 2 2 2 2 2 2 2 2 2 2 2 2 2 2 2 2 2 2 2 2 2 2 2 2 2 2
left_child=2 5 6 7 25 19 39 8 11 -5 -11 13 -13 46 -7 16 17 18 -6 20 21 31 35 -17 33 27 -27 28 29 -4 -12 32 -2 -16 -35 -8 -37 38 -38 40 -1 48 47 44 52 -45 -3 -43 -42 -28 -50 -30 -24
right_child=1 3 4 9 15 14 22 -9 -10 10 30 12 -14 -15 24 23 -18 -19 -20 -21 -22 -23 43 -25 -26 26 49 -29 51 -31 -32 -33 -34 34 -36 36 37 -39 -40 -41 41 42 -44 45 -46 -47 -48 -49 50 -51 -52 -53 -54
leaf_value=-0.70674864411354066 0.29595546892711094 0.92717833182273002 -0.22838799739921734 1.5413482903287961 0.020947707455073086 0.71306670840297437 -0.53625010794826922 0.59725582893078144 1.3115082899882244 0.99876253840687523 1.4950055626722483 1.1179332188852542 0.68083825867909653 0.53169405804230618 0.33416550079626695 0.16350944221627958 -0.31081849985889032 0.19480178645678931 -0.31612332382106356 0.063627784874822416 0.58427815321566801 -0.0062739938763635497 -0.54895164634500238 -0.050796447736876353 0.63372563752863142 -0.096894973658380068 -0.2722298365192754 -0.49524953451805881 -0.18000372712101256 -0.56329494501863209 1.285127870119535 0.36287610123732261 0.1057838102536542 0.55466291417880942 0.33526035754808359 -0.7816640043258668 -0.65804211518594202 -0.70915788735662189 -0.47588673766170236 -0.70517993399075107 -0.80642133615911016 -0.79064574612038474 -0.84170418518538392 -0.36034214752061028 -0.71821603932018796 -0.56589144306523465 0.77875641527084216 -0.66122893515442105 -0.95687429508460431 -0.37512002951864687 -0.85123828889003816 -0.27682493559483973 -0.46123959141118187
leaf_weight=70 56 52 56 52 70 56 56 65 65 91 65 91 52 52 56 98 56 70 56 70 56 56 70 70 54 84 70 56 56 56 65 56 56 98 56 70 70 70 56 98 56 70 98 56 56 70 52 56 56 56 56 70 70
leaf_count=70 56 52 56 52 70 56 56 65 65 91 65 91 52 52 56 98 56 70 56 70 56 56 70 70 54 84 70 56 56 56 65 56 56 98 56 70 70 70 56 98 56 70 98 56 56 70 52 56 56 56 56 70 70
internal_value=0 0.710602 -0.458152 1.0389 -0.170202 0.366624 -0.679136 0.880098 0.930605 1.28845 1.22894 0.8478 0.95899 0.745876 0.518743 -0.0179479 -0.07939 -0.0132676 -0.128862 0.227545 0.268524 0.189585 -0.586685 0.0742153 0.477523 -0.29708 -0.229533 -0.345327 -0.310051 -0.395841 1.39007 0.254872 0.20087 0.437356 0.47488 -0.643168 -0.665677 -0.624253 -0.577084 -0.785455 -0.802483 -0.819579 -0.78063 -0.530202 -0.565987 -0.474536 0.852967 -0.733127 -0.871511 -0.317959 -0.904056 -0.233793 -0.505096
internal_weight=0 1372 2128 702 924 670 1204 429 364 273 221 299 143 156 320 420 252 196 126 350 280 224 644 168 264 504 210 294 238 112 130 168 112 210 154 322 266 196 126 560 462 392 224 322 196 126 104 126 168 126 112 126 140
internal_count=3500 1372 2128 702 924 670 1204 429 364 273 221 299 143 156 320 420 252 196 126 350 280 224 644 168 264 504 210 294 238 112 130 168 112 210 154 322 266 196 126 560 462 392 224 322 196 126 104 126 168 126 112 126 140
is_linear=0
shrinkage=0.1


Tree=21
num_leaves=53
num_cat=0
split_feature=0 0 0 0 0 0 0 0 0 0 0 0 0 0 0 0 0 0 0 0 0 0 0 0 0 0 0 0 0 0 0 0 0 0 0 0 0 0 0 0 0 0 0 0 0 0 0 0 0 0 0 0
split_gain=92346.1 11887.1 11685.8 1701.87 1481.15 1336.95 1277.62 739.354 370.535 514.365 339.174 833.773 282.871 558.713 272.218 245.643 594.52 231.328 501.859 289.443 218.362 205.898 276.449 192.719 294.13 175.872 438.846 180.434 272.221 169.962 429.946 151.787 99.589 154.864 81.6477 65.8648 138.951 61.2461 67.8281 117.79 91.6837 94.0186 61.079 60.7449 58.7455 35.0876 25.2423 47.2042 19.2411 9.39235 6.64017 3.71386
threshold=2891746.5000000005 1667042.0000000002 4152315.5000000005 4748295.5000000009 3392407.5000000005 2377410.5000000005 1070688.5000000002 4598764.0000000009 4390093.5000000009 4247043.5000000009 5242418.0000000009 5078490.0000000009 3900113.5000000005 4062006.5000000005 3492982.0000000005 2461724.5000000005 2541673.5000000005 3285461.0000000005 3193289.0000000005 3108287.5000000005 802934.00000000012 4969663.0000000009 4850289.5000000009 1975537.5000000002 1903294.0000000002 1451644.5000000002 1581855.5000000002 1376904.5000000002 1315939.5000000002 2168887.0000000005 2244467.5000000005 2781968.0000000005 1830595.0000000002 1735573.5000000002 1131400.0000000002 3610174.0000000005 3788617.5000000005 488872.50000000006 564359.50000000012 606334.00000000012 667626.50000000012 714338.00000000012 2054844.5000000002 876666.50000000012 1201793.5000000002 3003648.5000000005 973223.00000000012 925594.00000000012 2690109.0000000005 1253374.5000000002 4486776.0000000009 1511550.0000000002
decision_type=2 2 2 2 2 2 2 2 2 2 2 2 2 2 2 2 2 2 2 2 2 2 2 2 2 2 2 2 2 2 2 2 2 2 2 2 2 2 2 2 2 2 2 2 2 2 2 2 2 2 2 2
left_child=1 6 4 7 17 23 20 8 9 -4 11 21 14 -14 -6 -7 -17 18 19 45 37 22 -5 24 32 27 51 28 34 42 -31 48 33 -3 -8 -16 -37 -1 -39 -40 -41 -42 -25 -22 -36 -2 47 -45 -18 -46 -10 -27
right_child=2 5 3 10 12 15 25 -9 50 -11 -12 -13 13 -15 35 16 31 -19 -20 -21 43 -23 -24 29 -26 26 -28 -29 -30 30 -32 -33 -34 -35 44 36 -38 38 39 40 41 -43 -44 46 49 -47 -48 -49 -50 -51 -52 -53
leaf_value=-0.63607375758034845 0.22038986985172546 -0.13857627809047698 1.0129417645243499 1.2961250712092107 0.64176002245928565 0.22883689957005637 -0.42829805995736808 0.54248773271623907 1.0632067551979654 0.59098277426682988 1.3216341773668925 0.81389634364690533 0.76625806857501311 0.35696418179342382 0.3007489527276318 -0.29202241658100059 0.10104366934725217 0.05726500934788159 0.52585033769054079 -0.0056465809100440575 -0.54012039640829679 1.3767944685541667 0.97004751952794877 -0.16203080016587462 -0.48217091932892803 -0.29280252930309092 -0.59377137128795898 -0.68306366251116357 -0.28884008867400035 -0.45441097545304471 -0.1070664298625625 -0.049831626542976931 -0.10959986866052662 -0.35326325210432213 -0.63824209570884705 0.49919661530578624 0.30173431102718629 -0.80966912451941442 -0.5831157976495368 -0.82834683848278867 -0.59510602919118749 -0.75753378665872984 -0.027204004874719041 -0.60824976350579951 -0.49250442050397397 0.32658849653089422 -0.60367536090162344 -0.73809061039771351 0.17452343702316286 -0.5504216917923519 1.0126705084855741 -0.2563830539850252
leaf_weight=70 70 56 52 52 56 56 56 78 52 65 78 78 93 52 56 56 98 70 56 56 84 52 52 56 56 56 70 56 56 56 98 70 56 84 70 98 56 98 56 84 56 98 84 56 56 56 98 56 56 56 52 56
leaf_count=70 70 56 52 52 56 56 56 78 52 65 78 78 93 52 56 56 98 70 56 56 84 52 52 56 56 56 70 56 56 56 98 70 56 84 70 98 56 98 56 84 56 98 84 56 56 56 98 56 56 56 52 56
internal_value=0 -0.402134 0.656114 0.977663 0.382864 -0.1193 -0.595814 0.807179 0.900599 0.77852 1.14104 1.08085 0.507112 0.619477 0.44586 0.0376458 -0.000592418 0.217066 0.264066 0.183517 -0.679362 1.21432 1.13309 -0.215883 -0.280054 -0.477087 -0.397354 -0.518549 -0.487213 -0.160879 -0.233374 0.0722651 -0.222306 -0.267388 -0.533889 0.393621 0.427392 -0.722235 -0.737621 -0.713605 -0.744308 -0.698469 -0.0811347 -0.611991 -0.566378 0.267589 -0.640739 -0.67317 0.127764 -0.521463 1.03794 -0.274593
internal_weight=0 2170 1330 611 719 882 1288 299 221 117 312 234 411 145 266 336 280 308 238 182 756 156 104 546 252 532 182 350 294 294 154 224 196 140 238 210 154 462 392 294 238 154 140 294 182 126 210 112 154 112 104 112
internal_count=3500 2170 1330 611 719 882 1288 299 221 117 312 234 411 145 266 336 280 308 238 182 756 156 104 546 252 532 182 350 294 294 154 224 196 140 238 210 154 462 392 294 238 154 140 294 182 126 210 112 154 112 104 112
is_linear=0
shrinkage=0.1


Tree=22
num_leaves=51
num_cat=0
split_feature=0 0 0 0 0 0 0 0 0 0 0 0 0 0 0 0 0 0 0 0 0 0 0 0 0 0 0 0 0 0 0 0 0 0 0 0 0 0 0 0 0 0 0 0 0 0 0 0 0 0
split_gain=74891.7 10242.2 8964.79 1899.77 1164.9 888.837 782.783 420.36 667.28 356.423 280.885 541.449 183.194 299.317 171.192 162.454 301.884 158.874 474.423 220.246 123.612 117.221 182.886 181.896 115.832 105.611 238.326 149.749 100.071 279.139 81.0144 81.011 73.5343 121.525 154.22 139.63 81.5177 48.8542 116.456 47.2441 39.2968 36.9934 33.1464 30.5902 29.964 46.8141 28.6808 17.0076 11.4883 7.6078
threshold=2830993.5000000005 3996588.5000000005 1564753.0000000002 4748295.5000000009 2206268.0000000005 3392407.5000000005 888538.50000000012 4598764.0000000009 4276564.0000000009 4172670.0000000005 5125060.5000000009 4898748.0000000009 3817801.5000000005 3585573.5000000005 5279793.0000000009 2522094.5000000005 2420677.5000000005 3285461.0000000005 3173708.0000000005 3086048.0000000005 2715805.0000000005 1315939.5000000002 1376904.5000000002 1451644.5000000002 4409625.0000000009 1917543.0000000002 2032500.5000000002 1845925.0000000002 1700267.5000000002 1632019.0000000002 3706216.5000000005 5021693.0000000009 506703.50000000006 778391.50000000012 690923.50000000012 606334.00000000012 836960.50000000012 938758.00000000012 996987.00000000012 2283998.5000000005 2940585.0000000005 4087515.5000000005 2606229.5000000005 1781436.0000000002 1098394.5000000002 1201793.5000000002 553173.50000000012 2127943.0000000005 646333.00000000012 1253374.5000000002
decision_type=2 2 2 2 2 2 2 2 2 2 2 2 2 2 2 2 2 2 2 2 2 2 2 2 2 2 2 2 2 2 2 2 2 2 2 2 2 2 2 2 2 2 2 2 2 2 2 2 2 2
left_child=2 5 6 7 25 17 32 8 9 41 11 -5 13 -7 -12 16 39 18 19 40 42 37 -23 -24 -10 27 -27 28 29 -4 -15 -13 -1 34 35 46 -35 -8 -39 -6 -2 -3 -17 -30 -40 -46 -34 -28 -37 -47
right_child=1 3 4 10 15 12 21 -9 24 -11 14 31 -14 30 -16 20 -18 -19 -20 -21 -22 22 23 -25 -26 26 47 -29 43 -31 -32 -33 33 36 -36 48 -38 38 44 -41 -42 -43 -44 -45 45 49 -48 -49 -50 -51
leaf_value=-0.71638195631189316 0.26191288177456173 0.76806707951741726 -0.1546067771102701 1.1459137226526555 0.079227622491972793 0.33533539157740927 -0.41855407154985835 0.4882389507041528 0.99598761407228631 0.38777945101117861 1.253960634286587 0.88563363357232172 0.30129960874716444 0.496634242925793 1.0244516783494217 0.16888799308632901 -0.24450125949723378 0.05153850476656642 0.44543078277792247 -0.025007495097815993 -0.054194938625608174 -0.25995607354811262 -0.61475730964115693 -0.38883230167997018 0.82120486448754326 -0.054995394294105826 -0.23958991101809912 -0.42545031357024404 -0.22663662705038276 -0.4703480646546398 0.65800448187759952 0.70911712348461153 -0.50752406003219741 -0.77670810001237056 -0.48402768714087352 -0.68229411835117004 -0.61483740655572294 -0.63506517897759174 -0.4465164693946741 -0.035912620447271941 0.16046330654727561 0.64878490246259257 0.065668756802167216 -0.12747731277985233 -0.56395701197337134 -0.44325399276401312 -0.60353882129703251 -0.31352726551038879 -0.74634839424065191 -0.49537951573729516
leaf_weight=98 70 52 56 78 56 98 56 78 65 52 65 52 96 70 65 56 70 70 70 56 70 56 56 98 91 84 70 56 70 56 56 52 56 70 98 56 56 70 98 98 84 52 70 56 98 56 70 56 56 56
leaf_count=98 70 52 56 78 56 98 56 78 65 52 65 52 96 70 65 56 70 70 70 56 70 56 56 98 91 84 70 56 70 56 56 52 56 70 98 56 56 70 98 98 84 52 70 56 98 56 70 56 56 56
internal_value=0 0.576092 -0.371428 0.843016 -0.137133 0.296419 -0.551235 0.695878 0.747787 0.601544 1.02694 0.946749 0.416876 0.466409 1.13921 -0.0141354 -0.0723115 0.186286 0.219973 0.144821 0.0523515 -0.476045 -0.414712 -0.470987 0.894031 -0.239632 -0.185469 -0.27832 -0.243701 -0.312477 0.568354 0.797375 -0.637703 -0.621013 -0.589606 -0.63308 -0.704766 -0.505722 -0.518636 0.00595656 0.206577 0.708426 0.111544 -0.182566 -0.492175 -0.513482 -0.560866 -0.272451 -0.714321 -0.469317
